SVM-light Version V6.02
0 # kernel type
3 # kernel parameter -d 
1 # kernel parameter -g 
1 # kernel parameter -s 
1 # kernel parameter -r 
empty# kernel parameter -u 
2000 # highest feature index 
2000 # number of training documents 
645 # number of support vectors plus 1 
0.58509739 # threshold b, each following line is a SV (starting with alpha*y)
-0.16312921658859519391526760045963 30:0.11624764 53:0.11624764 77:0.11624764 83:0.11624764 88:0.11624764 92:0.11624764 122:0.11624764 218:0.11624764 257:0.11624764 274:0.11624764 328:0.11624764 351:0.11624764 361:0.11624764 368:0.11624764 404:0.11624764 424:0.11624764 477:0.11624764 546:0.11624764 561:0.11624764 571:0.11624764 608:0.11624764 609:0.11624764 678:0.11624764 700:0.11624764 746:0.11624764 749:0.11624764 772:0.11624764 813:0.11624764 836:0.11624764 870:0.11624764 877:0.11624764 918:0.11624764 927:0.11624764 987:0.11624764 995:0.11624764 1004:0.11624764 1013:0.11624764 1057:0.11624764 1100:0.11624764 1114:0.11624764 1140:0.11624764 1155:0.11624764 1167:0.11624764 1191:0.11624764 1245:0.11624764 1285:0.11624764 1291:0.11624764 1310:0.11624764 1322:0.11624764 1353:0.11624764 1379:0.11624764 1403:0.11624764 1439:0.11624764 1452:0.11624764 1464:0.11624764 1471:0.11624764 1502:0.11624764 1510:0.11624764 1535:0.11624764 1618:0.11624764 1625:0.11624764 1648:0.11624764 1696:0.11624764 1705:0.11624764 1727:0.11624764 1737:0.11624764 1738:0.11624764 1750:0.11624764 1754:0.11624764 1815:0.11624764 1850:0.11624764 1947:0.11624764 1956:0.11624764 1957:0.11624764 #
1 30:0.17149858 39:0.17149858 40:0.17149858 63:0.17149858 160:0.17149858 351:0.17149858 413:0.17149858 420:0.17149858 424:0.17149858 501:0.17149858 531:0.17149858 645:0.17149858 749:0.17149858 769:0.17149858 836:0.17149858 982:0.17149858 1082:0.17149858 1190:0.17149858 1216:0.17149858 1300:0.17149858 1305:0.17149858 1310:0.17149858 1348:0.17149858 1460:0.17149858 1471:0.17149858 1489:0.17149858 1535:0.17149858 1574:0.17149858 1670:0.17149858 1676:0.17149858 1719:0.17149858 1727:0.17149858 1843:0.17149858 1960:0.17149858 #
0.39113789078336658189272156960214 69:0.1042572 77:0.1042572 133:0.1042572 138:0.1042572 139:0.1042572 160:0.1042572 207:0.1042572 263:0.1042572 284:0.1042572 336:0.1042572 351:0.1042572 357:0.1042572 359:0.1042572 362:0.1042572 381:0.1042572 418:0.1042572 424:0.1042572 477:0.1042572 487:0.1042572 524:0.1042572 597:0.1042572 608:0.1042572 616:0.1042572 627:0.1042572 643:0.1042572 672:0.1042572 673:0.1042572 677:0.1042572 701:0.1042572 749:0.1042572 784:0.1042572 823:0.1042572 862:0.1042572 871:0.1042572 947:0.1042572 954:0.1042572 972:0.1042572 976:0.1042572 978:0.1042572 1009:0.1042572 1015:0.1042572 1083:0.1042572 1095:0.1042572 1135:0.1042572 1159:0.1042572 1220:0.1042572 1227:0.1042572 1243:0.1042572 1263:0.1042572 1291:0.1042572 1310:0.1042572 1315:0.1042572 1328:0.1042572 1331:0.1042572 1336:0.1042572 1340:0.1042572 1462:0.1042572 1464:0.1042572 1467:0.1042572 1471:0.1042572 1472:0.1042572 1477:0.1042572 1482:0.1042572 1498:0.1042572 1535:0.1042572 1560:0.1042572 1568:0.1042572 1581:0.1042572 1582:0.1042572 1618:0.1042572 1630:0.1042572 1670:0.1042572 1676:0.1042572 1684:0.1042572 1688:0.1042572 1691:0.1042572 1705:0.1042572 1727:0.1042572 1748:0.1042572 1765:0.1042572 1771:0.1042572 1821:0.1042572 1844:0.1042572 1848:0.1042572 1861:0.1042572 1898:0.1042572 1927:0.1042572 1935:0.1042572 1956:0.1042572 1960:0.1042572 1962:0.1042572 1963:0.1042572 #
0.30036207203353432193537742023182 63:0.09245003 64:0.09245003 79:0.09245003 92:0.09245003 99:0.09245003 103:0.09245003 122:0.09245003 133:0.09245003 139:0.09245003 160:0.09245003 205:0.09245003 211:0.09245003 246:0.09245003 263:0.09245003 267:0.09245003 269:0.09245003 313:0.09245003 328:0.09245003 340:0.09245003 351:0.09245003 357:0.09245003 359:0.09245003 381:0.09245003 405:0.09245003 410:0.09245003 414:0.09245003 418:0.09245003 424:0.09245003 445:0.09245003 455:0.09245003 460:0.09245003 465:0.09245003 486:0.09245003 609:0.09245003 620:0.09245003 623:0.09245003 629:0.09245003 645:0.09245003 672:0.09245003 676:0.09245003 677:0.09245003 726:0.09245003 749:0.09245003 759:0.09245003 767:0.09245003 772:0.09245003 823:0.09245003 837:0.09245003 865:0.09245003 951:0.09245003 954:0.09245003 963:0.09245003 965:0.09245003 972:0.09245003 976:0.09245003 982:0.09245003 987:0.09245003 1033:0.09245003 1057:0.09245003 1061:0.09245003 1081:0.09245003 1083:0.09245003 1097:0.09245003 1100:0.09245003 1178:0.09245003 1182:0.09245003 1204:0.09245003 1210:0.09245003 1229:0.09245003 1235:0.09245003 1240:0.09245003 1268:0.09245003 1314:0.09245003 1315:0.09245003 1321:0.09245003 1328:0.09245003 1357:0.09245003 1373:0.09245003 1376:0.09245003 1394:0.09245003 1436:0.09245003 1450:0.09245003 1464:0.09245003 1471:0.09245003 1479:0.09245003 1482:0.09245003 1498:0.09245003 1521:0.09245003 1536:0.09245003 1563:0.09245003 1606:0.09245003 1611:0.09245003 1614:0.09245003 1618:0.09245003 1668:0.09245003 1680:0.09245003 1684:0.09245003 1695:0.09245003 1727:0.09245003 1737:0.09245003 1742:0.09245003 1750:0.09245003 1779:0.09245003 1788:0.09245003 1833:0.09245003 1844:0.09245003 1848:0.09245003 1850:0.09245003 1856:0.09245003 1863:0.09245003 1910:0.09245003 1921:0.09245003 1935:0.09245003 1955:0.09245003 1956:0.09245003 1988:0.09245003 1995:0.09245003 #
0.8546886796774627592654383079207 5:0.08703883 8:0.08703883 49:0.08703883 63:0.08703883 66:0.08703883 74:0.08703883 88:0.08703883 90:0.08703883 91:0.08703883 92:0.08703883 118:0.08703883 120:0.08703883 138:0.08703883 139:0.08703883 149:0.08703883 160:0.08703883 176:0.08703883 199:0.08703883 208:0.08703883 209:0.08703883 211:0.08703883 267:0.08703883 285:0.08703883 313:0.08703883 351:0.08703883 408:0.08703883 424:0.08703883 439:0.08703883 443:0.08703883 454:0.08703883 479:0.08703883 486:0.08703883 512:0.08703883 527:0.08703883 538:0.08703883 608:0.08703883 620:0.08703883 626:0.08703883 627:0.08703883 645:0.08703883 655:0.08703883 672:0.08703883 677:0.08703883 709:0.08703883 725:0.08703883 746:0.08703883 749:0.08703883 756:0.08703883 757:0.08703883 772:0.08703883 775:0.08703883 796:0.08703883 805:0.08703883 807:0.08703883 838:0.08703883 870:0.08703883 872:0.08703883 919:0.08703883 954:0.08703883 955:0.08703883 963:0.08703883 969:0.08703883 976:0.08703883 987:0.08703883 1003:0.08703883 1004:0.08703883 1015:0.08703883 1017:0.08703883 1057:0.08703883 1060:0.08703883 1068:0.08703883 1081:0.08703883 1087:0.08703883 1091:0.08703883 1097:0.08703883 1114:0.08703883 1119:0.08703883 1127:0.08703883 1133:0.08703883 1149:0.08703883 1153:0.08703883 1159:0.08703883 1168:0.08703883 1175:0.08703883 1179:0.08703883 1188:0.08703883 1190:0.08703883 1201:0.08703883 1262:0.08703883 1278:0.08703883 1308:0.08703883 1328:0.08703883 1336:0.08703883 1402:0.08703883 1421:0.08703883 1423:0.08703883 1434:0.08703883 1452:0.08703883 1464:0.08703883 1471:0.08703883 1488:0.08703883 1526:0.08703883 1536:0.08703883 1582:0.08703883 1600:0.08703883 1602:0.08703883 1611:0.08703883 1618:0.08703883 1628:0.08703883 1679:0.08703883 1690:0.08703883 1707:0.08703883 1727:0.08703883 1732:0.08703883 1737:0.08703883 1754:0.08703883 1767:0.08703883 1801:0.08703883 1815:0.08703883 1822:0.08703883 1848:0.08703883 1853:0.08703883 1869:0.08703883 1892:0.08703883 1898:0.08703883 1908:0.08703883 1925:0.08703883 1927:0.08703883 1956:0.08703883 1962:0.08703883 1966:0.08703883 1988:0.08703883 #
1 24:0.10976426 69:0.10976426 73:0.10976426 83:0.10976426 88:0.10976426 90:0.10976426 105:0.10976426 123:0.10976426 160:0.10976426 251:0.10976426 263:0.10976426 285:0.10976426 293:0.10976426 294:0.10976426 344:0.10976426 348:0.10976426 351:0.10976426 357:0.10976426 372:0.10976426 424:0.10976426 434:0.10976426 456:0.10976426 502:0.10976426 579:0.10976426 608:0.10976426 614:0.10976426 645:0.10976426 672:0.10976426 698:0.10976426 700:0.10976426 725:0.10976426 741:0.10976426 749:0.10976426 772:0.10976426 845:0.10976426 847:0.10976426 864:0.10976426 954:0.10976426 956:0.10976426 963:0.10976426 982:0.10976426 987:0.10976426 1004:0.10976426 1005:0.10976426 1015:0.10976426 1053:0.10976426 1083:0.10976426 1154:0.10976426 1168:0.10976426 1201:0.10976426 1216:0.10976426 1267:0.10976426 1300:0.10976426 1305:0.10976426 1325:0.10976426 1328:0.10976426 1353:0.10976426 1451:0.10976426 1464:0.10976426 1509:0.10976426 1526:0.10976426 1535:0.10976426 1555:0.10976426 1567:0.10976426 1618:0.10976426 1636:0.10976426 1637:0.10976426 1665:0.10976426 1670:0.10976426 1705:0.10976426 1715:0.10976426 1727:0.10976426 1732:0.10976426 1751:0.10976426 1765:0.10976426 1791:0.10976426 1814:0.10976426 1851:0.10976426 1877:0.10976426 1910:0.10976426 1921:0.10976426 1956:0.10976426 1959:0.10976426 #
1 10:0.13363062 77:0.13363062 91:0.13363062 113:0.13363062 126:0.13363062 160:0.13363062 192:0.13363062 198:0.13363062 247:0.13363062 288:0.13363062 318:0.13363062 350:0.13363062 351:0.13363062 357:0.13363062 392:0.13363062 505:0.13363062 543:0.13363062 546:0.13363062 613:0.13363062 635:0.13363062 669:0.13363062 672:0.13363062 717:0.13363062 725:0.13363062 749:0.13363062 769:0.13363062 845:0.13363062 870:0.13363062 872:0.13363062 882:0.13363062 900:0.13363062 904:0.13363062 956:0.13363062 972:0.13363062 983:0.13363062 1144:0.13363062 1159:0.13363062 1169:0.13363062 1190:0.13363062 1256:0.13363062 1279:0.13363062 1285:0.13363062 1331:0.13363062 1460:0.13363062 1473:0.13363062 1535:0.13363062 1539:0.13363062 1618:0.13363062 1670:0.13363062 1727:0.13363062 1788:0.13363062 1819:0.13363062 1912:0.13363062 1956:0.13363062 1962:0.13363062 1976:0.13363062 #
0.92697547122414336584483862679917 15:0.082760587 16:0.082760587 30:0.082760587 43:0.082760587 44:0.082760587 51:0.082760587 53:0.082760587 54:0.082760587 63:0.082760587 77:0.082760587 91:0.082760587 99:0.082760587 113:0.082760587 130:0.082760587 138:0.082760587 139:0.082760587 149:0.082760587 192:0.082760587 199:0.082760587 206:0.082760587 263:0.082760587 267:0.082760587 268:0.082760587 270:0.082760587 282:0.082760587 313:0.082760587 326:0.082760587 328:0.082760587 329:0.082760587 345:0.082760587 351:0.082760587 357:0.082760587 381:0.082760587 392:0.082760587 413:0.082760587 415:0.082760587 418:0.082760587 424:0.082760587 456:0.082760587 479:0.082760587 483:0.082760587 554:0.082760587 557:0.082760587 562:0.082760587 597:0.082760587 608:0.082760587 614:0.082760587 642:0.082760587 658:0.082760587 672:0.082760587 673:0.082760587 679:0.082760587 709:0.082760587 722:0.082760587 725:0.082760587 736:0.082760587 741:0.082760587 745:0.082760587 749:0.082760587 757:0.082760587 763:0.082760587 811:0.082760587 853:0.082760587 854:0.082760587 872:0.082760587 878:0.082760587 885:0.082760587 904:0.082760587 905:0.082760587 919:0.082760587 931:0.082760587 954:0.082760587 956:0.082760587 957:0.082760587 963:0.082760587 976:0.082760587 978:0.082760587 986:0.082760587 1003:0.082760587 1004:0.082760587 1015:0.082760587 1042:0.082760587 1051:0.082760587 1057:0.082760587 1070:0.082760587 1083:0.082760587 1167:0.082760587 1169:0.082760587 1171:0.082760587 1188:0.082760587 1191:0.082760587 1201:0.082760587 1204:0.082760587 1210:0.082760587 1220:0.082760587 1225:0.082760587 1231:0.082760587 1245:0.082760587 1256:0.082760587 1326:0.082760587 1328:0.082760587 1331:0.082760587 1345:0.082760587 1359:0.082760587 1379:0.082760587 1381:0.082760587 1398:0.082760587 1409:0.082760587 1452:0.082760587 1463:0.082760587 1464:0.082760587 1471:0.082760587 1477:0.082760587 1535:0.082760587 1541:0.082760587 1548:0.082760587 1562:0.082760587 1580:0.082760587 1616:0.082760587 1618:0.082760587 1620:0.082760587 1630:0.082760587 1646:0.082760587 1680:0.082760587 1684:0.082760587 1692:0.082760587 1711:0.082760587 1727:0.082760587 1737:0.082760587 1746:0.082760587 1750:0.082760587 1775:0.082760587 1794:0.082760587 1814:0.082760587 1816:0.082760587 1844:0.082760587 1851:0.082760587 1853:0.082760587 1869:0.082760587 1898:0.082760587 1899:0.082760587 1927:0.082760587 1937:0.082760587 1962:0.082760587 1988:0.082760587 1998:0.082760587 #
0.74615815090953352406444309963263 8:0.084818892 24:0.084818892 30:0.084818892 39:0.084818892 56:0.084818892 63:0.084818892 76:0.084818892 77:0.084818892 88:0.084818892 90:0.084818892 105:0.084818892 134:0.084818892 144:0.084818892 158:0.084818892 160:0.084818892 227:0.084818892 255:0.084818892 307:0.084818892 308:0.084818892 311:0.084818892 328:0.084818892 348:0.084818892 351:0.084818892 357:0.084818892 359:0.084818892 385:0.084818892 386:0.084818892 424:0.084818892 434:0.084818892 456:0.084818892 470:0.084818892 484:0.084818892 512:0.084818892 531:0.084818892 551:0.084818892 598:0.084818892 608:0.084818892 612:0.084818892 617:0.084818892 622:0.084818892 627:0.084818892 635:0.084818892 645:0.084818892 665:0.084818892 672:0.084818892 673:0.084818892 709:0.084818892 714:0.084818892 725:0.084818892 749:0.084818892 763:0.084818892 772:0.084818892 807:0.084818892 811:0.084818892 823:0.084818892 833:0.084818892 872:0.084818892 887:0.084818892 890:0.084818892 904:0.084818892 921:0.084818892 972:0.084818892 976:0.084818892 987:0.084818892 993:0.084818892 1004:0.084818892 1015:0.084818892 1033:0.084818892 1037:0.084818892 1051:0.084818892 1083:0.084818892 1098:0.084818892 1133:0.084818892 1134:0.084818892 1135:0.084818892 1185:0.084818892 1186:0.084818892 1188:0.084818892 1216:0.084818892 1219:0.084818892 1220:0.084818892 1229:0.084818892 1261:0.084818892 1262:0.084818892 1267:0.084818892 1285:0.084818892 1305:0.084818892 1310:0.084818892 1318:0.084818892 1321:0.084818892 1326:0.084818892 1328:0.084818892 1339:0.084818892 1347:0.084818892 1350:0.084818892 1389:0.084818892 1452:0.084818892 1454:0.084818892 1464:0.084818892 1471:0.084818892 1478:0.084818892 1482:0.084818892 1503:0.084818892 1535:0.084818892 1536:0.084818892 1575:0.084818892 1606:0.084818892 1618:0.084818892 1620:0.084818892 1632:0.084818892 1669:0.084818892 1684:0.084818892 1693:0.084818892 1725:0.084818892 1727:0.084818892 1742:0.084818892 1750:0.084818892 1777:0.084818892 1785:0.084818892 1816:0.084818892 1819:0.084818892 1843:0.084818892 1844:0.084818892 1853:0.084818892 1861:0.084818892 1875:0.084818892 1878:0.084818892 1884:0.084818892 1920:0.084818892 1921:0.084818892 1927:0.084818892 1941:0.084818892 1956:0.084818892 1963:0.084818892 1974:0.084818892 1988:0.084818892 1989:0.084818892 1991:0.084818892 1996:0.084818892 #
-0.21356702566608878890441758358065 52:0.090166964 53:0.090166964 77:0.090166964 81:0.090166964 87:0.090166964 90:0.090166964 99:0.090166964 122:0.090166964 133:0.090166964 134:0.090166964 139:0.090166964 140:0.090166964 143:0.090166964 147:0.090166964 160:0.090166964 202:0.090166964 239:0.090166964 263:0.090166964 313:0.090166964 328:0.090166964 336:0.090166964 351:0.090166964 357:0.090166964 359:0.090166964 403:0.090166964 405:0.090166964 409:0.090166964 424:0.090166964 451:0.090166964 456:0.090166964 514:0.090166964 520:0.090166964 526:0.090166964 536:0.090166964 546:0.090166964 550:0.090166964 559:0.090166964 570:0.090166964 603:0.090166964 604:0.090166964 608:0.090166964 627:0.090166964 642:0.090166964 645:0.090166964 669:0.090166964 672:0.090166964 684:0.090166964 711:0.090166964 725:0.090166964 738:0.090166964 749:0.090166964 778:0.090166964 784:0.090166964 800:0.090166964 808:0.090166964 825:0.090166964 845:0.090166964 869:0.090166964 870:0.090166964 884:0.090166964 886:0.090166964 895:0.090166964 900:0.090166964 904:0.090166964 910:0.090166964 944:0.090166964 954:0.090166964 963:0.090166964 972:0.090166964 987:0.090166964 1004:0.090166964 1015:0.090166964 1062:0.090166964 1083:0.090166964 1094:0.090166964 1141:0.090166964 1147:0.090166964 1168:0.090166964 1170:0.090166964 1190:0.090166964 1201:0.090166964 1214:0.090166964 1223:0.090166964 1272:0.090166964 1305:0.090166964 1310:0.090166964 1336:0.090166964 1353:0.090166964 1358:0.090166964 1471:0.090166964 1475:0.090166964 1478:0.090166964 1483:0.090166964 1498:0.090166964 1499:0.090166964 1535:0.090166964 1536:0.090166964 1560:0.090166964 1580:0.090166964 1607:0.090166964 1618:0.090166964 1684:0.090166964 1694:0.090166964 1705:0.090166964 1741:0.090166964 1746:0.090166964 1764:0.090166964 1776:0.090166964 1816:0.090166964 1831:0.090166964 1833:0.090166964 1835:0.090166964 1848:0.090166964 1853:0.090166964 1877:0.090166964 1898:0.090166964 1899:0.090166964 1904:0.090166964 1910:0.090166964 1956:0.090166964 1960:0.090166964 1971:0.090166964 1988:0.090166964 #
-1 2:0.12403473 34:0.12403473 44:0.12403473 76:0.12403473 77:0.12403473 160:0.12403473 191:0.12403473 198:0.12403473 215:0.12403473 247:0.12403473 313:0.12403473 348:0.12403473 350:0.12403473 367:0.12403473 392:0.12403473 528:0.12403473 543:0.12403473 546:0.12403473 575:0.12403473 610:0.12403473 613:0.12403473 635:0.12403473 637:0.12403473 648:0.12403473 672:0.12403473 684:0.12403473 714:0.12403473 725:0.12403473 778:0.12403473 839:0.12403473 845:0.12403473 870:0.12403473 887:0.12403473 911:0.12403473 924:0.12403473 954:0.12403473 956:0.12403473 972:0.12403473 974:0.12403473 987:0.12403473 1015:0.12403473 1159:0.12403473 1169:0.12403473 1256:0.12403473 1305:0.12403473 1413:0.12403473 1433:0.12403473 1464:0.12403473 1483:0.12403473 1516:0.12403473 1535:0.12403473 1536:0.12403473 1539:0.12403473 1559:0.12403473 1618:0.12403473 1670:0.12403473 1753:0.12403473 1789:0.12403473 1842:0.12403473 1853:0.12403473 1898:0.12403473 1904:0.12403473 1912:0.12403473 1960:0.12403473 1976:0.12403473 #
-0.73855644188899427504679806588683 40:0.12403473 44:0.12403473 77:0.12403473 88:0.12403473 139:0.12403473 160:0.12403473 212:0.12403473 233:0.12403473 265:0.12403473 309:0.12403473 325:0.12403473 340:0.12403473 353:0.12403473 398:0.12403473 421:0.12403473 424:0.12403473 456:0.12403473 537:0.12403473 608:0.12403473 661:0.12403473 673:0.12403473 691:0.12403473 763:0.12403473 794:0.12403473 807:0.12403473 808:0.12403473 845:0.12403473 847:0.12403473 878:0.12403473 976:0.12403473 1004:0.12403473 1033:0.12403473 1157:0.12403473 1158:0.12403473 1275:0.12403473 1277:0.12403473 1305:0.12403473 1328:0.12403473 1349:0.12403473 1406:0.12403473 1471:0.12403473 1477:0.12403473 1486:0.12403473 1499:0.12403473 1517:0.12403473 1526:0.12403473 1534:0.12403473 1576:0.12403473 1610:0.12403473 1618:0.12403473 1659:0.12403473 1680:0.12403473 1684:0.12403473 1711:0.12403473 1741:0.12403473 1750:0.12403473 1793:0.12403473 1853:0.12403473 1861:0.12403473 1898:0.12403473 1939:0.12403473 1956:0.12403473 1960:0.12403473 1988:0.12403473 1997:0.12403473 #
-0.5068027921053869233602995336696 30:0.075164601 39:0.075164601 52:0.075164601 60:0.075164601 63:0.075164601 77:0.075164601 88:0.075164601 90:0.075164601 93:0.075164601 103:0.075164601 118:0.075164601 130:0.075164601 134:0.075164601 138:0.075164601 139:0.075164601 142:0.075164601 151:0.075164601 160:0.075164601 164:0.075164601 198:0.075164601 203:0.075164601 232:0.075164601 247:0.075164601 248:0.075164601 263:0.075164601 268:0.075164601 271:0.075164601 274:0.075164601 285:0.075164601 286:0.075164601 287:0.075164601 300:0.075164601 309:0.075164601 310:0.075164601 326:0.075164601 349:0.075164601 351:0.075164601 357:0.075164601 361:0.075164601 381:0.075164601 384:0.075164601 392:0.075164601 398:0.075164601 418:0.075164601 424:0.075164601 449:0.075164601 465:0.075164601 477:0.075164601 489:0.075164601 504:0.075164601 537:0.075164601 543:0.075164601 546:0.075164601 608:0.075164601 613:0.075164601 614:0.075164601 619:0.075164601 635:0.075164601 640:0.075164601 645:0.075164601 651:0.075164601 655:0.075164601 660:0.075164601 673:0.075164601 686:0.075164601 709:0.075164601 722:0.075164601 725:0.075164601 726:0.075164601 749:0.075164601 751:0.075164601 757:0.075164601 763:0.075164601 769:0.075164601 772:0.075164601 784:0.075164601 791:0.075164601 807:0.075164601 811:0.075164601 833:0.075164601 836:0.075164601 839:0.075164601 845:0.075164601 870:0.075164601 872:0.075164601 877:0.075164601 887:0.075164601 901:0.075164601 904:0.075164601 919:0.075164601 952:0.075164601 956:0.075164601 963:0.075164601 985:0.075164601 987:0.075164601 1001:0.075164601 1004:0.075164601 1009:0.075164601 1015:0.075164601 1016:0.075164601 1033:0.075164601 1057:0.075164601 1061:0.075164601 1065:0.075164601 1083:0.075164601 1103:0.075164601 1116:0.075164601 1119:0.075164601 1123:0.075164601 1159:0.075164601 1161:0.075164601 1163:0.075164601 1165:0.075164601 1188:0.075164601 1190:0.075164601 1196:0.075164601 1218:0.075164601 1220:0.075164601 1251:0.075164601 1267:0.075164601 1310:0.075164601 1322:0.075164601 1326:0.075164601 1327:0.075164601 1336:0.075164601 1354:0.075164601 1367:0.075164601 1370:0.075164601 1386:0.075164601 1433:0.075164601 1439:0.075164601 1452:0.075164601 1460:0.075164601 1464:0.075164601 1465:0.075164601 1471:0.075164601 1477:0.075164601 1506:0.075164601 1512:0.075164601 1523:0.075164601 1528:0.075164601 1532:0.075164601 1535:0.075164601 1542:0.075164601 1565:0.075164601 1582:0.075164601 1596:0.075164601 1602:0.075164601 1618:0.075164601 1630:0.075164601 1655:0.075164601 1670:0.075164601 1680:0.075164601 1684:0.075164601 1693:0.075164601 1711:0.075164601 1727:0.075164601 1737:0.075164601 1741:0.075164601 1767:0.075164601 1819:0.075164601 1822:0.075164601 1848:0.075164601 1851:0.075164601 1853:0.075164601 1904:0.075164601 1912:0.075164601 1914:0.075164601 1927:0.075164601 1956:0.075164601 1960:0.075164601 1963:0.075164601 1969:0.075164601 1976:0.075164601 1988:0.075164601 1996:0.075164601 1999:0.075164601 #
1 63:0.13245323 73:0.13245323 138:0.13245323 160:0.13245323 226:0.13245323 251:0.13245323 272:0.13245323 344:0.13245323 357:0.13245323 372:0.13245323 380:0.13245323 418:0.13245323 424:0.13245323 443:0.13245323 495:0.13245323 534:0.13245323 608:0.13245323 645:0.13245323 672:0.13245323 675:0.13245323 747:0.13245323 769:0.13245323 811:0.13245323 845:0.13245323 846:0.13245323 864:0.13245323 904:0.13245323 954:0.13245323 972:0.13245323 1004:0.13245323 1175:0.13245323 1182:0.13245323 1221:0.13245323 1247:0.13245323 1300:0.13245323 1305:0.13245323 1328:0.13245323 1353:0.13245323 1453:0.13245323 1464:0.13245323 1520:0.13245323 1535:0.13245323 1536:0.13245323 1555:0.13245323 1572:0.13245323 1618:0.13245323 1620:0.13245323 1656:0.13245323 1670:0.13245323 1715:0.13245323 1727:0.13245323 1848:0.13245323 1904:0.13245323 1907:0.13245323 1921:0.13245323 1956:0.13245323 1960:0.13245323 #
-1 3:0.076028593 8:0.076028593 30:0.076028593 44:0.076028593 48:0.076028593 63:0.076028593 88:0.076028593 117:0.076028593 134:0.076028593 138:0.076028593 139:0.076028593 154:0.076028593 160:0.076028593 233:0.076028593 243:0.076028593 248:0.076028593 263:0.076028593 282:0.076028593 293:0.076028593 305:0.076028593 313:0.076028593 326:0.076028593 330:0.076028593 332:0.076028593 340:0.076028593 351:0.076028593 357:0.076028593 361:0.076028593 388:0.076028593 401:0.076028593 413:0.076028593 417:0.076028593 418:0.076028593 424:0.076028593 441:0.076028593 444:0.076028593 456:0.076028593 459:0.076028593 464:0.076028593 477:0.076028593 484:0.076028593 504:0.076028593 505:0.076028593 529:0.076028593 576:0.076028593 588:0.076028593 604:0.076028593 608:0.076028593 635:0.076028593 645:0.076028593 668:0.076028593 672:0.076028593 680:0.076028593 686:0.076028593 687:0.076028593 706:0.076028593 717:0.076028593 722:0.076028593 725:0.076028593 749:0.076028593 763:0.076028593 772:0.076028593 801:0.076028593 806:0.076028593 807:0.076028593 811:0.076028593 823:0.076028593 827:0.076028593 843:0.076028593 845:0.076028593 849:0.076028593 872:0.076028593 877:0.076028593 878:0.076028593 900:0.076028593 905:0.076028593 908:0.076028593 950:0.076028593 954:0.076028593 961:0.076028593 963:0.076028593 972:0.076028593 976:0.076028593 981:0.076028593 989:0.076028593 1004:0.076028593 1012:0.076028593 1015:0.076028593 1038:0.076028593 1045:0.076028593 1049:0.076028593 1056:0.076028593 1069:0.076028593 1083:0.076028593 1092:0.076028593 1106:0.076028593 1119:0.076028593 1128:0.076028593 1133:0.076028593 1145:0.076028593 1151:0.076028593 1157:0.076028593 1169:0.076028593 1175:0.076028593 1177:0.076028593 1188:0.076028593 1216:0.076028593 1229:0.076028593 1239:0.076028593 1287:0.076028593 1294:0.076028593 1305:0.076028593 1310:0.076028593 1311:0.076028593 1314:0.076028593 1326:0.076028593 1353:0.076028593 1381:0.076028593 1402:0.076028593 1418:0.076028593 1430:0.076028593 1433:0.076028593 1445:0.076028593 1452:0.076028593 1453:0.076028593 1464:0.076028593 1471:0.076028593 1477:0.076028593 1499:0.076028593 1510:0.076028593 1522:0.076028593 1535:0.076028593 1546:0.076028593 1565:0.076028593 1582:0.076028593 1586:0.076028593 1588:0.076028593 1618:0.076028593 1620:0.076028593 1635:0.076028593 1667:0.076028593 1678:0.076028593 1680:0.076028593 1684:0.076028593 1685:0.076028593 1693:0.076028593 1694:0.076028593 1727:0.076028593 1742:0.076028593 1764:0.076028593 1771:0.076028593 1785:0.076028593 1789:0.076028593 1793:0.076028593 1832:0.076028593 1839:0.076028593 1844:0.076028593 1848:0.076028593 1851:0.076028593 1853:0.076028593 1856:0.076028593 1875:0.076028593 1877:0.076028593 1884:0.076028593 1897:0.076028593 1898:0.076028593 1910:0.076028593 1927:0.076028593 1934:0.076028593 1937:0.076028593 1956:0.076028593 1987:0.076028593 1990:0.076028593 #
0.44526876995930475544582805014215 11:0.098058067 22:0.098058067 59:0.098058067 63:0.098058067 88:0.098058067 99:0.098058067 103:0.098058067 139:0.098058067 160:0.098058067 165:0.098058067 212:0.098058067 235:0.098058067 248:0.098058067 263:0.098058067 281:0.098058067 293:0.098058067 313:0.098058067 340:0.098058067 351:0.098058067 357:0.098058067 390:0.098058067 409:0.098058067 418:0.098058067 424:0.098058067 477:0.098058067 504:0.098058067 546:0.098058067 608:0.098058067 635:0.098058067 645:0.098058067 651:0.098058067 672:0.098058067 709:0.098058067 722:0.098058067 749:0.098058067 757:0.098058067 760:0.098058067 769:0.098058067 775:0.098058067 825:0.098058067 845:0.098058067 847:0.098058067 853:0.098058067 874:0.098058067 877:0.098058067 882:0.098058067 904:0.098058067 906:0.098058067 953:0.098058067 954:0.098058067 960:0.098058067 961:0.098058067 963:0.098058067 970:0.098058067 972:0.098058067 976:0.098058067 979:0.098058067 982:0.098058067 987:0.098058067 1009:0.098058067 1010:0.098058067 1015:0.098058067 1044:0.098058067 1083:0.098058067 1091:0.098058067 1104:0.098058067 1119:0.098058067 1165:0.098058067 1167:0.098058067 1168:0.098058067 1169:0.098058067 1292:0.098058067 1303:0.098058067 1305:0.098058067 1328:0.098058067 1355:0.098058067 1377:0.098058067 1386:0.098058067 1419:0.098058067 1463:0.098058067 1464:0.098058067 1577:0.098058067 1589:0.098058067 1594:0.098058067 1598:0.098058067 1602:0.098058067 1606:0.098058067 1618:0.098058067 1673:0.098058067 1676:0.098058067 1680:0.098058067 1684:0.098058067 1727:0.098058067 1741:0.098058067 1780:0.098058067 1809:0.098058067 1843:0.098058067 1848:0.098058067 1898:0.098058067 1903:0.098058067 1927:0.098058067 1935:0.098058067 1956:0.098058067 1988:0.098058067 #
1 52:0.16903085 77:0.16903085 88:0.16903085 134:0.16903085 313:0.16903085 381:0.16903085 387:0.16903085 726:0.16903085 808:0.16903085 845:0.16903085 921:0.16903085 954:0.16903085 987:0.16903085 1004:0.16903085 1028:0.16903085 1083:0.16903085 1119:0.16903085 1169:0.16903085 1331:0.16903085 1386:0.16903085 1422:0.16903085 1591:0.16903085 1618:0.16903085 1702:0.16903085 1710:0.16903085 1749:0.16903085 1805:0.16903085 1816:0.16903085 1838:0.16903085 1848:0.16903085 1898:0.16903085 1904:0.16903085 1927:0.16903085 1948:0.16903085 1972:0.16903085 #
1 164:0.28867513 233:0.28867513 772:0.28867513 808:0.28867513 995:0.28867513 1328:0.28867513 1426:0.28867513 1502:0.28867513 1555:0.28867513 1618:0.28867513 1670:0.28867513 1793:0.28867513 #
1 27:0.14744195 123:0.14744195 133:0.14744195 136:0.14744195 253:0.14744195 266:0.14744195 272:0.14744195 351:0.14744195 357:0.14744195 372:0.14744195 465:0.14744195 472:0.14744195 547:0.14744195 651:0.14744195 665:0.14744195 673:0.14744195 790:0.14744195 808:0.14744195 838:0.14744195 879:0.14744195 954:0.14744195 963:0.14744195 972:0.14744195 974:0.14744195 987:0.14744195 1097:0.14744195 1245:0.14744195 1317:0.14744195 1320:0.14744195 1445:0.14744195 1522:0.14744195 1535:0.14744195 1602:0.14744195 1603:0.14744195 1659:0.14744195 1707:0.14744195 1741:0.14744195 1744:0.14744195 1750:0.14744195 1789:0.14744195 1822:0.14744195 1848:0.14744195 1926:0.14744195 1937:0.14744195 1962:0.14744195 1972:0.14744195 #
1 52:0.11624764 76:0.11624764 80:0.11624764 103:0.11624764 105:0.11624764 130:0.11624764 133:0.11624764 134:0.11624764 138:0.11624764 139:0.11624764 160:0.11624764 235:0.11624764 263:0.11624764 293:0.11624764 313:0.11624764 340:0.11624764 351:0.11624764 381:0.11624764 393:0.11624764 415:0.11624764 424:0.11624764 443:0.11624764 445:0.11624764 477:0.11624764 524:0.11624764 608:0.11624764 645:0.11624764 651:0.11624764 711:0.11624764 737:0.11624764 749:0.11624764 757:0.11624764 765:0.11624764 769:0.11624764 811:0.11624764 837:0.11624764 891:0.11624764 915:0.11624764 945:0.11624764 948:0.11624764 953:0.11624764 954:0.11624764 963:0.11624764 976:0.11624764 987:0.11624764 1010:0.11624764 1015:0.11624764 1091:0.11624764 1119:0.11624764 1141:0.11624764 1205:0.11624764 1210:0.11624764 1305:0.11624764 1328:0.11624764 1376:0.11624764 1406:0.11624764 1421:0.11624764 1463:0.11624764 1464:0.11624764 1498:0.11624764 1529:0.11624764 1532:0.11624764 1577:0.11624764 1625:0.11624764 1673:0.11624764 1741:0.11624764 1742:0.11624764 1804:0.11624764 1809:0.11624764 1843:0.11624764 1848:0.11624764 1922:0.11624764 1927:0.11624764 1967:0.11624764 #
-0.30801371465975535546277797038783 77:0.22941573 139:0.22941573 175:0.22941573 245:0.22941573 313:0.22941573 357:0.22941573 387:0.22941573 483:0.22941573 741:0.22941573 764:0.22941573 963:0.22941573 1067:0.22941573 1331:0.22941573 1580:0.22941573 1603:0.22941573 1898:0.22941573 1954:0.22941573 1961:0.22941573 1972:0.22941573 #
-0.18105728461638781467968328797724 80:0.16666667 138:0.16666667 160:0.16666667 234:0.16666667 313:0.16666667 328:0.16666667 424:0.16666667 478:0.16666667 514:0.16666667 546:0.16666667 581:0.16666667 625:0.16666667 627:0.16666667 672:0.16666667 730:0.16666667 733:0.16666667 769:0.16666667 862:0.16666667 987:0.16666667 1004:0.16666667 1159:0.16666667 1169:0.16666667 1221:0.16666667 1253:0.16666667 1276:0.16666667 1328:0.16666667 1445:0.16666667 1464:0.16666667 1471:0.16666667 1505:0.16666667 1618:0.16666667 1684:0.16666667 1703:0.16666667 1719:0.16666667 1956:0.16666667 1972:0.16666667 #
-0.13297059231486091368523716482741 63:0.12700012 83:0.12700012 88:0.12700012 99:0.12700012 134:0.12700012 144:0.12700012 164:0.12700012 174:0.12700012 267:0.12700012 313:0.12700012 351:0.12700012 381:0.12700012 387:0.12700012 424:0.12700012 515:0.12700012 608:0.12700012 701:0.12700012 714:0.12700012 716:0.12700012 756:0.12700012 842:0.12700012 872:0.12700012 880:0.12700012 897:0.12700012 901:0.12700012 972:0.12700012 987:0.12700012 1004:0.12700012 1007:0.12700012 1015:0.12700012 1028:0.12700012 1033:0.12700012 1083:0.12700012 1167:0.12700012 1169:0.12700012 1212:0.12700012 1220:0.12700012 1233:0.12700012 1290:0.12700012 1321:0.12700012 1328:0.12700012 1365:0.12700012 1403:0.12700012 1452:0.12700012 1453:0.12700012 1471:0.12700012 1477:0.12700012 1487:0.12700012 1557:0.12700012 1596:0.12700012 1602:0.12700012 1618:0.12700012 1727:0.12700012 1848:0.12700012 1851:0.12700012 1879:0.12700012 1898:0.12700012 1927:0.12700012 1935:0.12700012 1939:0.12700012 1956:0.12700012 1962:0.12700012 #
-0.77986407624183662345984657804365 42:0.17677669 245:0.17677669 284:0.17677669 313:0.17677669 374:0.17677669 424:0.17677669 478:0.17677669 483:0.17677669 626:0.17677669 643:0.17677669 737:0.17677669 781:0.17677669 816:0.17677669 822:0.17677669 963:0.17677669 1066:0.17677669 1067:0.17677669 1110:0.17677669 1124:0.17677669 1127:0.17677669 1184:0.17677669 1237:0.17677669 1385:0.17677669 1545:0.17677669 1603:0.17677669 1618:0.17677669 1764:0.17677669 1796:0.17677669 1814:0.17677669 1885:0.17677669 1927:0.17677669 1988:0.17677669 #
1 99:0.12216944 117:0.12216944 123:0.12216944 133:0.12216944 139:0.12216944 158:0.12216944 160:0.12216944 174:0.12216944 253:0.12216944 265:0.12216944 294:0.12216944 313:0.12216944 326:0.12216944 332:0.12216944 351:0.12216944 398:0.12216944 435:0.12216944 443:0.12216944 532:0.12216944 543:0.12216944 571:0.12216944 608:0.12216944 645:0.12216944 672:0.12216944 726:0.12216944 749:0.12216944 763:0.12216944 765:0.12216944 772:0.12216944 811:0.12216944 882:0.12216944 900:0.12216944 920:0.12216944 963:0.12216944 976:0.12216944 987:0.12216944 1005:0.12216944 1015:0.12216944 1067:0.12216944 1097:0.12216944 1114:0.12216944 1169:0.12216944 1216:0.12216944 1300:0.12216944 1305:0.12216944 1328:0.12216944 1451:0.12216944 1456:0.12216944 1464:0.12216944 1498:0.12216944 1520:0.12216944 1521:0.12216944 1535:0.12216944 1611:0.12216944 1618:0.12216944 1620:0.12216944 1634:0.12216944 1750:0.12216944 1754:0.12216944 1757:0.12216944 1808:0.12216944 1833:0.12216944 1910:0.12216944 1921:0.12216944 1953:0.12216944 1962:0.12216944 1992:0.12216944 #
1 38:0.15811388 105:0.15811388 160:0.15811388 198:0.15811388 247:0.15811388 263:0.15811388 338:0.15811388 350:0.15811388 351:0.15811388 357:0.15811388 392:0.15811388 421:0.15811388 456:0.15811388 477:0.15811388 543:0.15811388 546:0.15811388 613:0.15811388 645:0.15811388 673:0.15811388 763:0.15811388 845:0.15811388 870:0.15811388 955:0.15811388 956:0.15811388 972:0.15811388 1015:0.15811388 1159:0.15811388 1203:0.15811388 1345:0.15811388 1393:0.15811388 1452:0.15811388 1453:0.15811388 1535:0.15811388 1620:0.15811388 1670:0.15811388 1853:0.15811388 1912:0.15811388 1956:0.15811388 1960:0.15811388 1976:0.15811388 #
1 24:0.083045483 35:0.083045483 48:0.083045483 69:0.083045483 87:0.083045483 88:0.083045483 90:0.083045483 99:0.083045483 105:0.083045483 106:0.083045483 123:0.083045483 130:0.083045483 138:0.083045483 139:0.083045483 145:0.083045483 146:0.083045483 154:0.083045483 160:0.083045483 167:0.083045483 181:0.083045483 202:0.083045483 263:0.083045483 265:0.083045483 313:0.083045483 332:0.083045483 340:0.083045483 341:0.083045483 351:0.083045483 357:0.083045483 398:0.083045483 415:0.083045483 424:0.083045483 444:0.083045483 455:0.083045483 456:0.083045483 459:0.083045483 477:0.083045483 495:0.083045483 513:0.083045483 516:0.083045483 531:0.083045483 555:0.083045483 560:0.083045483 571:0.083045483 595:0.083045483 608:0.083045483 621:0.083045483 627:0.083045483 636:0.083045483 639:0.083045483 645:0.083045483 668:0.083045483 672:0.083045483 714:0.083045483 729:0.083045483 733:0.083045483 749:0.083045483 754:0.083045483 757:0.083045483 763:0.083045483 769:0.083045483 772:0.083045483 778:0.083045483 811:0.083045483 825:0.083045483 836:0.083045483 845:0.083045483 850:0.083045483 869:0.083045483 887:0.083045483 901:0.083045483 908:0.083045483 911:0.083045483 913:0.083045483 954:0.083045483 956:0.083045483 963:0.083045483 972:0.083045483 976:0.083045483 987:0.083045483 998:0.083045483 1004:0.083045483 1005:0.083045483 1015:0.083045483 1023:0.083045483 1033:0.083045483 1045:0.083045483 1083:0.083045483 1093:0.083045483 1128:0.083045483 1165:0.083045483 1174:0.083045483 1175:0.083045483 1182:0.083045483 1191:0.083045483 1192:0.083045483 1200:0.083045483 1205:0.083045483 1220:0.083045483 1246:0.083045483 1281:0.083045483 1305:0.083045483 1311:0.083045483 1328:0.083045483 1372:0.083045483 1374:0.083045483 1381:0.083045483 1403:0.083045483 1413:0.083045483 1425:0.083045483 1439:0.083045483 1452:0.083045483 1464:0.083045483 1471:0.083045483 1477:0.083045483 1498:0.083045483 1521:0.083045483 1536:0.083045483 1557:0.083045483 1620:0.083045483 1634:0.083045483 1643:0.083045483 1645:0.083045483 1649:0.083045483 1684:0.083045483 1687:0.083045483 1727:0.083045483 1742:0.083045483 1757:0.083045483 1759:0.083045483 1773:0.083045483 1808:0.083045483 1810:0.083045483 1848:0.083045483 1849:0.083045483 1851:0.083045483 1853:0.083045483 1875:0.083045483 1876:0.083045483 1893:0.083045483 1898:0.083045483 1910:0.083045483 1927:0.083045483 1956:0.083045483 1990:0.083045483 #
-0.070933571286234037289730736119964 19:0.12700012 39:0.12700012 53:0.12700012 68:0.12700012 69:0.12700012 77:0.12700012 79:0.12700012 87:0.12700012 88:0.12700012 99:0.12700012 133:0.12700012 138:0.12700012 263:0.12700012 298:0.12700012 316:0.12700012 340:0.12700012 351:0.12700012 357:0.12700012 368:0.12700012 381:0.12700012 455:0.12700012 456:0.12700012 465:0.12700012 546:0.12700012 558:0.12700012 608:0.12700012 672:0.12700012 700:0.12700012 741:0.12700012 749:0.12700012 811:0.12700012 887:0.12700012 913:0.12700012 927:0.12700012 954:0.12700012 987:0.12700012 1028:0.12700012 1133:0.12700012 1150:0.12700012 1159:0.12700012 1167:0.12700012 1219:0.12700012 1233:0.12700012 1258:0.12700012 1403:0.12700012 1433:0.12700012 1475:0.12700012 1479:0.12700012 1520:0.12700012 1528:0.12700012 1535:0.12700012 1545:0.12700012 1618:0.12700012 1620:0.12700012 1670:0.12700012 1684:0.12700012 1727:0.12700012 1737:0.12700012 1797:0.12700012 1898:0.12700012 1926:0.12700012 1956:0.12700012 #
1 32:0.13245323 138:0.13245323 139:0.13245323 154:0.13245323 160:0.13245323 217:0.13245323 263:0.13245323 298:0.13245323 326:0.13245323 351:0.13245323 356:0.13245323 362:0.13245323 398:0.13245323 424:0.13245323 456:0.13245323 477:0.13245323 581:0.13245323 627:0.13245323 645:0.13245323 672:0.13245323 679:0.13245323 724:0.13245323 737:0.13245323 749:0.13245323 763:0.13245323 811:0.13245323 829:0.13245323 846:0.13245323 847:0.13245323 849:0.13245323 963:0.13245323 987:0.13245323 1057:0.13245323 1083:0.13245323 1087:0.13245323 1178:0.13245323 1251:0.13245323 1303:0.13245323 1305:0.13245323 1323:0.13245323 1345:0.13245323 1393:0.13245323 1471:0.13245323 1499:0.13245323 1535:0.13245323 1580:0.13245323 1586:0.13245323 1600:0.13245323 1711:0.13245323 1727:0.13245323 1784:0.13245323 1815:0.13245323 1853:0.13245323 1935:0.13245323 1969:0.13245323 1972:0.13245323 1998:0.13245323 #
1 63:0.15617377 118:0.15617377 138:0.15617377 160:0.15617377 198:0.15617377 247:0.15617377 263:0.15617377 313:0.15617377 318:0.15617377 350:0.15617377 351:0.15617377 392:0.15617377 543:0.15617377 546:0.15617377 558:0.15617377 608:0.15617377 613:0.15617377 645:0.15617377 700:0.15617377 749:0.15617377 845:0.15617377 870:0.15617377 956:0.15617377 963:0.15617377 1107:0.15617377 1159:0.15617377 1169:0.15617377 1228:0.15617377 1464:0.15617377 1500:0.15617377 1535:0.15617377 1630:0.15617377 1670:0.15617377 1706:0.15617377 1727:0.15617377 1737:0.15617377 1848:0.15617377 1904:0.15617377 1912:0.15617377 1956:0.15617377 1976:0.15617377 #
-0.34882595470145855154342484638619 38:0.1490712 123:0.1490712 160:0.1490712 198:0.1490712 266:0.1490712 293:0.1490712 306:0.1490712 351:0.1490712 406:0.1490712 503:0.1490712 536:0.1490712 546:0.1490712 639:0.1490712 645:0.1490712 725:0.1490712 749:0.1490712 799:0.1490712 808:0.1490712 844:0.1490712 845:0.1490712 872:0.1490712 954:0.1490712 987:0.1490712 1015:0.1490712 1033:0.1490712 1216:0.1490712 1305:0.1490712 1326:0.1490712 1328:0.1490712 1331:0.1490712 1353:0.1490712 1529:0.1490712 1535:0.1490712 1536:0.1490712 1580:0.1490712 1596:0.1490712 1670:0.1490712 1741:0.1490712 1782:0.1490712 1816:0.1490712 1831:0.1490712 1851:0.1490712 1853:0.1490712 1886:0.1490712 1898:0.1490712 #
-0.63026175047847599053341127728345 38:0.10783277 49:0.10783277 63:0.10783277 103:0.10783277 138:0.10783277 139:0.10783277 160:0.10783277 217:0.10783277 303:0.10783277 325:0.10783277 326:0.10783277 328:0.10783277 340:0.10783277 343:0.10783277 351:0.10783277 359:0.10783277 425:0.10783277 427:0.10783277 448:0.10783277 456:0.10783277 479:0.10783277 497:0.10783277 531:0.10783277 554:0.10783277 559:0.10783277 645:0.10783277 651:0.10783277 672:0.10783277 683:0.10783277 749:0.10783277 772:0.10783277 794:0.10783277 837:0.10783277 847:0.10783277 851:0.10783277 872:0.10783277 896:0.10783277 954:0.10783277 963:0.10783277 982:0.10783277 987:0.10783277 993:0.10783277 995:0.10783277 1004:0.10783277 1083:0.10783277 1095:0.10783277 1198:0.10783277 1209:0.10783277 1238:0.10783277 1281:0.10783277 1305:0.10783277 1358:0.10783277 1377:0.10783277 1379:0.10783277 1429:0.10783277 1464:0.10783277 1471:0.10783277 1482:0.10783277 1495:0.10783277 1502:0.10783277 1518:0.10783277 1535:0.10783277 1589:0.10783277 1609:0.10783277 1638:0.10783277 1663:0.10783277 1670:0.10783277 1727:0.10783277 1728:0.10783277 1737:0.10783277 1745:0.10783277 1750:0.10783277 1792:0.10783277 1801:0.10783277 1809:0.10783277 1848:0.10783277 1851:0.10783277 1855:0.10783277 1872:0.10783277 1898:0.10783277 1910:0.10783277 1921:0.10783277 1931:0.10783277 1953:0.10783277 1956:0.10783277 1972:0.10783277 #
-0.064967589512631054859959078839893 16:0.1 52:0.1 63:0.1 75:0.1 90:0.1 117:0.1 118:0.1 130:0.1 139:0.1 160:0.1 179:0.1 183:0.1 200:0.1 246:0.1 252:0.1 282:0.1 285:0.1 288:0.1 328:0.1 351:0.1 357:0.1 410:0.1 424:0.1 432:0.1 456:0.1 492:0.1 509:0.1 513:0.1 524:0.1 546:0.1 550:0.1 580:0.1 608:0.1 618:0.1 648:0.1 660:0.1 672:0.1 711:0.1 749:0.1 757:0.1 763:0.1 772:0.1 783:0.1 807:0.1 937:0.1 954:0.1 961:0.1 987:0.1 1004:0.1 1015:0.1 1119:0.1 1145:0.1 1148:0.1 1171:0.1 1175:0.1 1190:0.1 1196:0.1 1209:0.1 1219:0.1 1281:0.1 1308:0.1 1310:0.1 1312:0.1 1315:0.1 1327:0.1 1452:0.1 1460:0.1 1464:0.1 1535:0.1 1542:0.1 1580:0.1 1582:0.1 1618:0.1 1622:0.1 1668:0.1 1670:0.1 1680:0.1 1693:0.1 1708:0.1 1731:0.1 1741:0.1 1750:0.1 1790:0.1 1818:0.1 1826:0.1 1831:0.1 1848:0.1 1852:0.1 1853:0.1 1878:0.1 1886:0.1 1910:0.1 1919:0.1 1932:0.1 1935:0.1 1949:0.1 1956:0.1 1958:0.1 1960:0.1 1988:0.1 #
-0.14805622484950428652261678053037 20:0.12700012 101:0.12700012 123:0.12700012 130:0.12700012 133:0.12700012 134:0.12700012 138:0.12700012 155:0.12700012 160:0.12700012 263:0.12700012 328:0.12700012 331:0.12700012 390:0.12700012 398:0.12700012 418:0.12700012 443:0.12700012 537:0.12700012 546:0.12700012 608:0.12700012 645:0.12700012 672:0.12700012 725:0.12700012 778:0.12700012 845:0.12700012 857:0.12700012 869:0.12700012 872:0.12700012 920:0.12700012 948:0.12700012 963:0.12700012 987:0.12700012 993:0.12700012 1002:0.12700012 1033:0.12700012 1057:0.12700012 1079:0.12700012 1143:0.12700012 1196:0.12700012 1277:0.12700012 1305:0.12700012 1324:0.12700012 1325:0.12700012 1326:0.12700012 1328:0.12700012 1353:0.12700012 1381:0.12700012 1440:0.12700012 1482:0.12700012 1512:0.12700012 1535:0.12700012 1543:0.12700012 1557:0.12700012 1670:0.12700012 1687:0.12700012 1711:0.12700012 1741:0.12700012 1765:0.12700012 1776:0.12700012 1798:0.12700012 1848:0.12700012 1853:0.12700012 1920:0.12700012 #
-0.69432333749127650435184477828443 30:0.15075567 53:0.15075567 58:0.15075567 77:0.15075567 99:0.15075567 190:0.15075567 272:0.15075567 313:0.15075567 326:0.15075567 351:0.15075567 357:0.15075567 374:0.15075567 387:0.15075567 424:0.15075567 456:0.15075567 525:0.15075567 584:0.15075567 627:0.15075567 741:0.15075567 749:0.15075567 873:0.15075567 901:0.15075567 954:0.15075567 986:0.15075567 1010:0.15075567 1058:0.15075567 1122:0.15075567 1265:0.15075567 1303:0.15075567 1331:0.15075567 1422:0.15075567 1571:0.15075567 1580:0.15075567 1618:0.15075567 1646:0.15075567 1727:0.15075567 1741:0.15075567 1831:0.15075567 1838:0.15075567 1853:0.15075567 1898:0.15075567 1934:0.15075567 1956:0.15075567 1960:0.15075567 #
1 34:0.14142136 53:0.14142136 64:0.14142136 77:0.14142136 79:0.14142136 101:0.14142136 114:0.14142136 207:0.14142136 234:0.14142136 263:0.14142136 387:0.14142136 424:0.14142136 573:0.14142136 608:0.14142136 626:0.14142136 672:0.14142136 674:0.14142136 699:0.14142136 741:0.14142136 749:0.14142136 772:0.14142136 800:0.14142136 976:0.14142136 1001:0.14142136 1004:0.14142136 1015:0.14142136 1185:0.14142136 1381:0.14142136 1419:0.14142136 1477:0.14142136 1498:0.14142136 1515:0.14142136 1582:0.14142136 1618:0.14142136 1670:0.14142136 1741:0.14142136 1764:0.14142136 1796:0.14142136 1797:0.14142136 1805:0.14142136 1851:0.14142136 1898:0.14142136 1904:0.14142136 1920:0.14142136 1921:0.14142136 1926:0.14142136 1927:0.14142136 1952:0.14142136 1957:0.14142136 1961:0.14142136 #
1 53:0.2 69:0.2 77:0.2 103:0.2 129:0.2 334:0.2 424:0.2 476:0.2 608:0.2 741:0.2 954:0.2 963:0.2 1020:0.2 1028:0.2 1044:0.2 1119:0.2 1174:0.2 1281:0.2 1359:0.2 1409:0.2 1618:0.2 1732:0.2 1853:0.2 1880:0.2 1927:0.2 #
1 88:0.26726124 313:0.26726124 376:0.26726124 424:0.26726124 516:0.26726124 534:0.26726124 1065:0.26726124 1071:0.26726124 1366:0.26726124 1814:0.26726124 1831:0.26726124 1851:0.26726124 1865:0.26726124 1921:0.26726124 #
1 113:0.20851441 163:0.20851441 357:0.20851441 387:0.20851441 420:0.20851441 551:0.20851441 608:0.20851441 718:0.20851441 741:0.20851441 1106:0.20851441 1190:0.20851441 1331:0.20851441 1353:0.20851441 1452:0.20851441 1471:0.20851441 1535:0.20851441 1679:0.20851441 1684:0.20851441 1728:0.20851441 1853:0.20851441 1892:0.20851441 1920:0.20851441 1927:0.20851441 #
1 36:0.15075567 91:0.15075567 101:0.15075567 122:0.15075567 139:0.15075567 160:0.15075567 263:0.15075567 270:0.15075567 286:0.15075567 335:0.15075567 357:0.15075567 418:0.15075567 504:0.15075567 546:0.15075567 672:0.15075567 749:0.15075567 877:0.15075567 954:0.15075567 987:0.15075567 1004:0.15075567 1015:0.15075567 1067:0.15075567 1097:0.15075567 1110:0.15075567 1155:0.15075567 1190:0.15075567 1245:0.15075567 1281:0.15075567 1315:0.15075567 1328:0.15075567 1447:0.15075567 1452:0.15075567 1471:0.15075567 1492:0.15075567 1496:0.15075567 1535:0.15075567 1611:0.15075567 1684:0.15075567 1693:0.15075567 1704:0.15075567 1811:0.15075567 1819:0.15075567 1850:0.15075567 1960:0.15075567 #
-0.77552102435895520216035947669297 76:0.16222142 88:0.16222142 214:0.16222142 290:0.16222142 351:0.16222142 359:0.16222142 424:0.16222142 455:0.16222142 456:0.16222142 477:0.16222142 481:0.16222142 564:0.16222142 592:0.16222142 608:0.16222142 612:0.16222142 688:0.16222142 749:0.16222142 829:0.16222142 949:0.16222142 1119:0.16222142 1121:0.16222142 1144:0.16222142 1177:0.16222142 1178:0.16222142 1190:0.16222142 1251:0.16222142 1347:0.16222142 1449:0.16222142 1452:0.16222142 1535:0.16222142 1602:0.16222142 1618:0.16222142 1684:0.16222142 1727:0.16222142 1741:0.16222142 1742:0.16222142 1770:0.16222142 1853:0.16222142 #
-0.15612879538090973507991066071554 4:0.14433756 8:0.14433756 68:0.14433756 77:0.14433756 79:0.14433756 88:0.14433756 91:0.14433756 139:0.14433756 165:0.14433756 264:0.14433756 318:0.14433756 357:0.14433756 381:0.14433756 420:0.14433756 424:0.14433756 477:0.14433756 530:0.14433756 588:0.14433756 608:0.14433756 609:0.14433756 622:0.14433756 811:0.14433756 838:0.14433756 900:0.14433756 909:0.14433756 955:0.14433756 1015:0.14433756 1057:0.14433756 1083:0.14433756 1179:0.14433756 1190:0.14433756 1216:0.14433756 1290:0.14433756 1297:0.14433756 1331:0.14433756 1372:0.14433756 1412:0.14433756 1422:0.14433756 1452:0.14433756 1465:0.14433756 1498:0.14433756 1502:0.14433756 1544:0.14433756 1602:0.14433756 1921:0.14433756 1951:0.14433756 1962:0.14433756 1972:0.14433756 #
-0.037247400397950714001638061745325 351:0.21821789 381:0.21821789 455:0.21821789 477:0.21821789 490:0.21821789 532:0.21821789 543:0.21821789 546:0.21821789 608:0.21821789 807:0.21821789 852:0.21821789 976:0.21821789 1033:0.21821789 1110:0.21821789 1153:0.21821789 1477:0.21821789 1557:0.21821789 1620:0.21821789 1877:0.21821789 1927:0.21821789 1957:0.21821789 #
0.51924966648338610752944077830762 99:0.15430336 105:0.15430336 107:0.15430336 158:0.15430336 164:0.15430336 180:0.15430336 205:0.15430336 261:0.15430336 263:0.15430336 293:0.15430336 351:0.15430336 357:0.15430336 424:0.15430336 427:0.15430336 608:0.15430336 709:0.15430336 710:0.15430336 749:0.15430336 848:0.15430336 869:0.15430336 912:0.15430336 938:0.15430336 954:0.15430336 987:0.15430336 1033:0.15430336 1190:0.15430336 1310:0.15430336 1315:0.15430336 1328:0.15430336 1471:0.15430336 1473:0.15430336 1480:0.15430336 1504:0.15430336 1535:0.15430336 1536:0.15430336 1741:0.15430336 1777:0.15430336 1851:0.15430336 1859:0.15430336 1898:0.15430336 1908:0.15430336 1956:0.15430336 #
-0.51029890779946884826756559050409 63:0.1132277 83:0.1132277 88:0.1132277 113:0.1132277 127:0.1132277 130:0.1132277 252:0.1132277 257:0.1132277 263:0.1132277 298:0.1132277 300:0.1132277 351:0.1132277 357:0.1132277 361:0.1132277 401:0.1132277 424:0.1132277 512:0.1132277 603:0.1132277 609:0.1132277 626:0.1132277 635:0.1132277 672:0.1132277 714:0.1132277 746:0.1132277 749:0.1132277 795:0.1132277 846:0.1132277 847:0.1132277 872:0.1132277 874:0.1132277 896:0.1132277 954:0.1132277 955:0.1132277 972:0.1132277 979:0.1132277 986:0.1132277 987:0.1132277 1004:0.1132277 1015:0.1132277 1080:0.1132277 1087:0.1132277 1127:0.1132277 1128:0.1132277 1160:0.1132277 1220:0.1132277 1276:0.1132277 1281:0.1132277 1328:0.1132277 1403:0.1132277 1464:0.1132277 1477:0.1132277 1495:0.1132277 1498:0.1132277 1520:0.1132277 1528:0.1132277 1571:0.1132277 1602:0.1132277 1618:0.1132277 1620:0.1132277 1727:0.1132277 1728:0.1132277 1774:0.1132277 1777:0.1132277 1826:0.1132277 1844:0.1132277 1848:0.1132277 1850:0.1132277 1851:0.1132277 1853:0.1132277 1856:0.1132277 1898:0.1132277 1904:0.1132277 1921:0.1132277 1927:0.1132277 1956:0.1132277 1962:0.1132277 1980:0.1132277 1988:0.1132277 #
1 10:0.14744195 60:0.14744195 76:0.14744195 160:0.14744195 165:0.14744195 267:0.14744195 313:0.14744195 348:0.14744195 351:0.14744195 381:0.14744195 473:0.14744195 515:0.14744195 519:0.14744195 528:0.14744195 665:0.14744195 672:0.14744195 725:0.14744195 811:0.14744195 845:0.14744195 896:0.14744195 954:0.14744195 972:0.14744195 1007:0.14744195 1009:0.14744195 1010:0.14744195 1015:0.14744195 1030:0.14744195 1091:0.14744195 1136:0.14744195 1159:0.14744195 1169:0.14744195 1206:0.14744195 1248:0.14744195 1305:0.14744195 1326:0.14744195 1386:0.14744195 1519:0.14744195 1534:0.14744195 1535:0.14744195 1571:0.14744195 1710:0.14744195 1867:0.14744195 1914:0.14744195 1956:0.14744195 1963:0.14744195 1984:0.14744195 #
1 8:0.10783277 18:0.10783277 55:0.10783277 60:0.10783277 63:0.10783277 103:0.10783277 134:0.10783277 138:0.10783277 160:0.10783277 165:0.10783277 203:0.10783277 249:0.10783277 264:0.10783277 279:0.10783277 326:0.10783277 351:0.10783277 352:0.10783277 357:0.10783277 418:0.10783277 456:0.10783277 457:0.10783277 460:0.10783277 479:0.10783277 495:0.10783277 499:0.10783277 535:0.10783277 540:0.10783277 557:0.10783277 599:0.10783277 613:0.10783277 618:0.10783277 645:0.10783277 668:0.10783277 672:0.10783277 749:0.10783277 769:0.10783277 784:0.10783277 793:0.10783277 807:0.10783277 855:0.10783277 869:0.10783277 872:0.10783277 900:0.10783277 909:0.10783277 911:0.10783277 915:0.10783277 936:0.10783277 963:0.10783277 993:0.10783277 1015:0.10783277 1033:0.10783277 1036:0.10783277 1083:0.10783277 1089:0.10783277 1137:0.10783277 1153:0.10783277 1161:0.10783277 1168:0.10783277 1169:0.10783277 1175:0.10783277 1228:0.10783277 1305:0.10783277 1314:0.10783277 1381:0.10783277 1422:0.10783277 1464:0.10783277 1465:0.10783277 1468:0.10783277 1471:0.10783277 1484:0.10783277 1498:0.10783277 1499:0.10783277 1502:0.10783277 1506:0.10783277 1526:0.10783277 1535:0.10783277 1588:0.10783277 1607:0.10783277 1684:0.10783277 1727:0.10783277 1741:0.10783277 1840:0.10783277 1844:0.10783277 1855:0.10783277 1910:0.10783277 1988:0.10783277 #
1 160:0.26726124 192:0.26726124 249:0.26726124 313:0.26726124 482:0.26726124 845:0.26726124 861:0.26726124 1305:0.26726124 1650:0.26726124 1670:0.26726124 1741:0.26726124 1796:0.26726124 1853:0.26726124 1904:0.26726124 #
1 39:0.09853293 53:0.09853293 77:0.09853293 88:0.09853293 99:0.09853293 138:0.09853293 139:0.09853293 160:0.09853293 248:0.09853293 263:0.09853293 266:0.09853293 274:0.09853293 294:0.09853293 307:0.09853293 314:0.09853293 326:0.09853293 340:0.09853293 351:0.09853293 386:0.09853293 389:0.09853293 424:0.09853293 456:0.09853293 477:0.09853293 480:0.09853293 501:0.09853293 526:0.09853293 535:0.09853293 546:0.09853293 547:0.09853293 561:0.09853293 609:0.09853293 635:0.09853293 642:0.09853293 655:0.09853293 662:0.09853293 672:0.09853293 675:0.09853293 702:0.09853293 714:0.09853293 727:0.09853293 737:0.09853293 749:0.09853293 767:0.09853293 808:0.09853293 811:0.09853293 845:0.09853293 890:0.09853293 904:0.09853293 915:0.09853293 938:0.09853293 956:0.09853293 963:0.09853293 972:0.09853293 981:0.09853293 987:0.09853293 989:0.09853293 993:0.09853293 1004:0.09853293 1009:0.09853293 1015:0.09853293 1067:0.09853293 1083:0.09853293 1097:0.09853293 1119:0.09853293 1256:0.09853293 1279:0.09853293 1305:0.09853293 1326:0.09853293 1328:0.09853293 1335:0.09853293 1350:0.09853293 1353:0.09853293 1464:0.09853293 1482:0.09853293 1500:0.09853293 1528:0.09853293 1535:0.09853293 1587:0.09853293 1603:0.09853293 1618:0.09853293 1620:0.09853293 1684:0.09853293 1687:0.09853293 1695:0.09853293 1727:0.09853293 1741:0.09853293 1742:0.09853293 1765:0.09853293 1786:0.09853293 1819:0.09853293 1843:0.09853293 1848:0.09853293 1860:0.09853293 1871:0.09853293 1877:0.09853293 1893:0.09853293 1927:0.09853293 1956:0.09853293 1960:0.09853293 1972:0.09853293 1975:0.09853293 1984:0.09853293 1991:0.09853293 #
1 5:0.16012815 103:0.16012815 160:0.16012815 313:0.16012815 390:0.16012815 415:0.16012815 543:0.16012815 546:0.16012815 603:0.16012815 608:0.16012815 645:0.16012815 651:0.16012815 725:0.16012815 811:0.16012815 825:0.16012815 834:0.16012815 845:0.16012815 846:0.16012815 877:0.16012815 900:0.16012815 901:0.16012815 908:0.16012815 920:0.16012815 936:0.16012815 955:0.16012815 963:0.16012815 1015:0.16012815 1137:0.16012815 1165:0.16012815 1178:0.16012815 1305:0.16012815 1422:0.16012815 1453:0.16012815 1476:0.16012815 1489:0.16012815 1598:0.16012815 1620:0.16012815 1711:0.16012815 1972:0.16012815 #
-0.40747696997429383447553163932753 52:0.15075567 61:0.15075567 120:0.15075567 160:0.15075567 161:0.15075567 263:0.15075567 298:0.15075567 309:0.15075567 313:0.15075567 469:0.15075567 477:0.15075567 508:0.15075567 543:0.15075567 556:0.15075567 572:0.15075567 672:0.15075567 675:0.15075567 717:0.15075567 725:0.15075567 726:0.15075567 749:0.15075567 784:0.15075567 825:0.15075567 845:0.15075567 1050:0.15075567 1106:0.15075567 1210:0.15075567 1230:0.15075567 1311:0.15075567 1353:0.15075567 1471:0.15075567 1489:0.15075567 1670:0.15075567 1684:0.15075567 1727:0.15075567 1741:0.15075567 1829:0.15075567 1832:0.15075567 1844:0.15075567 1904:0.15075567 1956:0.15075567 1960:0.15075567 1962:0.15075567 1965:0.15075567 #
-0.99380883197385316840666291682282 10:0.14142136 35:0.14142136 63:0.14142136 77:0.14142136 83:0.14142136 113:0.14142136 134:0.14142136 138:0.14142136 153:0.14142136 160:0.14142136 263:0.14142136 339:0.14142136 351:0.14142136 381:0.14142136 424:0.14142136 505:0.14142136 558:0.14142136 665:0.14142136 672:0.14142136 725:0.14142136 749:0.14142136 763:0.14142136 769:0.14142136 772:0.14142136 775:0.14142136 811:0.14142136 826:0.14142136 920:0.14142136 961:0.14142136 963:0.14142136 1015:0.14142136 1094:0.14142136 1169:0.14142136 1296:0.14142136 1305:0.14142136 1331:0.14142136 1396:0.14142136 1500:0.14142136 1535:0.14142136 1602:0.14142136 1646:0.14142136 1670:0.14142136 1727:0.14142136 1805:0.14142136 1844:0.14142136 1853:0.14142136 1887:0.14142136 1904:0.14142136 1966:0.14142136 1987:0.14142136 #
-0.27057656768947563330485195365327 160:0.2236068 313:0.2236068 667:0.2236068 749:0.2236068 825:0.2236068 845:0.2236068 972:0.2236068 1010:0.2236068 1071:0.2236068 1106:0.2236068 1256:0.2236068 1305:0.2236068 1373:0.2236068 1403:0.2236068 1483:0.2236068 1603:0.2236068 1620:0.2236068 1698:0.2236068 1804:0.2236068 1980:0.2236068 #
-0.24666396874748566792057147267769 6:0.075592898 14:0.075592898 19:0.075592898 26:0.075592898 30:0.075592898 39:0.075592898 44:0.075592898 47:0.075592898 63:0.075592898 90:0.075592898 99:0.075592898 103:0.075592898 116:0.075592898 128:0.075592898 130:0.075592898 133:0.075592898 134:0.075592898 138:0.075592898 139:0.075592898 160:0.075592898 167:0.075592898 187:0.075592898 215:0.075592898 218:0.075592898 263:0.075592898 266:0.075592898 269:0.075592898 285:0.075592898 290:0.075592898 293:0.075592898 309:0.075592898 335:0.075592898 340:0.075592898 342:0.075592898 343:0.075592898 351:0.075592898 357:0.075592898 359:0.075592898 367:0.075592898 375:0.075592898 381:0.075592898 398:0.075592898 402:0.075592898 405:0.075592898 417:0.075592898 418:0.075592898 424:0.075592898 443:0.075592898 477:0.075592898 495:0.075592898 504:0.075592898 508:0.075592898 531:0.075592898 535:0.075592898 556:0.075592898 572:0.075592898 582:0.075592898 607:0.075592898 608:0.075592898 640:0.075592898 645:0.075592898 671:0.075592898 674:0.075592898 685:0.075592898 686:0.075592898 696:0.075592898 725:0.075592898 749:0.075592898 757:0.075592898 758:0.075592898 760:0.075592898 762:0.075592898 763:0.075592898 769:0.075592898 772:0.075592898 777:0.075592898 778:0.075592898 793:0.075592898 794:0.075592898 811:0.075592898 837:0.075592898 841:0.075592898 869:0.075592898 870:0.075592898 872:0.075592898 904:0.075592898 920:0.075592898 954:0.075592898 963:0.075592898 976:0.075592898 985:0.075592898 987:0.075592898 990:0.075592898 1004:0.075592898 1015:0.075592898 1033:0.075592898 1034:0.075592898 1037:0.075592898 1057:0.075592898 1067:0.075592898 1077:0.075592898 1083:0.075592898 1112:0.075592898 1119:0.075592898 1137:0.075592898 1138:0.075592898 1143:0.075592898 1155:0.075592898 1169:0.075592898 1190:0.075592898 1203:0.075592898 1210:0.075592898 1216:0.075592898 1220:0.075592898 1233:0.075592898 1247:0.075592898 1263:0.075592898 1269:0.075592898 1305:0.075592898 1328:0.075592898 1333:0.075592898 1336:0.075592898 1345:0.075592898 1354:0.075592898 1358:0.075592898 1367:0.075592898 1386:0.075592898 1393:0.075592898 1433:0.075592898 1460:0.075592898 1464:0.075592898 1471:0.075592898 1477:0.075592898 1485:0.075592898 1498:0.075592898 1534:0.075592898 1535:0.075592898 1545:0.075592898 1576:0.075592898 1594:0.075592898 1618:0.075592898 1620:0.075592898 1629:0.075592898 1653:0.075592898 1665:0.075592898 1670:0.075592898 1671:0.075592898 1684:0.075592898 1705:0.075592898 1709:0.075592898 1741:0.075592898 1742:0.075592898 1745:0.075592898 1765:0.075592898 1781:0.075592898 1799:0.075592898 1809:0.075592898 1818:0.075592898 1833:0.075592898 1843:0.075592898 1844:0.075592898 1848:0.075592898 1850:0.075592898 1851:0.075592898 1877:0.075592898 1888:0.075592898 1904:0.075592898 1957:0.075592898 1960:0.075592898 1964:0.075592898 1983:0.075592898 1988:0.075592898 1990:0.075592898 1994:0.075592898 1996:0.075592898 #
-0.90578383961778863309177722840104 13:0.11952286 43:0.11952286 53:0.11952286 63:0.11952286 77:0.11952286 133:0.11952286 134:0.11952286 138:0.11952286 160:0.11952286 177:0.11952286 241:0.11952286 255:0.11952286 259:0.11952286 263:0.11952286 313:0.11952286 326:0.11952286 351:0.11952286 357:0.11952286 366:0.11952286 398:0.11952286 425:0.11952286 431:0.11952286 452:0.11952286 514:0.11952286 525:0.11952286 531:0.11952286 592:0.11952286 627:0.11952286 642:0.11952286 672:0.11952286 677:0.11952286 725:0.11952286 749:0.11952286 751:0.11952286 811:0.11952286 825:0.11952286 845:0.11952286 954:0.11952286 972:0.11952286 1009:0.11952286 1015:0.11952286 1065:0.11952286 1170:0.11952286 1174:0.11952286 1190:0.11952286 1254:0.11952286 1305:0.11952286 1338:0.11952286 1345:0.11952286 1358:0.11952286 1396:0.11952286 1413:0.11952286 1464:0.11952286 1499:0.11952286 1693:0.11952286 1711:0.11952286 1727:0.11952286 1739:0.11952286 1759:0.11952286 1830:0.11952286 1834:0.11952286 1851:0.11952286 1861:0.11952286 1894:0.11952286 1935:0.11952286 1951:0.11952286 1953:0.11952286 1956:0.11952286 1973:0.11952286 1987:0.11952286 #
1 9:0.19611613 30:0.19611613 122:0.19611613 134:0.19611613 139:0.19611613 185:0.19611613 308:0.19611613 546:0.19611613 672:0.19611613 675:0.19611613 714:0.19611613 1006:0.19611613 1033:0.19611613 1190:0.19611613 1310:0.19611613 1328:0.19611613 1511:0.19611613 1535:0.19611613 1617:0.19611613 1715:0.19611613 1727:0.19611613 1833:0.19611613 1851:0.19611613 1908:0.19611613 1941:0.19611613 1956:0.19611613 #
1 9:0.10101525 44:0.10101525 49:0.10101525 99:0.10101525 114:0.10101525 130:0.10101525 138:0.10101525 139:0.10101525 144:0.10101525 172:0.10101525 214:0.10101525 233:0.10101525 263:0.10101525 293:0.10101525 340:0.10101525 351:0.10101525 357:0.10101525 381:0.10101525 424:0.10101525 439:0.10101525 443:0.10101525 455:0.10101525 468:0.10101525 479:0.10101525 504:0.10101525 505:0.10101525 563:0.10101525 606:0.10101525 612:0.10101525 635:0.10101525 642:0.10101525 645:0.10101525 651:0.10101525 661:0.10101525 672:0.10101525 720:0.10101525 726:0.10101525 749:0.10101525 761:0.10101525 772:0.10101525 778:0.10101525 795:0.10101525 811:0.10101525 829:0.10101525 872:0.10101525 882:0.10101525 899:0.10101525 901:0.10101525 925:0.10101525 963:0.10101525 976:0.10101525 982:0.10101525 987:0.10101525 1055:0.10101525 1119:0.10101525 1138:0.10101525 1142:0.10101525 1168:0.10101525 1169:0.10101525 1190:0.10101525 1209:0.10101525 1210:0.10101525 1216:0.10101525 1234:0.10101525 1247:0.10101525 1251:0.10101525 1256:0.10101525 1303:0.10101525 1318:0.10101525 1328:0.10101525 1336:0.10101525 1373:0.10101525 1418:0.10101525 1453:0.10101525 1460:0.10101525 1473:0.10101525 1524:0.10101525 1535:0.10101525 1630:0.10101525 1684:0.10101525 1706:0.10101525 1711:0.10101525 1720:0.10101525 1727:0.10101525 1750:0.10101525 1765:0.10101525 1785:0.10101525 1848:0.10101525 1853:0.10101525 1873:0.10101525 1880:0.10101525 1898:0.10101525 1904:0.10101525 1927:0.10101525 1931:0.10101525 1951:0.10101525 1956:0.10101525 1987:0.10101525 #
1 39:0.083624199 63:0.083624199 77:0.083624199 88:0.083624199 89:0.083624199 90:0.083624199 91:0.083624199 99:0.083624199 101:0.083624199 105:0.083624199 113:0.083624199 130:0.083624199 133:0.083624199 203:0.083624199 204:0.083624199 217:0.083624199 263:0.083624199 278:0.083624199 283:0.083624199 293:0.083624199 314:0.083624199 325:0.083624199 326:0.083624199 328:0.083624199 351:0.083624199 357:0.083624199 359:0.083624199 381:0.083624199 391:0.083624199 398:0.083624199 405:0.083624199 424:0.083624199 428:0.083624199 456:0.083624199 464:0.083624199 474:0.083624199 483:0.083624199 504:0.083624199 515:0.083624199 526:0.083624199 557:0.083624199 560:0.083624199 608:0.083624199 609:0.083624199 622:0.083624199 627:0.083624199 639:0.083624199 645:0.083624199 655:0.083624199 659:0.083624199 660:0.083624199 661:0.083624199 665:0.083624199 672:0.083624199 676:0.083624199 686:0.083624199 725:0.083624199 727:0.083624199 741:0.083624199 749:0.083624199 761:0.083624199 764:0.083624199 775:0.083624199 813:0.083624199 869:0.083624199 872:0.083624199 901:0.083624199 915:0.083624199 921:0.083624199 963:0.083624199 972:0.083624199 976:0.083624199 979:0.083624199 987:0.083624199 991:0.083624199 1004:0.083624199 1015:0.083624199 1033:0.083624199 1057:0.083624199 1070:0.083624199 1083:0.083624199 1092:0.083624199 1119:0.083624199 1126:0.083624199 1144:0.083624199 1170:0.083624199 1183:0.083624199 1189:0.083624199 1216:0.083624199 1220:0.083624199 1229:0.083624199 1267:0.083624199 1322:0.083624199 1328:0.083624199 1331:0.083624199 1336:0.083624199 1339:0.083624199 1413:0.083624199 1421:0.083624199 1422:0.083624199 1448:0.083624199 1449:0.083624199 1453:0.083624199 1460:0.083624199 1462:0.083624199 1464:0.083624199 1471:0.083624199 1472:0.083624199 1473:0.083624199 1482:0.083624199 1499:0.083624199 1520:0.083624199 1535:0.083624199 1543:0.083624199 1545:0.083624199 1549:0.083624199 1557:0.083624199 1602:0.083624199 1603:0.083624199 1620:0.083624199 1630:0.083624199 1663:0.083624199 1670:0.083624199 1673:0.083624199 1680:0.083624199 1684:0.083624199 1727:0.083624199 1741:0.083624199 1742:0.083624199 1763:0.083624199 1772:0.083624199 1805:0.083624199 1831:0.083624199 1853:0.083624199 1859:0.083624199 1872:0.083624199 1898:0.083624199 1904:0.083624199 1956:0.083624199 1961:0.083624199 1966:0.083624199 1993:0.083624199 1994:0.083624199 #
1 16:0.089087084 44:0.089087084 49:0.089087084 52:0.089087084 63:0.089087084 83:0.089087084 88:0.089087084 90:0.089087084 99:0.089087084 111:0.089087084 114:0.089087084 130:0.089087084 136:0.089087084 139:0.089087084 144:0.089087084 160:0.089087084 165:0.089087084 172:0.089087084 214:0.089087084 233:0.089087084 293:0.089087084 328:0.089087084 340:0.089087084 351:0.089087084 357:0.089087084 417:0.089087084 424:0.089087084 439:0.089087084 450:0.089087084 468:0.089087084 483:0.089087084 486:0.089087084 563:0.089087084 573:0.089087084 608:0.089087084 609:0.089087084 612:0.089087084 642:0.089087084 671:0.089087084 709:0.089087084 720:0.089087084 723:0.089087084 725:0.089087084 748:0.089087084 749:0.089087084 757:0.089087084 769:0.089087084 772:0.089087084 778:0.089087084 795:0.089087084 807:0.089087084 808:0.089087084 811:0.089087084 872:0.089087084 882:0.089087084 901:0.089087084 915:0.089087084 954:0.089087084 963:0.089087084 976:0.089087084 982:0.089087084 987:0.089087084 1015:0.089087084 1027:0.089087084 1033:0.089087084 1051:0.089087084 1061:0.089087084 1102:0.089087084 1103:0.089087084 1108:0.089087084 1119:0.089087084 1138:0.089087084 1142:0.089087084 1169:0.089087084 1173:0.089087084 1190:0.089087084 1210:0.089087084 1216:0.089087084 1220:0.089087084 1247:0.089087084 1281:0.089087084 1305:0.089087084 1328:0.089087084 1336:0.089087084 1373:0.089087084 1379:0.089087084 1381:0.089087084 1450:0.089087084 1453:0.089087084 1464:0.089087084 1471:0.089087084 1498:0.089087084 1499:0.089087084 1524:0.089087084 1535:0.089087084 1547:0.089087084 1581:0.089087084 1606:0.089087084 1611:0.089087084 1642:0.089087084 1670:0.089087084 1679:0.089087084 1684:0.089087084 1706:0.089087084 1707:0.089087084 1727:0.089087084 1737:0.089087084 1742:0.089087084 1752:0.089087084 1765:0.089087084 1774:0.089087084 1785:0.089087084 1802:0.089087084 1848:0.089087084 1851:0.089087084 1853:0.089087084 1875:0.089087084 1877:0.089087084 1880:0.089087084 1898:0.089087084 1904:0.089087084 1908:0.089087084 1931:0.089087084 1951:0.089087084 1956:0.089087084 1987:0.089087084 #
1 63:0.16012815 88:0.16012815 123:0.16012815 159:0.16012815 267:0.16012815 289:0.16012815 351:0.16012815 357:0.16012815 418:0.16012815 424:0.16012815 434:0.16012815 683:0.16012815 705:0.16012815 772:0.16012815 776:0.16012815 976:0.16012815 983:0.16012815 987:0.16012815 1000:0.16012815 1203:0.16012815 1464:0.16012815 1480:0.16012815 1515:0.16012815 1516:0.16012815 1535:0.16012815 1603:0.16012815 1618:0.16012815 1646:0.16012815 1670:0.16012815 1684:0.16012815 1692:0.16012815 1838:0.16012815 1851:0.16012815 1853:0.16012815 1878:0.16012815 1904:0.16012815 1972:0.16012815 1986:0.16012815 1998:0.16012815 #
-0.061966457205747636771686615020371 30:0.086386845 44:0.086386845 53:0.086386845 60:0.086386845 63:0.086386845 76:0.086386845 83:0.086386845 84:0.086386845 88:0.086386845 90:0.086386845 98:0.086386845 101:0.086386845 130:0.086386845 133:0.086386845 156:0.086386845 160:0.086386845 172:0.086386845 215:0.086386845 246:0.086386845 263:0.086386845 267:0.086386845 313:0.086386845 326:0.086386845 332:0.086386845 348:0.086386845 351:0.086386845 357:0.086386845 401:0.086386845 424:0.086386845 427:0.086386845 465:0.086386845 545:0.086386845 546:0.086386845 560:0.086386845 604:0.086386845 608:0.086386845 627:0.086386845 645:0.086386845 651:0.086386845 673:0.086386845 685:0.086386845 706:0.086386845 718:0.086386845 741:0.086386845 744:0.086386845 749:0.086386845 772:0.086386845 787:0.086386845 808:0.086386845 811:0.086386845 837:0.086386845 845:0.086386845 846:0.086386845 869:0.086386845 915:0.086386845 954:0.086386845 956:0.086386845 972:0.086386845 975:0.086386845 976:0.086386845 987:0.086386845 988:0.086386845 994:0.086386845 1004:0.086386845 1006:0.086386845 1015:0.086386845 1070:0.086386845 1083:0.086386845 1117:0.086386845 1119:0.086386845 1159:0.086386845 1169:0.086386845 1182:0.086386845 1184:0.086386845 1185:0.086386845 1190:0.086386845 1210:0.086386845 1212:0.086386845 1220:0.086386845 1247:0.086386845 1256:0.086386845 1281:0.086386845 1303:0.086386845 1305:0.086386845 1308:0.086386845 1318:0.086386845 1322:0.086386845 1328:0.086386845 1329:0.086386845 1338:0.086386845 1354:0.086386845 1381:0.086386845 1387:0.086386845 1394:0.086386845 1418:0.086386845 1464:0.086386845 1467:0.086386845 1471:0.086386845 1474:0.086386845 1482:0.086386845 1497:0.086386845 1498:0.086386845 1516:0.086386845 1529:0.086386845 1535:0.086386845 1574:0.086386845 1599:0.086386845 1602:0.086386845 1618:0.086386845 1621:0.086386845 1636:0.086386845 1690:0.086386845 1693:0.086386845 1727:0.086386845 1728:0.086386845 1735:0.086386845 1756:0.086386845 1765:0.086386845 1814:0.086386845 1843:0.086386845 1848:0.086386845 1851:0.086386845 1853:0.086386845 1890:0.086386845 1927:0.086386845 1929:0.086386845 1935:0.086386845 1939:0.086386845 1952:0.086386845 1953:0.086386845 1956:0.086386845 1962:0.086386845 1984:0.086386845 1987:0.086386845 #
-1 14:0.090909094 26:0.090909094 30:0.090909094 90:0.090909094 103:0.090909094 133:0.090909094 134:0.090909094 158:0.090909094 159:0.090909094 160:0.090909094 167:0.090909094 173:0.090909094 206:0.090909094 248:0.090909094 263:0.090909094 266:0.090909094 293:0.090909094 309:0.090909094 335:0.090909094 351:0.090909094 357:0.090909094 381:0.090909094 402:0.090909094 409:0.090909094 417:0.090909094 424:0.090909094 434:0.090909094 495:0.090909094 504:0.090909094 535:0.090909094 538:0.090909094 556:0.090909094 582:0.090909094 608:0.090909094 645:0.090909094 651:0.090909094 665:0.090909094 674:0.090909094 685:0.090909094 696:0.090909094 698:0.090909094 725:0.090909094 749:0.090909094 762:0.090909094 769:0.090909094 772:0.090909094 777:0.090909094 778:0.090909094 793:0.090909094 804:0.090909094 811:0.090909094 837:0.090909094 870:0.090909094 872:0.090909094 904:0.090909094 920:0.090909094 939:0.090909094 963:0.090909094 976:0.090909094 985:0.090909094 990:0.090909094 1015:0.090909094 1063:0.090909094 1070:0.090909094 1083:0.090909094 1110:0.090909094 1112:0.090909094 1119:0.090909094 1138:0.090909094 1146:0.090909094 1155:0.090909094 1169:0.090909094 1170:0.090909094 1177:0.090909094 1216:0.090909094 1247:0.090909094 1263:0.090909094 1305:0.090909094 1308:0.090909094 1328:0.090909094 1333:0.090909094 1354:0.090909094 1373:0.090909094 1379:0.090909094 1433:0.090909094 1446:0.090909094 1464:0.090909094 1471:0.090909094 1477:0.090909094 1534:0.090909094 1535:0.090909094 1576:0.090909094 1581:0.090909094 1582:0.090909094 1620:0.090909094 1670:0.090909094 1671:0.090909094 1684:0.090909094 1705:0.090909094 1709:0.090909094 1727:0.090909094 1741:0.090909094 1742:0.090909094 1745:0.090909094 1747:0.090909094 1765:0.090909094 1799:0.090909094 1843:0.090909094 1844:0.090909094 1848:0.090909094 1851:0.090909094 1853:0.090909094 1877:0.090909094 1888:0.090909094 1904:0.090909094 1957:0.090909094 1960:0.090909094 1966:0.090909094 1986:0.090909094 1990:0.090909094 1996:0.090909094 #
-0.44775966839355274551337515731575 7:0.12216944 20:0.12216944 88:0.12216944 123:0.12216944 161:0.12216944 246:0.12216944 263:0.12216944 294:0.12216944 328:0.12216944 351:0.12216944 357:0.12216944 398:0.12216944 424:0.12216944 428:0.12216944 456:0.12216944 546:0.12216944 635:0.12216944 645:0.12216944 651:0.12216944 740:0.12216944 750:0.12216944 769:0.12216944 865:0.12216944 881:0.12216944 954:0.12216944 961:0.12216944 975:0.12216944 1004:0.12216944 1009:0.12216944 1018:0.12216944 1033:0.12216944 1056:0.12216944 1057:0.12216944 1083:0.12216944 1100:0.12216944 1120:0.12216944 1315:0.12216944 1332:0.12216944 1338:0.12216944 1353:0.12216944 1369:0.12216944 1386:0.12216944 1404:0.12216944 1421:0.12216944 1471:0.12216944 1494:0.12216944 1498:0.12216944 1516:0.12216944 1522:0.12216944 1535:0.12216944 1559:0.12216944 1565:0.12216944 1612:0.12216944 1620:0.12216944 1670:0.12216944 1684:0.12216944 1730:0.12216944 1758:0.12216944 1785:0.12216944 1866:0.12216944 1881:0.12216944 1898:0.12216944 1927:0.12216944 1948:0.12216944 1957:0.12216944 1960:0.12216944 1997:0.12216944 #
-0.88829118232929626941540846019052 7:0.13130644 53:0.13130644 63:0.13130644 65:0.13130644 99:0.13130644 108:0.13130644 123:0.13130644 146:0.13130644 160:0.13130644 255:0.13130644 263:0.13130644 270:0.13130644 313:0.13130644 326:0.13130644 351:0.13130644 365:0.13130644 424:0.13130644 444:0.13130644 448:0.13130644 456:0.13130644 470:0.13130644 477:0.13130644 608:0.13130644 655:0.13130644 749:0.13130644 758:0.13130644 766:0.13130644 784:0.13130644 807:0.13130644 845:0.13130644 873:0.13130644 900:0.13130644 901:0.13130644 954:0.13130644 976:0.13130644 987:0.13130644 1005:0.13130644 1015:0.13130644 1033:0.13130644 1124:0.13130644 1150:0.13130644 1152:0.13130644 1178:0.13130644 1215:0.13130644 1238:0.13130644 1261:0.13130644 1305:0.13130644 1464:0.13130644 1528:0.13130644 1535:0.13130644 1568:0.13130644 1618:0.13130644 1620:0.13130644 1630:0.13130644 1684:0.13130644 1714:0.13130644 1750:0.13130644 1962:0.13130644 #
-0.15143064877310613569605379780114 2:0.125 5:0.125 7:0.125 63:0.125 77:0.125 93:0.125 122:0.125 136:0.125 143:0.125 164:0.125 249:0.125 267:0.125 289:0.125 351:0.125 395:0.125 424:0.125 427:0.125 456:0.125 459:0.125 467:0.125 477:0.125 519:0.125 546:0.125 602:0.125 610:0.125 629:0.125 643:0.125 700:0.125 725:0.125 796:0.125 820:0.125 827:0.125 930:0.125 952:0.125 954:0.125 963:0.125 976:0.125 977:0.125 987:0.125 1004:0.125 1025:0.125 1032:0.125 1070:0.125 1081:0.125 1175:0.125 1198:0.125 1252:0.125 1369:0.125 1390:0.125 1535:0.125 1582:0.125 1620:0.125 1627:0.125 1667:0.125 1669:0.125 1670:0.125 1678:0.125 1727:0.125 1728:0.125 1851:0.125 1921:0.125 1952:0.125 1956:0.125 1962:0.125 #
0.11812461601502149965980947854405 58:0.21320072 163:0.21320072 272:0.21320072 313:0.21320072 351:0.21320072 456:0.21320072 499:0.21320072 672:0.21320072 749:0.21320072 825:0.21320072 845:0.21320072 941:0.21320072 973:0.21320072 1004:0.21320072 1082:0.21320072 1167:0.21320072 1190:0.21320072 1305:0.21320072 1353:0.21320072 1592:0.21320072 1673:0.21320072 1901:0.21320072 #
1 87:0.17960531 99:0.17960531 106:0.17960531 110:0.17960531 154:0.17960531 160:0.17960531 263:0.17960531 313:0.17960531 424:0.17960531 425:0.17960531 456:0.17960531 477:0.17960531 636:0.17960531 668:0.17960531 672:0.17960531 714:0.17960531 725:0.17960531 749:0.17960531 845:0.17960531 954:0.17960531 1015:0.17960531 1083:0.17960531 1117:0.17960531 1305:0.17960531 1495:0.17960531 1627:0.17960531 1687:0.17960531 1788:0.17960531 1876:0.17960531 1898:0.17960531 1938:0.17960531 #
1 39:0.14285715 74:0.14285715 77:0.14285715 156:0.14285715 160:0.14285715 267:0.14285715 313:0.14285715 339:0.14285715 424:0.14285715 427:0.14285715 477:0.14285715 558:0.14285715 635:0.14285715 672:0.14285715 728:0.14285715 745:0.14285715 749:0.14285715 772:0.14285715 774:0.14285715 775:0.14285715 823:0.14285715 825:0.14285715 843:0.14285715 871:0.14285715 877:0.14285715 884:0.14285715 899:0.14285715 908:0.14285715 954:0.14285715 976:0.14285715 1087:0.14285715 1095:0.14285715 1097:0.14285715 1216:0.14285715 1229:0.14285715 1321:0.14285715 1328:0.14285715 1331:0.14285715 1353:0.14285715 1377:0.14285715 1422:0.14285715 1535:0.14285715 1643:0.14285715 1719:0.14285715 1784:0.14285715 1910:0.14285715 1956:0.14285715 1960:0.14285715 1972:0.14285715 #
1 63:0.15249857 77:0.15249857 122:0.15249857 138:0.15249857 162:0.15249857 172:0.15249857 302:0.15249857 326:0.15249857 371:0.15249857 378:0.15249857 424:0.15249857 456:0.15249857 531:0.15249857 584:0.15249857 637:0.15249857 672:0.15249857 675:0.15249857 679:0.15249857 710:0.15249857 726:0.15249857 749:0.15249857 774:0.15249857 789:0.15249857 859:0.15249857 905:0.15249857 954:0.15249857 1204:0.15249857 1210:0.15249857 1229:0.15249857 1305:0.15249857 1310:0.15249857 1489:0.15249857 1529:0.15249857 1618:0.15249857 1620:0.15249857 1668:0.15249857 1706:0.15249857 1711:0.15249857 1727:0.15249857 1739:0.15249857 1886:0.15249857 1956:0.15249857 1960:0.15249857 #
1 38:0.16012815 91:0.16012815 133:0.16012815 160:0.16012815 313:0.16012815 351:0.16012815 357:0.16012815 431:0.16012815 456:0.16012815 499:0.16012815 534:0.16012815 553:0.16012815 626:0.16012815 672:0.16012815 714:0.16012815 749:0.16012815 825:0.16012815 845:0.16012815 941:0.16012815 954:0.16012815 972:0.16012815 1041:0.16012815 1048:0.16012815 1052:0.16012815 1082:0.16012815 1154:0.16012815 1167:0.16012815 1190:0.16012815 1305:0.16012815 1433:0.16012815 1445:0.16012815 1592:0.16012815 1597:0.16012815 1618:0.16012815 1673:0.16012815 1791:0.16012815 1901:0.16012815 1960:0.16012815 1973:0.16012815 #
-0.64162447059088068002097315911669 27:0.16222142 64:0.16222142 138:0.16222142 160:0.16222142 172:0.16222142 285:0.16222142 351:0.16222142 357:0.16222142 411:0.16222142 456:0.16222142 540:0.16222142 562:0.16222142 569:0.16222142 651:0.16222142 672:0.16222142 709:0.16222142 722:0.16222142 802:0.16222142 808:0.16222142 869:0.16222142 954:0.16222142 995:0.16222142 1011:0.16222142 1015:0.16222142 1314:0.16222142 1328:0.16222142 1374:0.16222142 1453:0.16222142 1502:0.16222142 1539:0.16222142 1605:0.16222142 1606:0.16222142 1661:0.16222142 1670:0.16222142 1709:0.16222142 1729:0.16222142 1898:0.16222142 1988:0.16222142 #
-0.34320907210356055294653288001427 38:0.1490712 52:0.1490712 88:0.1490712 122:0.1490712 140:0.1490712 160:0.1490712 164:0.1490712 288:0.1490712 313:0.1490712 351:0.1490712 393:0.1490712 456:0.1490712 464:0.1490712 539:0.1490712 546:0.1490712 590:0.1490712 603:0.1490712 669:0.1490712 672:0.1490712 738:0.1490712 765:0.1490712 772:0.1490712 820:0.1490712 825:0.1490712 845:0.1490712 848:0.1490712 859:0.1490712 869:0.1490712 976:0.1490712 1107:0.1490712 1155:0.1490712 1165:0.1490712 1272:0.1490712 1305:0.1490712 1310:0.1490712 1341:0.1490712 1560:0.1490712 1618:0.1490712 1684:0.1490712 1758:0.1490712 1764:0.1490712 1806:0.1490712 1927:0.1490712 1954:0.1490712 1988:0.1490712 #
-0.90772495957917975761830575720523 8:0.11250879 13:0.11250879 30:0.11250879 74:0.11250879 134:0.11250879 160:0.11250879 163:0.11250879 218:0.11250879 246:0.11250879 286:0.11250879 313:0.11250879 342:0.11250879 398:0.11250879 415:0.11250879 424:0.11250879 431:0.11250879 432:0.11250879 495:0.11250879 572:0.11250879 639:0.11250879 645:0.11250879 651:0.11250879 653:0.11250879 672:0.11250879 749:0.11250879 751:0.11250879 763:0.11250879 821:0.11250879 825:0.11250879 845:0.11250879 850:0.11250879 872:0.11250879 904:0.11250879 954:0.11250879 982:0.11250879 987:0.11250879 993:0.11250879 1004:0.11250879 1033:0.11250879 1059:0.11250879 1083:0.11250879 1137:0.11250879 1165:0.11250879 1167:0.11250879 1175:0.11250879 1190:0.11250879 1205:0.11250879 1256:0.11250879 1305:0.11250879 1306:0.11250879 1310:0.11250879 1326:0.11250879 1328:0.11250879 1345:0.11250879 1382:0.11250879 1433:0.11250879 1464:0.11250879 1498:0.11250879 1535:0.11250879 1537:0.11250879 1593:0.11250879 1598:0.11250879 1626:0.11250879 1684:0.11250879 1705:0.11250879 1706:0.11250879 1709:0.11250879 1710:0.11250879 1741:0.11250879 1785:0.11250879 1833:0.11250879 1844:0.11250879 1918:0.11250879 1921:0.11250879 1956:0.11250879 1960:0.11250879 1961:0.11250879 1985:0.11250879 1988:0.11250879 #
-0.36241702325839941778440334019251 11:0.125 52:0.125 53:0.125 61:0.125 88:0.125 92:0.125 113:0.125 160:0.125 185:0.125 267:0.125 342:0.125 351:0.125 396:0.125 415:0.125 424:0.125 444:0.125 456:0.125 481:0.125 548:0.125 645:0.125 651:0.125 672:0.125 673:0.125 749:0.125 772:0.125 808:0.125 825:0.125 845:0.125 866:0.125 870:0.125 904:0.125 905:0.125 913:0.125 921:0.125 954:0.125 1004:0.125 1083:0.125 1155:0.125 1165:0.125 1168:0.125 1231:0.125 1235:0.125 1261:0.125 1305:0.125 1321:0.125 1357:0.125 1381:0.125 1498:0.125 1535:0.125 1567:0.125 1618:0.125 1620:0.125 1703:0.125 1760:0.125 1785:0.125 1816:0.125 1829:0.125 1833:0.125 1851:0.125 1904:0.125 1927:0.125 1939:0.125 1954:0.125 1956:0.125 #
-0.31736803674859959123466524033574 77:0.20412415 160:0.20412415 190:0.20412415 249:0.20412415 313:0.20412415 424:0.20412415 451:0.20412415 456:0.20412415 482:0.20412415 501:0.20412415 546:0.20412415 672:0.20412415 956:0.20412415 1032:0.20412415 1038:0.20412415 1047:0.20412415 1076:0.20412415 1221:0.20412415 1409:0.20412415 1618:0.20412415 1644:0.20412415 1737:0.20412415 1956:0.20412415 1980:0.20412415 #
1 42:0.14744195 87:0.14744195 88:0.14744195 92:0.14744195 103:0.14744195 116:0.14744195 134:0.14744195 156:0.14744195 250:0.14744195 274:0.14744195 286:0.14744195 351:0.14744195 370:0.14744195 381:0.14744195 459:0.14744195 544:0.14744195 597:0.14744195 645:0.14744195 673:0.14744195 749:0.14744195 808:0.14744195 869:0.14744195 870:0.14744195 872:0.14744195 873:0.14744195 913:0.14744195 963:0.14744195 978:0.14744195 1033:0.14744195 1169:0.14744195 1197:0.14744195 1203:0.14744195 1256:0.14744195 1310:0.14744195 1462:0.14744195 1535:0.14744195 1618:0.14744195 1668:0.14744195 1670:0.14744195 1676:0.14744195 1689:0.14744195 1709:0.14744195 1741:0.14744195 1765:0.14744195 1797:0.14744195 1935:0.14744195 #
1 342:0.33333334 469:0.33333334 575:0.33333334 995:0.33333334 1502:0.33333334 1670:0.33333334 1844:0.33333334 1926:0.33333334 1972:0.33333334 #
1 139:0.25819889 160:0.25819889 294:0.25819889 351:0.25819889 398:0.25819889 444:0.25819889 778:0.25819889 920:0.25819889 954:0.25819889 1080:0.25819889 1159:0.25819889 1244:0.25819889 1535:0.25819889 1851:0.25819889 1875:0.25819889 #
1 30:0.086066298 35:0.086066298 42:0.086066298 53:0.086066298 63:0.086066298 64:0.086066298 88:0.086066298 99:0.086066298 113:0.086066298 134:0.086066298 138:0.086066298 160:0.086066298 178:0.086066298 198:0.086066298 204:0.086066298 248:0.086066298 250:0.086066298 255:0.086066298 263:0.086066298 274:0.086066298 293:0.086066298 298:0.086066298 305:0.086066298 326:0.086066298 332:0.086066298 340:0.086066298 349:0.086066298 351:0.086066298 357:0.086066298 366:0.086066298 381:0.086066298 388:0.086066298 398:0.086066298 415:0.086066298 419:0.086066298 424:0.086066298 448:0.086066298 455:0.086066298 456:0.086066298 464:0.086066298 477:0.086066298 483:0.086066298 505:0.086066298 512:0.086066298 562:0.086066298 592:0.086066298 600:0.086066298 608:0.086066298 611:0.086066298 645:0.086066298 672:0.086066298 690:0.086066298 723:0.086066298 741:0.086066298 749:0.086066298 772:0.086066298 800:0.086066298 834:0.086066298 845:0.086066298 876:0.086066298 887:0.086066298 921:0.086066298 922:0.086066298 927:0.086066298 954:0.086066298 960:0.086066298 963:0.086066298 966:0.086066298 972:0.086066298 976:0.086066298 987:0.086066298 1004:0.086066298 1015:0.086066298 1033:0.086066298 1044:0.086066298 1057:0.086066298 1091:0.086066298 1104:0.086066298 1107:0.086066298 1112:0.086066298 1141:0.086066298 1143:0.086066298 1163:0.086066298 1167:0.086066298 1169:0.086066298 1174:0.086066298 1178:0.086066298 1196:0.086066298 1198:0.086066298 1233:0.086066298 1263:0.086066298 1305:0.086066298 1326:0.086066298 1328:0.086066298 1329:0.086066298 1338:0.086066298 1353:0.086066298 1356:0.086066298 1359:0.086066298 1377:0.086066298 1394:0.086066298 1417:0.086066298 1419:0.086066298 1448:0.086066298 1452:0.086066298 1462:0.086066298 1471:0.086066298 1477:0.086066298 1498:0.086066298 1535:0.086066298 1571:0.086066298 1618:0.086066298 1620:0.086066298 1641:0.086066298 1676:0.086066298 1684:0.086066298 1695:0.086066298 1705:0.086066298 1727:0.086066298 1741:0.086066298 1748:0.086066298 1770:0.086066298 1802:0.086066298 1829:0.086066298 1839:0.086066298 1848:0.086066298 1850:0.086066298 1853:0.086066298 1890:0.086066298 1899:0.086066298 1904:0.086066298 1920:0.086066298 1927:0.086066298 1997:0.086066298 1998:0.086066298 #
1 2:0.12309149 19:0.12309149 30:0.12309149 47:0.12309149 59:0.12309149 88:0.12309149 139:0.12309149 160:0.12309149 212:0.12309149 240:0.12309149 286:0.12309149 314:0.12309149 316:0.12309149 342:0.12309149 351:0.12309149 357:0.12309149 368:0.12309149 398:0.12309149 455:0.12309149 477:0.12309149 516:0.12309149 604:0.12309149 639:0.12309149 661:0.12309149 725:0.12309149 741:0.12309149 749:0.12309149 776:0.12309149 811:0.12309149 816:0.12309149 828:0.12309149 901:0.12309149 986:0.12309149 987:0.12309149 1004:0.12309149 1015:0.12309149 1080:0.12309149 1083:0.12309149 1106:0.12309149 1152:0.12309149 1190:0.12309149 1223:0.12309149 1279:0.12309149 1325:0.12309149 1336:0.12309149 1346:0.12309149 1365:0.12309149 1464:0.12309149 1471:0.12309149 1482:0.12309149 1535:0.12309149 1618:0.12309149 1630:0.12309149 1670:0.12309149 1726:0.12309149 1727:0.12309149 1735:0.12309149 1844:0.12309149 1848:0.12309149 1872:0.12309149 1875:0.12309149 1887:0.12309149 1935:0.12309149 1956:0.12309149 1960:0.12309149 1963:0.12309149 #
-0.56212224426902823726237556911656 381:0.37796447 469:0.37796447 1535:0.37796447 1603:0.37796447 1670:0.37796447 1876:0.37796447 1972:0.37796447 #
-0.17069954997226358117679012593726 6:0.094491117 7:0.094491117 60:0.094491117 62:0.094491117 63:0.094491117 64:0.094491117 77:0.094491117 79:0.094491117 88:0.094491117 90:0.094491117 133:0.094491117 145:0.094491117 153:0.094491117 160:0.094491117 165:0.094491117 193:0.094491117 246:0.094491117 298:0.094491117 313:0.094491117 351:0.094491117 357:0.094491117 378:0.094491117 381:0.094491117 402:0.094491117 415:0.094491117 424:0.094491117 441:0.094491117 444:0.094491117 456:0.094491117 465:0.094491117 473:0.094491117 475:0.094491117 477:0.094491117 545:0.094491117 563:0.094491117 591:0.094491117 608:0.094491117 627:0.094491117 628:0.094491117 629:0.094491117 673:0.094491117 677:0.094491117 705:0.094491117 749:0.094491117 759:0.094491117 768:0.094491117 772:0.094491117 795:0.094491117 811:0.094491117 825:0.094491117 845:0.094491117 877:0.094491117 882:0.094491117 885:0.094491117 905:0.094491117 909:0.094491117 915:0.094491117 917:0.094491117 929:0.094491117 954:0.094491117 963:0.094491117 972:0.094491117 982:0.094491117 987:0.094491117 993:0.094491117 1000:0.094491117 1012:0.094491117 1015:0.094491117 1056:0.094491117 1124:0.094491117 1185:0.094491117 1228:0.094491117 1249:0.094491117 1305:0.094491117 1321:0.094491117 1328:0.094491117 1369:0.094491117 1378:0.094491117 1383:0.094491117 1425:0.094491117 1464:0.094491117 1471:0.094491117 1498:0.094491117 1524:0.094491117 1528:0.094491117 1536:0.094491117 1560:0.094491117 1603:0.094491117 1612:0.094491117 1618:0.094491117 1620:0.094491117 1656:0.094491117 1687:0.094491117 1727:0.094491117 1734:0.094491117 1737:0.094491117 1741:0.094491117 1742:0.094491117 1756:0.094491117 1760:0.094491117 1765:0.094491117 1788:0.094491117 1811:0.094491117 1852:0.094491117 1875:0.094491117 1884:0.094491117 1939:0.094491117 1956:0.094491117 1972:0.094491117 1977:0.094491117 1980:0.094491117 1988:0.094491117 #
-1 186:0.33333334 434:0.33333334 958:0.33333334 1331:0.33333334 1334:0.33333334 1535:0.33333334 1670:0.33333334 1741:0.33333334 1797:0.33333334 #
0.4732374577355188960403609144123 91:0.22941573 136:0.22941573 267:0.22941573 351:0.22941573 381:0.22941573 456:0.22941573 529:0.22941573 741:0.22941573 838:0.22941573 898:0.22941573 921:0.22941573 1091:0.22941573 1320:0.22941573 1377:0.22941573 1442:0.22941573 1535:0.22941573 1748:0.22941573 1878:0.22941573 1892:0.22941573 #
-1 88:0.16666667 99:0.16666667 172:0.16666667 249:0.16666667 351:0.16666667 381:0.16666667 482:0.16666667 498:0.16666667 568:0.16666667 659:0.16666667 673:0.16666667 694:0.16666667 749:0.16666667 816:0.16666667 908:0.16666667 963:0.16666667 976:0.16666667 1033:0.16666667 1070:0.16666667 1134:0.16666667 1160:0.16666667 1463:0.16666667 1464:0.16666667 1482:0.16666667 1496:0.16666667 1535:0.16666667 1618:0.16666667 1650:0.16666667 1684:0.16666667 1741:0.16666667 1770:0.16666667 1890:0.16666667 1898:0.16666667 1904:0.16666667 1920:0.16666667 1926:0.16666667 #
1 2:0.13483997 22:0.13483997 39:0.13483997 88:0.13483997 93:0.13483997 118:0.13483997 140:0.13483997 160:0.13483997 185:0.13483997 288:0.13483997 313:0.13483997 328:0.13483997 332:0.13483997 340:0.13483997 376:0.13483997 424:0.13483997 436:0.13483997 546:0.13483997 603:0.13483997 627:0.13483997 669:0.13483997 672:0.13483997 687:0.13483997 696:0.13483997 738:0.13483997 749:0.13483997 757:0.13483997 778:0.13483997 797:0.13483997 825:0.13483997 869:0.13483997 877:0.13483997 904:0.13483997 972:0.13483997 974:0.13483997 976:0.13483997 1004:0.13483997 1119:0.13483997 1159:0.13483997 1254:0.13483997 1285:0.13483997 1305:0.13483997 1326:0.13483997 1417:0.13483997 1471:0.13483997 1531:0.13483997 1540:0.13483997 1560:0.13483997 1561:0.13483997 1574:0.13483997 1618:0.13483997 1711:0.13483997 1764:0.13483997 1851:0.13483997 1956:0.13483997 #
1 44:0.21320072 52:0.21320072 246:0.21320072 249:0.21320072 305:0.21320072 313:0.21320072 482:0.21320072 620:0.21320072 662:0.21320072 724:0.21320072 749:0.21320072 816:0.21320072 854:0.21320072 1083:0.21320072 1110:0.21320072 1278:0.21320072 1482:0.21320072 1498:0.21320072 1814:0.21320072 1904:0.21320072 1927:0.21320072 1954:0.21320072 #
-0.097850844351411683796904128485039 91:0.14433756 156:0.14433756 159:0.14433756 160:0.14433756 172:0.14433756 173:0.14433756 265:0.14433756 313:0.14433756 342:0.14433756 357:0.14433756 424:0.14433756 476:0.14433756 509:0.14433756 527:0.14433756 558:0.14433756 564:0.14433756 626:0.14433756 694:0.14433756 718:0.14433756 919:0.14433756 963:0.14433756 1015:0.14433756 1023:0.14433756 1053:0.14433756 1072:0.14433756 1146:0.14433756 1159:0.14433756 1221:0.14433756 1245:0.14433756 1285:0.14433756 1290:0.14433756 1305:0.14433756 1314:0.14433756 1390:0.14433756 1399:0.14433756 1535:0.14433756 1557:0.14433756 1646:0.14433756 1670:0.14433756 1727:0.14433756 1737:0.14433756 1807:0.14433756 1844:0.14433756 1853:0.14433756 1920:0.14433756 1934:0.14433756 1986:0.14433756 1988:0.14433756 #
1 75:0.17149858 77:0.17149858 88:0.17149858 160:0.17149858 226:0.17149858 267:0.17149858 351:0.17149858 357:0.17149858 358:0.17149858 381:0.17149858 387:0.17149858 456:0.17149858 565:0.17149858 592:0.17149858 629:0.17149858 736:0.17149858 838:0.17149858 870:0.17149858 877:0.17149858 987:0.17149858 1070:0.17149858 1083:0.17149858 1107:0.17149858 1159:0.17149858 1315:0.17149858 1377:0.17149858 1487:0.17149858 1510:0.17149858 1612:0.17149858 1692:0.17149858 1693:0.17149858 1805:0.17149858 1814:0.17149858 1829:0.17149858 #
0.86758008078049120292973839241313 13:0.077151679 26:0.077151679 32:0.077151679 63:0.077151679 66:0.077151679 71:0.077151679 83:0.077151679 89:0.077151679 99:0.077151679 130:0.077151679 132:0.077151679 133:0.077151679 138:0.077151679 140:0.077151679 158:0.077151679 161:0.077151679 176:0.077151679 205:0.077151679 211:0.077151679 263:0.077151679 266:0.077151679 267:0.077151679 283:0.077151679 288:0.077151679 293:0.077151679 295:0.077151679 325:0.077151679 326:0.077151679 340:0.077151679 351:0.077151679 352:0.077151679 356:0.077151679 357:0.077151679 358:0.077151679 424:0.077151679 439:0.077151679 443:0.077151679 452:0.077151679 455:0.077151679 456:0.077151679 458:0.077151679 471:0.077151679 488:0.077151679 504:0.077151679 544:0.077151679 554:0.077151679 555:0.077151679 569:0.077151679 605:0.077151679 608:0.077151679 611:0.077151679 621:0.077151679 639:0.077151679 643:0.077151679 645:0.077151679 672:0.077151679 673:0.077151679 722:0.077151679 725:0.077151679 736:0.077151679 738:0.077151679 740:0.077151679 749:0.077151679 757:0.077151679 775:0.077151679 792:0.077151679 807:0.077151679 811:0.077151679 823:0.077151679 846:0.077151679 849:0.077151679 872:0.077151679 909:0.077151679 913:0.077151679 919:0.077151679 920:0.077151679 954:0.077151679 961:0.077151679 963:0.077151679 979:0.077151679 987:0.077151679 1004:0.077151679 1015:0.077151679 1033:0.077151679 1057:0.077151679 1076:0.077151679 1083:0.077151679 1096:0.077151679 1100:0.077151679 1102:0.077151679 1104:0.077151679 1106:0.077151679 1119:0.077151679 1127:0.077151679 1145:0.077151679 1149:0.077151679 1159:0.077151679 1167:0.077151679 1173:0.077151679 1179:0.077151679 1188:0.077151679 1225:0.077151679 1263:0.077151679 1264:0.077151679 1267:0.077151679 1281:0.077151679 1287:0.077151679 1294:0.077151679 1303:0.077151679 1314:0.077151679 1318:0.077151679 1326:0.077151679 1328:0.077151679 1347:0.077151679 1358:0.077151679 1359:0.077151679 1365:0.077151679 1387:0.077151679 1415:0.077151679 1446:0.077151679 1452:0.077151679 1453:0.077151679 1464:0.077151679 1471:0.077151679 1473:0.077151679 1498:0.077151679 1520:0.077151679 1521:0.077151679 1535:0.077151679 1557:0.077151679 1574:0.077151679 1618:0.077151679 1621:0.077151679 1636:0.077151679 1666:0.077151679 1676:0.077151679 1684:0.077151679 1693:0.077151679 1705:0.077151679 1710:0.077151679 1715:0.077151679 1727:0.077151679 1732:0.077151679 1737:0.077151679 1750:0.077151679 1781:0.077151679 1782:0.077151679 1794:0.077151679 1815:0.077151679 1822:0.077151679 1848:0.077151679 1851:0.077151679 1853:0.077151679 1855:0.077151679 1857:0.077151679 1868:0.077151679 1877:0.077151679 1886:0.077151679 1890:0.077151679 1907:0.077151679 1910:0.077151679 1919:0.077151679 1921:0.077151679 1924:0.077151679 1956:0.077151679 1962:0.077151679 1987:0.077151679 1988:0.077151679 #
-0.53906370905331846277164231651113 52:0.16439898 77:0.16439898 91:0.16439898 160:0.16439898 326:0.16439898 357:0.16439898 415:0.16439898 451:0.16439898 661:0.16439898 714:0.16439898 726:0.16439898 749:0.16439898 757:0.16439898 800:0.16439898 808:0.16439898 855:0.16439898 910:0.16439898 954:0.16439898 987:0.16439898 1015:0.16439898 1062:0.16439898 1083:0.16439898 1106:0.16439898 1119:0.16439898 1168:0.16439898 1496:0.16439898 1498:0.16439898 1684:0.16439898 1727:0.16439898 1742:0.16439898 1765:0.16439898 1767:0.16439898 1791:0.16439898 1875:0.16439898 1921:0.16439898 1960:0.16439898 1996:0.16439898 #
-1 35:0.10599979 39:0.10599979 77:0.10599979 79:0.10599979 83:0.10599979 88:0.10599979 104:0.10599979 125:0.10599979 130:0.10599979 133:0.10599979 138:0.10599979 160:0.10599979 199:0.10599979 236:0.10599979 272:0.10599979 288:0.10599979 294:0.10599979 313:0.10599979 326:0.10599979 330:0.10599979 357:0.10599979 359:0.10599979 381:0.10599979 418:0.10599979 424:0.10599979 443:0.10599979 477:0.10599979 516:0.10599979 530:0.10599979 531:0.10599979 535:0.10599979 554:0.10599979 571:0.10599979 595:0.10599979 608:0.10599979 627:0.10599979 645:0.10599979 672:0.10599979 692:0.10599979 724:0.10599979 734:0.10599979 743:0.10599979 749:0.10599979 757:0.10599979 763:0.10599979 769:0.10599979 772:0.10599979 775:0.10599979 784:0.10599979 807:0.10599979 837:0.10599979 869:0.10599979 915:0.10599979 961:0.10599979 963:0.10599979 976:0.10599979 987:0.10599979 1004:0.10599979 1020:0.10599979 1172:0.10599979 1177:0.10599979 1185:0.10599979 1188:0.10599979 1222:0.10599979 1298:0.10599979 1326:0.10599979 1328:0.10599979 1417:0.10599979 1424:0.10599979 1452:0.10599979 1454:0.10599979 1464:0.10599979 1471:0.10599979 1473:0.10599979 1499:0.10599979 1548:0.10599979 1580:0.10599979 1602:0.10599979 1629:0.10599979 1636:0.10599979 1684:0.10599979 1711:0.10599979 1727:0.10599979 1741:0.10599979 1814:0.10599979 1819:0.10599979 1904:0.10599979 1910:0.10599979 1956:0.10599979 #
-0.13159542271667568069659637330915 46:0.11624764 52:0.11624764 88:0.11624764 91:0.11624764 122:0.11624764 133:0.11624764 160:0.11624764 174:0.11624764 178:0.11624764 179:0.11624764 283:0.11624764 317:0.11624764 351:0.11624764 357:0.11624764 358:0.11624764 424:0.11624764 450:0.11624764 455:0.11624764 541:0.11624764 608:0.11624764 639:0.11624764 645:0.11624764 663:0.11624764 666:0.11624764 701:0.11624764 714:0.11624764 732:0.11624764 733:0.11624764 749:0.11624764 757:0.11624764 772:0.11624764 811:0.11624764 954:0.11624764 972:0.11624764 987:0.11624764 992:0.11624764 1004:0.11624764 1015:0.11624764 1033:0.11624764 1041:0.11624764 1178:0.11624764 1220:0.11624764 1305:0.11624764 1322:0.11624764 1336:0.11624764 1388:0.11624764 1408:0.11624764 1429:0.11624764 1443:0.11624764 1452:0.11624764 1460:0.11624764 1463:0.11624764 1464:0.11624764 1535:0.11624764 1618:0.11624764 1620:0.11624764 1645:0.11624764 1716:0.11624764 1727:0.11624764 1728:0.11624764 1737:0.11624764 1738:0.11624764 1776:0.11624764 1791:0.11624764 1816:0.11624764 1848:0.11624764 1851:0.11624764 1904:0.11624764 1934:0.11624764 1935:0.11624764 1956:0.11624764 1962:0.11624764 1975:0.11624764 1988:0.11624764 #
-1 30:0.10259783 40:0.10259783 59:0.10259783 63:0.10259783 77:0.10259783 81:0.10259783 88:0.10259783 123:0.10259783 263:0.10259783 266:0.10259783 282:0.10259783 286:0.10259783 294:0.10259783 302:0.10259783 304:0.10259783 313:0.10259783 314:0.10259783 326:0.10259783 351:0.10259783 357:0.10259783 379:0.10259783 403:0.10259783 405:0.10259783 409:0.10259783 415:0.10259783 424:0.10259783 444:0.10259783 456:0.10259783 480:0.10259783 504:0.10259783 544:0.10259783 546:0.10259783 570:0.10259783 594:0.10259783 658:0.10259783 659:0.10259783 661:0.10259783 668:0.10259783 672:0.10259783 677:0.10259783 691:0.10259783 722:0.10259783 723:0.10259783 725:0.10259783 726:0.10259783 737:0.10259783 749:0.10259783 763:0.10259783 771:0.10259783 807:0.10259783 869:0.10259783 870:0.10259783 885:0.10259783 926:0.10259783 954:0.10259783 972:0.10259783 976:0.10259783 983:0.10259783 987:0.10259783 1015:0.10259783 1033:0.10259783 1057:0.10259783 1060:0.10259783 1062:0.10259783 1083:0.10259783 1147:0.10259783 1161:0.10259783 1167:0.10259783 1175:0.10259783 1201:0.10259783 1229:0.10259783 1302:0.10259783 1310:0.10259783 1386:0.10259783 1453:0.10259783 1464:0.10259783 1471:0.10259783 1532:0.10259783 1536:0.10259783 1549:0.10259783 1618:0.10259783 1627:0.10259783 1636:0.10259783 1668:0.10259783 1693:0.10259783 1727:0.10259783 1741:0.10259783 1744:0.10259783 1805:0.10259783 1825:0.10259783 1853:0.10259783 1904:0.10259783 1919:0.10259783 1933:0.10259783 1963:0.10259783 #
-1 10:0.081923194 16:0.081923194 39:0.081923194 44:0.081923194 53:0.081923194 60:0.081923194 63:0.081923194 87:0.081923194 88:0.081923194 89:0.081923194 90:0.081923194 91:0.081923194 95:0.081923194 99:0.081923194 133:0.081923194 138:0.081923194 139:0.081923194 149:0.081923194 160:0.081923194 185:0.081923194 217:0.081923194 218:0.081923194 263:0.081923194 286:0.081923194 293:0.081923194 295:0.081923194 313:0.081923194 314:0.081923194 317:0.081923194 328:0.081923194 340:0.081923194 351:0.081923194 357:0.081923194 381:0.081923194 408:0.081923194 424:0.081923194 431:0.081923194 449:0.081923194 450:0.081923194 521:0.081923194 527:0.081923194 531:0.081923194 593:0.081923194 608:0.081923194 627:0.081923194 633:0.081923194 635:0.081923194 645:0.081923194 650:0.081923194 672:0.081923194 709:0.081923194 711:0.081923194 722:0.081923194 726:0.081923194 732:0.081923194 749:0.081923194 754:0.081923194 764:0.081923194 765:0.081923194 769:0.081923194 772:0.081923194 825:0.081923194 842:0.081923194 845:0.081923194 847:0.081923194 867:0.081923194 870:0.081923194 872:0.081923194 877:0.081923194 882:0.081923194 887:0.081923194 909:0.081923194 921:0.081923194 932:0.081923194 954:0.081923194 961:0.081923194 963:0.081923194 972:0.081923194 976:0.081923194 982:0.081923194 987:0.081923194 1004:0.081923194 1015:0.081923194 1033:0.081923194 1057:0.081923194 1083:0.081923194 1085:0.081923194 1119:0.081923194 1124:0.081923194 1126:0.081923194 1185:0.081923194 1188:0.081923194 1229:0.081923194 1233:0.081923194 1236:0.081923194 1251:0.081923194 1261:0.081923194 1263:0.081923194 1281:0.081923194 1305:0.081923194 1328:0.081923194 1403:0.081923194 1458:0.081923194 1464:0.081923194 1471:0.081923194 1499:0.081923194 1504:0.081923194 1509:0.081923194 1521:0.081923194 1557:0.081923194 1587:0.081923194 1602:0.081923194 1618:0.081923194 1630:0.081923194 1632:0.081923194 1665:0.081923194 1672:0.081923194 1680:0.081923194 1684:0.081923194 1693:0.081923194 1710:0.081923194 1719:0.081923194 1727:0.081923194 1731:0.081923194 1737:0.081923194 1738:0.081923194 1767:0.081923194 1773:0.081923194 1774:0.081923194 1782:0.081923194 1785:0.081923194 1831:0.081923194 1841:0.081923194 1848:0.081923194 1853:0.081923194 1877:0.081923194 1893:0.081923194 1904:0.081923194 1910:0.081923194 1916:0.081923194 1927:0.081923194 1945:0.081923194 1951:0.081923194 1956:0.081923194 1971:0.081923194 1975:0.081923194 1981:0.081923194 1984:0.081923194 1988:0.081923194 #
1 861:0.44721359 922:0.44721359 1535:0.44721359 1578:0.44721359 1670:0.44721359 #
1 19:0.2 160:0.2 263:0.2 267:0.2 520:0.2 546:0.2 709:0.2 741:0.2 811:0.2 845:0.2 961:0.2 987:0.2 1245:0.2 1305:0.2 1353:0.2 1377:0.2 1416:0.2 1473:0.2 1500:0.2 1535:0.2 1630:0.2 1670:0.2 1737:0.2 1785:0.2 1856:0.2 #
1 53:0.24253562 93:0.24253562 103:0.24253562 123:0.24253562 344:0.24253562 381:0.24253562 424:0.24253562 620:0.24253562 645:0.24253562 673:0.24253562 919:0.24253562 1529:0.24253562 1535:0.24253562 1618:0.24253562 1676:0.24253562 1764:0.24253562 1927:0.24253562 #
