SVM-light Version V6.02
0 # kernel type
3 # kernel parameter -d 
1 # kernel parameter -g 
1 # kernel parameter -s 
1 # kernel parameter -r 
empty# kernel parameter -u 
2000 # highest feature index 
2000 # number of training documents 
797 # number of support vectors plus 1 
0.95063935 # threshold b, each following line is a SV (starting with alpha*y)
-0.027701670408668367662219367275611 57:0.09166985 68:0.09166985 89:0.09166985 99:0.09166985 104:0.09166985 122:0.09166985 134:0.09166985 139:0.09166985 141:0.09166985 154:0.09166985 160:0.09166985 169:0.09166985 178:0.09166985 199:0.09166985 263:0.09166985 267:0.09166985 287:0.09166985 313:0.09166985 316:0.09166985 328:0.09166985 351:0.09166985 357:0.09166985 359:0.09166985 368:0.09166985 390:0.09166985 405:0.09166985 415:0.09166985 422:0.09166985 424:0.09166985 448:0.09166985 465:0.09166985 477:0.09166985 496:0.09166985 504:0.09166985 546:0.09166985 572:0.09166985 601:0.09166985 608:0.09166985 627:0.09166985 631:0.09166985 635:0.09166985 672:0.09166985 700:0.09166985 714:0.09166985 722:0.09166985 749:0.09166985 757:0.09166985 787:0.09166985 807:0.09166985 811:0.09166985 813:0.09166985 825:0.09166985 837:0.09166985 845:0.09166985 872:0.09166985 877:0.09166985 896:0.09166985 909:0.09166985 954:0.09166985 963:0.09166985 964:0.09166985 975:0.09166985 976:0.09166985 987:0.09166985 1004:0.09166985 1007:0.09166985 1009:0.09166985 1015:0.09166985 1033:0.09166985 1051:0.09166985 1057:0.09166985 1063:0.09166985 1068:0.09166985 1090:0.09166985 1099:0.09166985 1119:0.09166985 1127:0.09166985 1149:0.09166985 1223:0.09166985 1229:0.09166985 1290:0.09166985 1301:0.09166985 1305:0.09166985 1322:0.09166985 1328:0.09166985 1348:0.09166985 1365:0.09166985 1386:0.09166985 1406:0.09166985 1408:0.09166985 1460:0.09166985 1464:0.09166985 1480:0.09166985 1482:0.09166985 1535:0.09166985 1571:0.09166985 1582:0.09166985 1595:0.09166985 1602:0.09166985 1603:0.09166985 1618:0.09166985 1645:0.09166985 1657:0.09166985 1680:0.09166985 1684:0.09166985 1720:0.09166985 1727:0.09166985 1736:0.09166985 1737:0.09166985 1738:0.09166985 1754:0.09166985 1843:0.09166985 1851:0.09166985 1853:0.09166985 1877:0.09166985 1894:0.09166985 1898:0.09166985 1966:0.09166985 1972:0.09166985 #
-0.71391967538158218609112282138085 10:0.13363062 77:0.13363062 91:0.13363062 113:0.13363062 126:0.13363062 160:0.13363062 192:0.13363062 198:0.13363062 247:0.13363062 288:0.13363062 318:0.13363062 350:0.13363062 351:0.13363062 357:0.13363062 392:0.13363062 505:0.13363062 543:0.13363062 546:0.13363062 613:0.13363062 635:0.13363062 669:0.13363062 672:0.13363062 717:0.13363062 725:0.13363062 749:0.13363062 769:0.13363062 845:0.13363062 870:0.13363062 872:0.13363062 882:0.13363062 900:0.13363062 904:0.13363062 956:0.13363062 972:0.13363062 983:0.13363062 1144:0.13363062 1159:0.13363062 1169:0.13363062 1190:0.13363062 1256:0.13363062 1279:0.13363062 1285:0.13363062 1331:0.13363062 1460:0.13363062 1473:0.13363062 1535:0.13363062 1539:0.13363062 1618:0.13363062 1670:0.13363062 1727:0.13363062 1788:0.13363062 1819:0.13363062 1912:0.13363062 1956:0.13363062 1962:0.13363062 1976:0.13363062 #
1 63:0.11547005 92:0.11547005 93:0.11547005 161:0.11547005 207:0.11547005 214:0.11547005 218:0.11547005 223:0.11547005 241:0.11547005 242:0.11547005 340:0.11547005 359:0.11547005 361:0.11547005 387:0.11547005 424:0.11547005 436:0.11547005 456:0.11547005 491:0.11547005 504:0.11547005 531:0.11547005 535:0.11547005 580:0.11547005 593:0.11547005 629:0.11547005 639:0.11547005 645:0.11547005 672:0.11547005 722:0.11547005 726:0.11547005 749:0.11547005 760:0.11547005 807:0.11547005 827:0.11547005 909:0.11547005 914:0.11547005 963:0.11547005 974:0.11547005 976:0.11547005 987:0.11547005 1033:0.11547005 1067:0.11547005 1106:0.11547005 1161:0.11547005 1167:0.11547005 1168:0.11547005 1175:0.11547005 1201:0.11547005 1220:0.11547005 1238:0.11547005 1281:0.11547005 1309:0.11547005 1328:0.11547005 1403:0.11547005 1410:0.11547005 1433:0.11547005 1498:0.11547005 1503:0.11547005 1522:0.11547005 1526:0.11547005 1535:0.11547005 1582:0.11547005 1618:0.11547005 1684:0.11547005 1737:0.11547005 1750:0.11547005 1758:0.11547005 1767:0.11547005 1789:0.11547005 1792:0.11547005 1848:0.11547005 1853:0.11547005 1868:0.11547005 1898:0.11547005 1953:0.11547005 1987:0.11547005 #
-0.53036674737237565757652646425413 30:0.11396058 33:0.11396058 53:0.11396058 63:0.11396058 87:0.11396058 88:0.11396058 91:0.11396058 103:0.11396058 106:0.11396058 113:0.11396058 134:0.11396058 139:0.11396058 160:0.11396058 162:0.11396058 167:0.11396058 216:0.11396058 267:0.11396058 308:0.11396058 351:0.11396058 357:0.11396058 387:0.11396058 398:0.11396058 417:0.11396058 418:0.11396058 477:0.11396058 489:0.11396058 508:0.11396058 536:0.11396058 546:0.11396058 608:0.11396058 672:0.11396058 723:0.11396058 749:0.11396058 838:0.11396058 880:0.11396058 887:0.11396058 933:0.11396058 943:0.11396058 946:0.11396058 963:0.11396058 987:0.11396058 1015:0.11396058 1148:0.11396058 1174:0.11396058 1221:0.11396058 1233:0.11396058 1241:0.11396058 1305:0.11396058 1310:0.11396058 1322:0.11396058 1326:0.11396058 1353:0.11396058 1384:0.11396058 1419:0.11396058 1422:0.11396058 1440:0.11396058 1471:0.11396058 1520:0.11396058 1521:0.11396058 1525:0.11396058 1535:0.11396058 1540:0.11396058 1596:0.11396058 1605:0.11396058 1671:0.11396058 1711:0.11396058 1727:0.11396058 1776:0.11396058 1794:0.11396058 1851:0.11396058 1853:0.11396058 1876:0.11396058 1893:0.11396058 1927:0.11396058 1929:0.11396058 1958:0.11396058 1972:0.11396058 #
-1 30:0.10482848 44:0.10482848 53:0.10482848 63:0.10482848 88:0.10482848 122:0.10482848 138:0.10482848 160:0.10482848 194:0.10482848 217:0.10482848 223:0.10482848 237:0.10482848 251:0.10482848 263:0.10482848 285:0.10482848 286:0.10482848 293:0.10482848 340:0.10482848 351:0.10482848 357:0.10482848 362:0.10482848 381:0.10482848 383:0.10482848 413:0.10482848 424:0.10482848 456:0.10482848 531:0.10482848 567:0.10482848 571:0.10482848 583:0.10482848 595:0.10482848 645:0.10482848 655:0.10482848 672:0.10482848 686:0.10482848 691:0.10482848 693:0.10482848 703:0.10482848 722:0.10482848 749:0.10482848 753:0.10482848 763:0.10482848 772:0.10482848 810:0.10482848 811:0.10482848 845:0.10482848 870:0.10482848 887:0.10482848 914:0.10482848 919:0.10482848 954:0.10482848 963:0.10482848 987:0.10482848 1010:0.10482848 1016:0.10482848 1021:0.10482848 1083:0.10482848 1164:0.10482848 1165:0.10482848 1168:0.10482848 1178:0.10482848 1215:0.10482848 1239:0.10482848 1251:0.10482848 1253:0.10482848 1270:0.10482848 1305:0.10482848 1314:0.10482848 1328:0.10482848 1345:0.10482848 1386:0.10482848 1438:0.10482848 1464:0.10482848 1466:0.10482848 1482:0.10482848 1504:0.10482848 1618:0.10482848 1620:0.10482848 1654:0.10482848 1684:0.10482848 1729:0.10482848 1737:0.10482848 1749:0.10482848 1831:0.10482848 1837:0.10482848 1848:0.10482848 1853:0.10482848 1875:0.10482848 1928:0.10482848 1935:0.10482848 1966:0.10482848 #
1 172:0.20412415 225:0.20412415 246:0.20412415 357:0.20412415 456:0.20412415 546:0.20412415 677:0.20412415 887:0.20412415 894:0.20412415 920:0.20412415 925:0.20412415 963:0.20412415 1004:0.20412415 1137:0.20412415 1504:0.20412415 1668:0.20412415 1684:0.20412415 1685:0.20412415 1896:0.20412415 1898:0.20412415 1957:0.20412415 1960:0.20412415 1972:0.20412415 1988:0.20412415 #
1 89:0.18569534 125:0.18569534 146:0.18569534 160:0.18569534 313:0.18569534 328:0.18569534 379:0.18569534 415:0.18569534 431:0.18569534 456:0.18569534 546:0.18569534 609:0.18569534 709:0.18569534 837:0.18569534 930:0.18569534 954:0.18569534 1069:0.18569534 1085:0.18569534 1159:0.18569534 1422:0.18569534 1586:0.18569534 1668:0.18569534 1848:0.18569534 1862:0.18569534 1948:0.18569534 1956:0.18569534 1972:0.18569534 1980:0.18569534 1988:0.18569534 #
-0.52672362452130594423493903377675 8:0.1132277 18:0.1132277 63:0.1132277 68:0.1132277 73:0.1132277 88:0.1132277 113:0.1132277 160:0.1132277 263:0.1132277 283:0.1132277 313:0.1132277 326:0.1132277 344:0.1132277 351:0.1132277 398:0.1132277 477:0.1132277 511:0.1132277 527:0.1132277 541:0.1132277 546:0.1132277 608:0.1132277 627:0.1132277 645:0.1132277 663:0.1132277 667:0.1132277 672:0.1132277 682:0.1132277 690:0.1132277 700:0.1132277 772:0.1132277 825:0.1132277 837:0.1132277 858:0.1132277 870:0.1132277 887:0.1132277 896:0.1132277 904:0.1132277 924:0.1132277 987:0.1132277 1010:0.1132277 1053:0.1132277 1083:0.1132277 1085:0.1132277 1155:0.1132277 1175:0.1132277 1236:0.1132277 1289:0.1132277 1305:0.1132277 1410:0.1132277 1464:0.1132277 1465:0.1132277 1477:0.1132277 1478:0.1132277 1497:0.1132277 1535:0.1132277 1618:0.1132277 1620:0.1132277 1680:0.1132277 1684:0.1132277 1710:0.1132277 1716:0.1132277 1727:0.1132277 1728:0.1132277 1735:0.1132277 1760:0.1132277 1770:0.1132277 1813:0.1132277 1815:0.1132277 1833:0.1132277 1848:0.1132277 1854:0.1132277 1878:0.1132277 1887:0.1132277 1938:0.1132277 1943:0.1132277 1946:0.1132277 1956:0.1132277 1962:0.1132277 #
1 88:0.13483997 105:0.13483997 160:0.13483997 241:0.13483997 249:0.13483997 294:0.13483997 329:0.13483997 340:0.13483997 397:0.13483997 398:0.13483997 418:0.13483997 482:0.13483997 546:0.13483997 639:0.13483997 655:0.13483997 686:0.13483997 715:0.13483997 749:0.13483997 845:0.13483997 846:0.13483997 866:0.13483997 869:0.13483997 927:0.13483997 954:0.13483997 955:0.13483997 974:0.13483997 976:0.13483997 987:0.13483997 1032:0.13483997 1161:0.13483997 1229:0.13483997 1305:0.13483997 1328:0.13483997 1330:0.13483997 1353:0.13483997 1361:0.13483997 1373:0.13483997 1392:0.13483997 1502:0.13483997 1520:0.13483997 1535:0.13483997 1595:0.13483997 1631:0.13483997 1644:0.13483997 1697:0.13483997 1793:0.13483997 1803:0.13483997 1831:0.13483997 1853:0.13483997 1877:0.13483997 1894:0.13483997 1898:0.13483997 1953:0.13483997 1977:0.13483997 1987:0.13483997 #
1 52:0.12803689 88:0.12803689 127:0.12803689 139:0.12803689 160:0.12803689 161:0.12803689 172:0.12803689 181:0.12803689 185:0.12803689 267:0.12803689 338:0.12803689 340:0.12803689 351:0.12803689 357:0.12803689 359:0.12803689 379:0.12803689 415:0.12803689 424:0.12803689 448:0.12803689 455:0.12803689 456:0.12803689 566:0.12803689 600:0.12803689 645:0.12803689 673:0.12803689 725:0.12803689 749:0.12803689 772:0.12803689 811:0.12803689 953:0.12803689 954:0.12803689 976:0.12803689 987:0.12803689 988:0.12803689 995:0.12803689 1004:0.12803689 1007:0.12803689 1015:0.12803689 1041:0.12803689 1083:0.12803689 1090:0.12803689 1141:0.12803689 1168:0.12803689 1190:0.12803689 1237:0.12803689 1256:0.12803689 1305:0.12803689 1328:0.12803689 1452:0.12803689 1502:0.12803689 1535:0.12803689 1536:0.12803689 1618:0.12803689 1646:0.12803689 1670:0.12803689 1693:0.12803689 1844:0.12803689 1851:0.12803689 1868:0.12803689 1953:0.12803689 1962:0.12803689 #
-0.7107379392085172442605767173518 73:0.22941573 160:0.22941573 313:0.22941573 360:0.22941573 363:0.22941573 449:0.22941573 546:0.22941573 924:0.22941573 1094:0.22941573 1123:0.22941573 1159:0.22941573 1290:0.22941573 1386:0.22941573 1422:0.22941573 1502:0.22941573 1535:0.22941573 1697:0.22941573 1920:0.22941573 1972:0.22941573 #
-1 160:0.31622776 424:0.31622776 469:0.31622776 546:0.31622776 894:0.31622776 1422:0.31622776 1479:0.31622776 1535:0.31622776 1670:0.31622776 1972:0.31622776 #
-1 44:0.20412415 88:0.20412415 160:0.20412415 161:0.20412415 233:0.20412415 300:0.20412415 313:0.20412415 452:0.20412415 546:0.20412415 636:0.20412415 666:0.20412415 714:0.20412415 842:0.20412415 932:0.20412415 954:0.20412415 1244:0.20412415 1276:0.20412415 1305:0.20412415 1429:0.20412415 1435:0.20412415 1520:0.20412415 1554:0.20412415 1815:0.20412415 1972:0.20412415 #
0.15447654694078513659682982961385 5:0.10259783 52:0.10259783 58:0.10259783 63:0.10259783 76:0.10259783 80:0.10259783 88:0.10259783 93:0.10259783 99:0.10259783 139:0.10259783 160:0.10259783 182:0.10259783 287:0.10259783 308:0.10259783 313:0.10259783 351:0.10259783 381:0.10259783 436:0.10259783 443:0.10259783 456:0.10259783 481:0.10259783 532:0.10259783 550:0.10259783 580:0.10259783 627:0.10259783 648:0.10259783 655:0.10259783 663:0.10259783 667:0.10259783 672:0.10259783 706:0.10259783 709:0.10259783 714:0.10259783 722:0.10259783 726:0.10259783 744:0.10259783 749:0.10259783 757:0.10259783 763:0.10259783 769:0.10259783 771:0.10259783 784:0.10259783 787:0.10259783 795:0.10259783 800:0.10259783 807:0.10259783 825:0.10259783 837:0.10259783 845:0.10259783 846:0.10259783 847:0.10259783 920:0.10259783 954:0.10259783 975:0.10259783 981:0.10259783 988:0.10259783 1015:0.10259783 1037:0.10259783 1048:0.10259783 1057:0.10259783 1068:0.10259783 1100:0.10259783 1119:0.10259783 1121:0.10259783 1141:0.10259783 1190:0.10259783 1196:0.10259783 1212:0.10259783 1267:0.10259783 1276:0.10259783 1305:0.10259783 1328:0.10259783 1433:0.10259783 1453:0.10259783 1471:0.10259783 1498:0.10259783 1516:0.10259783 1573:0.10259783 1615:0.10259783 1618:0.10259783 1620:0.10259783 1661:0.10259783 1678:0.10259783 1684:0.10259783 1691:0.10259783 1698:0.10259783 1704:0.10259783 1843:0.10259783 1844:0.10259783 1848:0.10259783 1851:0.10259783 1875:0.10259783 1878:0.10259783 1956:0.10259783 1969:0.10259783 #
-0.39429836872845502870887912649778 64:0.09853293 88:0.09853293 93:0.09853293 99:0.09853293 128:0.09853293 138:0.09853293 149:0.09853293 160:0.09853293 263:0.09853293 271:0.09853293 286:0.09853293 287:0.09853293 309:0.09853293 340:0.09853293 348:0.09853293 351:0.09853293 357:0.09853293 379:0.09853293 415:0.09853293 418:0.09853293 424:0.09853293 470:0.09853293 477:0.09853293 478:0.09853293 489:0.09853293 531:0.09853293 538:0.09853293 612:0.09853293 635:0.09853293 645:0.09853293 668:0.09853293 672:0.09853293 690:0.09853293 749:0.09853293 763:0.09853293 772:0.09853293 807:0.09853293 811:0.09853293 846:0.09853293 847:0.09853293 873:0.09853293 878:0.09853293 901:0.09853293 904:0.09853293 954:0.09853293 976:0.09853293 987:0.09853293 993:0.09853293 1015:0.09853293 1033:0.09853293 1083:0.09853293 1138:0.09853293 1169:0.09853293 1190:0.09853293 1201:0.09853293 1202:0.09853293 1230:0.09853293 1281:0.09853293 1305:0.09853293 1328:0.09853293 1357:0.09853293 1419:0.09853293 1433:0.09853293 1464:0.09853293 1471:0.09853293 1473:0.09853293 1485:0.09853293 1498:0.09853293 1501:0.09853293 1515:0.09853293 1535:0.09853293 1556:0.09853293 1602:0.09853293 1620:0.09853293 1630:0.09853293 1664:0.09853293 1666:0.09853293 1684:0.09853293 1686:0.09853293 1711:0.09853293 1719:0.09853293 1722:0.09853293 1727:0.09853293 1729:0.09853293 1741:0.09853293 1799:0.09853293 1801:0.09853293 1809:0.09853293 1816:0.09853293 1848:0.09853293 1859:0.09853293 1864:0.09853293 1875:0.09853293 1881:0.09853293 1906:0.09853293 1910:0.09853293 1914:0.09853293 1917:0.09853293 1929:0.09853293 1935:0.09853293 1961:0.09853293 1962:0.09853293 1972:0.09853293 #
1 30:0.076028593 53:0.076028593 55:0.076028593 63:0.076028593 79:0.076028593 81:0.076028593 88:0.076028593 91:0.076028593 99:0.076028593 103:0.076028593 108:0.076028593 111:0.076028593 123:0.076028593 133:0.076028593 134:0.076028593 138:0.076028593 139:0.076028593 158:0.076028593 165:0.076028593 181:0.076028593 193:0.076028593 202:0.076028593 221:0.076028593 240:0.076028593 263:0.076028593 267:0.076028593 294:0.076028593 313:0.076028593 340:0.076028593 351:0.076028593 357:0.076028593 359:0.076028593 381:0.076028593 417:0.076028593 443:0.076028593 444:0.076028593 451:0.076028593 497:0.076028593 502:0.076028593 522:0.076028593 524:0.076028593 546:0.076028593 608:0.076028593 627:0.076028593 628:0.076028593 645:0.076028593 648:0.076028593 651:0.076028593 661:0.076028593 672:0.076028593 673:0.076028593 718:0.076028593 720:0.076028593 722:0.076028593 723:0.076028593 725:0.076028593 726:0.076028593 727:0.076028593 749:0.076028593 778:0.076028593 784:0.076028593 803:0.076028593 804:0.076028593 807:0.076028593 808:0.076028593 813:0.076028593 823:0.076028593 837:0.076028593 857:0.076028593 882:0.076028593 904:0.076028593 911:0.076028593 921:0.076028593 939:0.076028593 949:0.076028593 954:0.076028593 956:0.076028593 963:0.076028593 964:0.076028593 972:0.076028593 976:0.076028593 987:0.076028593 1004:0.076028593 1015:0.076028593 1020:0.076028593 1033:0.076028593 1057:0.076028593 1060:0.076028593 1068:0.076028593 1088:0.076028593 1103:0.076028593 1119:0.076028593 1127:0.076028593 1135:0.076028593 1144:0.076028593 1155:0.076028593 1157:0.076028593 1164:0.076028593 1168:0.076028593 1173:0.076028593 1182:0.076028593 1190:0.076028593 1196:0.076028593 1210:0.076028593 1220:0.076028593 1223:0.076028593 1233:0.076028593 1251:0.076028593 1267:0.076028593 1280:0.076028593 1281:0.076028593 1310:0.076028593 1315:0.076028593 1316:0.076028593 1318:0.076028593 1326:0.076028593 1328:0.076028593 1379:0.076028593 1397:0.076028593 1423:0.076028593 1429:0.076028593 1438:0.076028593 1452:0.076028593 1459:0.076028593 1464:0.076028593 1471:0.076028593 1492:0.076028593 1498:0.076028593 1506:0.076028593 1514:0.076028593 1574:0.076028593 1582:0.076028593 1586:0.076028593 1606:0.076028593 1618:0.076028593 1620:0.076028593 1630:0.076028593 1638:0.076028593 1660:0.076028593 1665:0.076028593 1670:0.076028593 1684:0.076028593 1690:0.076028593 1711:0.076028593 1727:0.076028593 1728:0.076028593 1737:0.076028593 1741:0.076028593 1745:0.076028593 1759:0.076028593 1792:0.076028593 1822:0.076028593 1849:0.076028593 1851:0.076028593 1853:0.076028593 1856:0.076028593 1861:0.076028593 1875:0.076028593 1877:0.076028593 1884:0.076028593 1903:0.076028593 1910:0.076028593 1914:0.076028593 1921:0.076028593 1927:0.076028593 1929:0.076028593 1935:0.076028593 1937:0.076028593 1953:0.076028593 1956:0.076028593 1960:0.076028593 1962:0.076028593 1994:0.076028593 #
1 10:0.096225046 44:0.096225046 53:0.096225046 63:0.096225046 93:0.096225046 122:0.096225046 123:0.096225046 134:0.096225046 138:0.096225046 139:0.096225046 160:0.096225046 161:0.096225046 172:0.096225046 187:0.096225046 202:0.096225046 211:0.096225046 226:0.096225046 240:0.096225046 241:0.096225046 267:0.096225046 274:0.096225046 293:0.096225046 313:0.096225046 326:0.096225046 351:0.096225046 380:0.096225046 381:0.096225046 392:0.096225046 412:0.096225046 424:0.096225046 456:0.096225046 504:0.096225046 543:0.096225046 546:0.096225046 635:0.096225046 639:0.096225046 642:0.096225046 643:0.096225046 655:0.096225046 672:0.096225046 685:0.096225046 689:0.096225046 725:0.096225046 726:0.096225046 749:0.096225046 757:0.096225046 804:0.096225046 823:0.096225046 845:0.096225046 846:0.096225046 856:0.096225046 879:0.096225046 901:0.096225046 948:0.096225046 954:0.096225046 956:0.096225046 963:0.096225046 972:0.096225046 976:0.096225046 982:0.096225046 987:0.096225046 1001:0.096225046 1015:0.096225046 1033:0.096225046 1069:0.096225046 1083:0.096225046 1119:0.096225046 1159:0.096225046 1168:0.096225046 1169:0.096225046 1203:0.096225046 1207:0.096225046 1209:0.096225046 1216:0.096225046 1228:0.096225046 1233:0.096225046 1256:0.096225046 1271:0.096225046 1277:0.096225046 1288:0.096225046 1295:0.096225046 1305:0.096225046 1328:0.096225046 1345:0.096225046 1353:0.096225046 1403:0.096225046 1436:0.096225046 1465:0.096225046 1499:0.096225046 1525:0.096225046 1535:0.096225046 1536:0.096225046 1620:0.096225046 1629:0.096225046 1684:0.096225046 1700:0.096225046 1727:0.096225046 1762:0.096225046 1765:0.096225046 1794:0.096225046 1843:0.096225046 1848:0.096225046 1851:0.096225046 1853:0.096225046 1877:0.096225046 1898:0.096225046 1956:0.096225046 1987:0.096225046 #
1 38:0.11785113 63:0.11785113 77:0.11785113 92:0.11785113 99:0.11785113 109:0.11785113 118:0.11785113 134:0.11785113 138:0.11785113 160:0.11785113 165:0.11785113 167:0.11785113 185:0.11785113 186:0.11785113 263:0.11785113 294:0.11785113 328:0.11785113 357:0.11785113 381:0.11785113 402:0.11785113 418:0.11785113 424:0.11785113 524:0.11785113 571:0.11785113 578:0.11785113 608:0.11785113 629:0.11785113 648:0.11785113 665:0.11785113 673:0.11785113 700:0.11785113 732:0.11785113 762:0.11785113 787:0.11785113 811:0.11785113 885:0.11785113 904:0.11785113 915:0.11785113 963:0.11785113 972:0.11785113 1015:0.11785113 1051:0.11785113 1115:0.11785113 1119:0.11785113 1190:0.11785113 1219:0.11785113 1229:0.11785113 1255:0.11785113 1308:0.11785113 1314:0.11785113 1326:0.11785113 1378:0.11785113 1379:0.11785113 1452:0.11785113 1458:0.11785113 1471:0.11785113 1567:0.11785113 1571:0.11785113 1580:0.11785113 1674:0.11785113 1727:0.11785113 1728:0.11785113 1737:0.11785113 1796:0.11785113 1839:0.11785113 1848:0.11785113 1851:0.11785113 1904:0.11785113 1956:0.11785113 1980:0.11785113 1988:0.11785113 1997:0.11785113 #
1 8:0.075164601 10:0.075164601 30:0.075164601 47:0.075164601 53:0.075164601 63:0.075164601 77:0.075164601 87:0.075164601 88:0.075164601 91:0.075164601 99:0.075164601 133:0.075164601 135:0.075164601 138:0.075164601 154:0.075164601 157:0.075164601 160:0.075164601 177:0.075164601 185:0.075164601 236:0.075164601 252:0.075164601 263:0.075164601 274:0.075164601 293:0.075164601 294:0.075164601 298:0.075164601 304:0.075164601 313:0.075164601 332:0.075164601 345:0.075164601 351:0.075164601 357:0.075164601 359:0.075164601 369:0.075164601 381:0.075164601 415:0.075164601 417:0.075164601 424:0.075164601 444:0.075164601 455:0.075164601 456:0.075164601 487:0.075164601 500:0.075164601 514:0.075164601 563:0.075164601 571:0.075164601 604:0.075164601 629:0.075164601 635:0.075164601 645:0.075164601 672:0.075164601 695:0.075164601 726:0.075164601 733:0.075164601 740:0.075164601 749:0.075164601 757:0.075164601 772:0.075164601 792:0.075164601 804:0.075164601 806:0.075164601 807:0.075164601 808:0.075164601 811:0.075164601 847:0.075164601 872:0.075164601 874:0.075164601 877:0.075164601 878:0.075164601 880:0.075164601 904:0.075164601 906:0.075164601 908:0.075164601 910:0.075164601 911:0.075164601 915:0.075164601 926:0.075164601 954:0.075164601 960:0.075164601 963:0.075164601 964:0.075164601 972:0.075164601 976:0.075164601 983:0.075164601 986:0.075164601 987:0.075164601 1004:0.075164601 1011:0.075164601 1015:0.075164601 1023:0.075164601 1033:0.075164601 1046:0.075164601 1057:0.075164601 1080:0.075164601 1083:0.075164601 1098:0.075164601 1119:0.075164601 1139:0.075164601 1155:0.075164601 1168:0.075164601 1169:0.075164601 1182:0.075164601 1188:0.075164601 1190:0.075164601 1194:0.075164601 1229:0.075164601 1232:0.075164601 1243:0.075164601 1251:0.075164601 1256:0.075164601 1274:0.075164601 1291:0.075164601 1299:0.075164601 1305:0.075164601 1310:0.075164601 1321:0.075164601 1326:0.075164601 1328:0.075164601 1363:0.075164601 1377:0.075164601 1381:0.075164601 1417:0.075164601 1422:0.075164601 1448:0.075164601 1452:0.075164601 1460:0.075164601 1463:0.075164601 1464:0.075164601 1471:0.075164601 1488:0.075164601 1498:0.075164601 1506:0.075164601 1557:0.075164601 1559:0.075164601 1580:0.075164601 1581:0.075164601 1585:0.075164601 1602:0.075164601 1603:0.075164601 1608:0.075164601 1618:0.075164601 1620:0.075164601 1640:0.075164601 1663:0.075164601 1667:0.075164601 1676:0.075164601 1693:0.075164601 1711:0.075164601 1727:0.075164601 1741:0.075164601 1750:0.075164601 1753:0.075164601 1769:0.075164601 1771:0.075164601 1773:0.075164601 1825:0.075164601 1830:0.075164601 1844:0.075164601 1848:0.075164601 1851:0.075164601 1853:0.075164601 1867:0.075164601 1874:0.075164601 1877:0.075164601 1884:0.075164601 1907:0.075164601 1910:0.075164601 1919:0.075164601 1921:0.075164601 1929:0.075164601 1935:0.075164601 1938:0.075164601 1956:0.075164601 1964:0.075164601 1972:0.075164601 1988:0.075164601 1999:0.075164601 #
1 35:0.10599979 39:0.10599979 77:0.10599979 79:0.10599979 83:0.10599979 88:0.10599979 104:0.10599979 125:0.10599979 130:0.10599979 133:0.10599979 138:0.10599979 160:0.10599979 199:0.10599979 236:0.10599979 272:0.10599979 288:0.10599979 294:0.10599979 313:0.10599979 326:0.10599979 330:0.10599979 357:0.10599979 359:0.10599979 381:0.10599979 418:0.10599979 424:0.10599979 443:0.10599979 477:0.10599979 516:0.10599979 530:0.10599979 531:0.10599979 535:0.10599979 554:0.10599979 571:0.10599979 595:0.10599979 608:0.10599979 627:0.10599979 645:0.10599979 672:0.10599979 692:0.10599979 724:0.10599979 734:0.10599979 743:0.10599979 749:0.10599979 757:0.10599979 763:0.10599979 769:0.10599979 772:0.10599979 775:0.10599979 784:0.10599979 807:0.10599979 837:0.10599979 869:0.10599979 915:0.10599979 961:0.10599979 963:0.10599979 976:0.10599979 987:0.10599979 1004:0.10599979 1020:0.10599979 1172:0.10599979 1177:0.10599979 1185:0.10599979 1188:0.10599979 1222:0.10599979 1298:0.10599979 1326:0.10599979 1328:0.10599979 1417:0.10599979 1424:0.10599979 1452:0.10599979 1454:0.10599979 1464:0.10599979 1471:0.10599979 1473:0.10599979 1499:0.10599979 1548:0.10599979 1580:0.10599979 1602:0.10599979 1629:0.10599979 1636:0.10599979 1684:0.10599979 1711:0.10599979 1727:0.10599979 1741:0.10599979 1814:0.10599979 1819:0.10599979 1904:0.10599979 1910:0.10599979 1956:0.10599979 #
-1 24:0.083045483 35:0.083045483 48:0.083045483 69:0.083045483 87:0.083045483 88:0.083045483 90:0.083045483 99:0.083045483 105:0.083045483 106:0.083045483 123:0.083045483 130:0.083045483 138:0.083045483 139:0.083045483 145:0.083045483 146:0.083045483 154:0.083045483 160:0.083045483 167:0.083045483 181:0.083045483 202:0.083045483 263:0.083045483 265:0.083045483 313:0.083045483 332:0.083045483 340:0.083045483 341:0.083045483 351:0.083045483 357:0.083045483 398:0.083045483 415:0.083045483 424:0.083045483 444:0.083045483 455:0.083045483 456:0.083045483 459:0.083045483 477:0.083045483 495:0.083045483 513:0.083045483 516:0.083045483 531:0.083045483 555:0.083045483 560:0.083045483 571:0.083045483 595:0.083045483 608:0.083045483 621:0.083045483 627:0.083045483 636:0.083045483 639:0.083045483 645:0.083045483 668:0.083045483 672:0.083045483 714:0.083045483 729:0.083045483 733:0.083045483 749:0.083045483 754:0.083045483 757:0.083045483 763:0.083045483 769:0.083045483 772:0.083045483 778:0.083045483 811:0.083045483 825:0.083045483 836:0.083045483 845:0.083045483 850:0.083045483 869:0.083045483 887:0.083045483 901:0.083045483 908:0.083045483 911:0.083045483 913:0.083045483 954:0.083045483 956:0.083045483 963:0.083045483 972:0.083045483 976:0.083045483 987:0.083045483 998:0.083045483 1004:0.083045483 1005:0.083045483 1015:0.083045483 1023:0.083045483 1033:0.083045483 1045:0.083045483 1083:0.083045483 1093:0.083045483 1128:0.083045483 1165:0.083045483 1174:0.083045483 1175:0.083045483 1182:0.083045483 1191:0.083045483 1192:0.083045483 1200:0.083045483 1205:0.083045483 1220:0.083045483 1246:0.083045483 1281:0.083045483 1305:0.083045483 1311:0.083045483 1328:0.083045483 1372:0.083045483 1374:0.083045483 1381:0.083045483 1403:0.083045483 1413:0.083045483 1425:0.083045483 1439:0.083045483 1452:0.083045483 1464:0.083045483 1471:0.083045483 1477:0.083045483 1498:0.083045483 1521:0.083045483 1536:0.083045483 1557:0.083045483 1620:0.083045483 1634:0.083045483 1643:0.083045483 1645:0.083045483 1649:0.083045483 1684:0.083045483 1687:0.083045483 1727:0.083045483 1742:0.083045483 1757:0.083045483 1759:0.083045483 1773:0.083045483 1808:0.083045483 1810:0.083045483 1848:0.083045483 1849:0.083045483 1851:0.083045483 1853:0.083045483 1875:0.083045483 1876:0.083045483 1893:0.083045483 1898:0.083045483 1910:0.083045483 1927:0.083045483 1956:0.083045483 1990:0.083045483 #
-0.026020549630103133320613295609292 358:0.19611613 387:0.19611613 424:0.19611613 460:0.19611613 546:0.19611613 608:0.19611613 667:0.19611613 718:0.19611613 823:0.19611613 873:0.19611613 963:0.19611613 1087:0.19611613 1303:0.19611613 1331:0.19611613 1427:0.19611613 1463:0.19611613 1535:0.19611613 1543:0.19611613 1618:0.19611613 1670:0.19611613 1728:0.19611613 1797:0.19611613 1853:0.19611613 1920:0.19611613 1926:0.19611613 1957:0.19611613 #
-0.25209270347888357299837025493616 11:0.1 30:0.1 38:0.1 63:0.1 64:0.1 88:0.1 103:0.1 133:0.1 134:0.1 138:0.1 139:0.1 160:0.1 171:0.1 172:0.1 211:0.1 215:0.1 217:0.1 221:0.1 226:0.1 293:0.1 294:0.1 313:0.1 340:0.1 351:0.1 357:0.1 418:0.1 421:0.1 424:0.1 456:0.1 495:0.1 502:0.1 535:0.1 553:0.1 560:0.1 588:0.1 642:0.1 645:0.1 655:0.1 672:0.1 673:0.1 692:0.1 699:0.1 701:0.1 723:0.1 736:0.1 749:0.1 763:0.1 793:0.1 825:0.1 845:0.1 887:0.1 941:0.1 954:0.1 975:0.1 976:0.1 1009:0.1 1032:0.1 1052:0.1 1069:0.1 1083:0.1 1119:0.1 1130:0.1 1139:0.1 1151:0.1 1168:0.1 1178:0.1 1321:0.1 1326:0.1 1328:0.1 1386:0.1 1393:0.1 1416:0.1 1453:0.1 1464:0.1 1471:0.1 1526:0.1 1592:0.1 1597:0.1 1618:0.1 1620:0.1 1636:0.1 1711:0.1 1727:0.1 1731:0.1 1741:0.1 1742:0.1 1773:0.1 1878:0.1 1881:0.1 1886:0.1 1898:0.1 1901:0.1 1904:0.1 1907:0.1 1914:0.1 1927:0.1 1953:0.1 1956:0.1 1960:0.1 1977:0.1 #
-0.55545707820245326935548746405402 39:0.16439898 86:0.16439898 159:0.16439898 160:0.16439898 173:0.16439898 300:0.16439898 328:0.16439898 351:0.16439898 357:0.16439898 381:0.16439898 456:0.16439898 531:0.16439898 552:0.16439898 592:0.16439898 645:0.16439898 648:0.16439898 795:0.16439898 1008:0.16439898 1043:0.16439898 1057:0.16439898 1084:0.16439898 1087:0.16439898 1146:0.16439898 1201:0.16439898 1305:0.16439898 1535:0.16439898 1650:0.16439898 1670:0.16439898 1727:0.16439898 1728:0.16439898 1843:0.16439898 1853:0.16439898 1904:0.16439898 1921:0.16439898 1953:0.16439898 1974:0.16439898 1986:0.16439898 #
0.40585541213971854102027236876893 44:0.077382326 48:0.077382326 63:0.077382326 68:0.077382326 83:0.077382326 88:0.077382326 93:0.077382326 99:0.077382326 103:0.077382326 122:0.077382326 136:0.077382326 138:0.077382326 160:0.077382326 167:0.077382326 176:0.077382326 217:0.077382326 226:0.077382326 239:0.077382326 252:0.077382326 263:0.077382326 293:0.077382326 300:0.077382326 313:0.077382326 333:0.077382326 338:0.077382326 340:0.077382326 351:0.077382326 355:0.077382326 357:0.077382326 359:0.077382326 376:0.077382326 381:0.077382326 387:0.077382326 398:0.077382326 412:0.077382326 418:0.077382326 424:0.077382326 456:0.077382326 504:0.077382326 513:0.077382326 514:0.077382326 531:0.077382326 583:0.077382326 597:0.077382326 604:0.077382326 611:0.077382326 617:0.077382326 620:0.077382326 635:0.077382326 642:0.077382326 645:0.077382326 672:0.077382326 681:0.077382326 690:0.077382326 706:0.077382326 723:0.077382326 736:0.077382326 749:0.077382326 768:0.077382326 772:0.077382326 778:0.077382326 779:0.077382326 811:0.077382326 825:0.077382326 829:0.077382326 845:0.077382326 847:0.077382326 870:0.077382326 872:0.077382326 877:0.077382326 887:0.077382326 915:0.077382326 919:0.077382326 921:0.077382326 954:0.077382326 972:0.077382326 974:0.077382326 975:0.077382326 976:0.077382326 982:0.077382326 987:0.077382326 989:0.077382326 991:0.077382326 1004:0.077382326 1015:0.077382326 1016:0.077382326 1033:0.077382326 1041:0.077382326 1045:0.077382326 1046:0.077382326 1083:0.077382326 1100:0.077382326 1103:0.077382326 1106:0.077382326 1119:0.077382326 1163:0.077382326 1167:0.077382326 1190:0.077382326 1209:0.077382326 1216:0.077382326 1225:0.077382326 1227:0.077382326 1243:0.077382326 1266:0.077382326 1267:0.077382326 1271:0.077382326 1277:0.077382326 1285:0.077382326 1294:0.077382326 1305:0.077382326 1314:0.077382326 1326:0.077382326 1328:0.077382326 1331:0.077382326 1338:0.077382326 1376:0.077382326 1397:0.077382326 1413:0.077382326 1414:0.077382326 1419:0.077382326 1422:0.077382326 1445:0.077382326 1450:0.077382326 1452:0.077382326 1471:0.077382326 1479:0.077382326 1498:0.077382326 1510:0.077382326 1536:0.077382326 1585:0.077382326 1603:0.077382326 1614:0.077382326 1618:0.077382326 1620:0.077382326 1629:0.077382326 1654:0.077382326 1678:0.077382326 1680:0.077382326 1684:0.077382326 1705:0.077382326 1711:0.077382326 1727:0.077382326 1728:0.077382326 1729:0.077382326 1741:0.077382326 1742:0.077382326 1769:0.077382326 1770:0.077382326 1772:0.077382326 1783:0.077382326 1788:0.077382326 1806:0.077382326 1814:0.077382326 1831:0.077382326 1838:0.077382326 1840:0.077382326 1843:0.077382326 1848:0.077382326 1851:0.077382326 1853:0.077382326 1878:0.077382326 1887:0.077382326 1904:0.077382326 1927:0.077382326 1951:0.077382326 1987:0.077382326 2000:0.077382326 #
1 478:0.37796447 1187:0.37796447 1467:0.37796447 1535:0.37796447 1568:0.37796447 1670:0.37796447 1972:0.37796447 #
1 2:0.12403473 34:0.12403473 44:0.12403473 76:0.12403473 77:0.12403473 160:0.12403473 191:0.12403473 198:0.12403473 215:0.12403473 247:0.12403473 313:0.12403473 348:0.12403473 350:0.12403473 367:0.12403473 392:0.12403473 528:0.12403473 543:0.12403473 546:0.12403473 575:0.12403473 610:0.12403473 613:0.12403473 635:0.12403473 637:0.12403473 648:0.12403473 672:0.12403473 684:0.12403473 714:0.12403473 725:0.12403473 778:0.12403473 839:0.12403473 845:0.12403473 870:0.12403473 887:0.12403473 911:0.12403473 924:0.12403473 954:0.12403473 956:0.12403473 972:0.12403473 974:0.12403473 987:0.12403473 1015:0.12403473 1159:0.12403473 1169:0.12403473 1256:0.12403473 1305:0.12403473 1413:0.12403473 1433:0.12403473 1464:0.12403473 1483:0.12403473 1516:0.12403473 1535:0.12403473 1536:0.12403473 1539:0.12403473 1559:0.12403473 1618:0.12403473 1670:0.12403473 1753:0.12403473 1789:0.12403473 1842:0.12403473 1853:0.12403473 1898:0.12403473 1904:0.12403473 1912:0.12403473 1960:0.12403473 1976:0.12403473 #
1 99:0.19245009 160:0.19245009 167:0.19245009 169:0.19245009 192:0.19245009 241:0.19245009 256:0.19245009 313:0.19245009 546:0.19245009 705:0.19245009 825:0.19245009 845:0.19245009 961:0.19245009 1033:0.19245009 1085:0.19245009 1119:0.19245009 1321:0.19245009 1422:0.19245009 1464:0.19245009 1535:0.19245009 1600:0.19245009 1615:0.19245009 1670:0.19245009 1742:0.19245009 1765:0.19245009 1927:0.19245009 1972:0.19245009 #
0.36044398535754901269356764714757 99:0.24253562 387:0.24253562 604:0.24253562 741:0.24253562 963:0.24253562 969:0.24253562 991:0.24253562 1345:0.24253562 1397:0.24253562 1498:0.24253562 1535:0.24253562 1603:0.24253562 1670:0.24253562 1727:0.24253562 1831:0.24253562 1927:0.24253562 1972:0.24253562 #
0.83844677455172356150825407894445 160:0.24253562 313:0.24253562 359:0.24253562 402:0.24253562 477:0.24253562 546:0.24253562 833:0.24253562 888:0.24253562 1015:0.24253562 1159:0.24253562 1221:0.24253562 1445:0.24253562 1505:0.24253562 1603:0.24253562 1770:0.24253562 1903:0.24253562 1972:0.24253562 #
-0.66610743803406458063420814141864 381:0.37796447 469:0.37796447 1535:0.37796447 1603:0.37796447 1670:0.37796447 1876:0.37796447 1972:0.37796447 #
-1 84:0.31622776 93:0.31622776 1159:0.31622776 1261:0.31622776 1348:0.31622776 1535:0.31622776 1603:0.31622776 1670:0.31622776 1699:0.31622776 1972:0.31622776 #
-0.58895993168837446063434981624596 19:0.14433756 63:0.14433756 88:0.14433756 160:0.14433756 161:0.14433756 167:0.14433756 214:0.14433756 232:0.14433756 252:0.14433756 308:0.14433756 332:0.14433756 349:0.14433756 413:0.14433756 562:0.14433756 566:0.14433756 583:0.14433756 608:0.14433756 610:0.14433756 617:0.14433756 627:0.14433756 749:0.14433756 751:0.14433756 799:0.14433756 845:0.14433756 971:0.14433756 1015:0.14433756 1083:0.14433756 1148:0.14433756 1167:0.14433756 1277:0.14433756 1305:0.14433756 1328:0.14433756 1345:0.14433756 1386:0.14433756 1433:0.14433756 1438:0.14433756 1453:0.14433756 1464:0.14433756 1482:0.14433756 1514:0.14433756 1618:0.14433756 1670:0.14433756 1753:0.14433756 1831:0.14433756 1848:0.14433756 1916:0.14433756 1926:0.14433756 1988:0.14433756 #
-0.075784326575426705363547341676167 6:0.064549722 13:0.064549722 38:0.064549722 39:0.064549722 44:0.064549722 53:0.064549722 63:0.064549722 77:0.064549722 91:0.064549722 95:0.064549722 117:0.064549722 123:0.064549722 133:0.064549722 136:0.064549722 138:0.064549722 139:0.064549722 160:0.064549722 161:0.064549722 165:0.064549722 166:0.064549722 176:0.064549722 208:0.064549722 211:0.064549722 222:0.064549722 233:0.064549722 246:0.064549722 263:0.064549722 265:0.064549722 272:0.064549722 274:0.064549722 298:0.064549722 321:0.064549722 326:0.064549722 328:0.064549722 334:0.064549722 340:0.064549722 351:0.064549722 357:0.064549722 359:0.064549722 361:0.064549722 381:0.064549722 382:0.064549722 398:0.064549722 413:0.064549722 418:0.064549722 424:0.064549722 443:0.064549722 444:0.064549722 456:0.064549722 465:0.064549722 468:0.064549722 470:0.064549722 477:0.064549722 504:0.064549722 536:0.064549722 539:0.064549722 543:0.064549722 557:0.064549722 559:0.064549722 577:0.064549722 585:0.064549722 601:0.064549722 608:0.064549722 614:0.064549722 625:0.064549722 635:0.064549722 645:0.064549722 672:0.064549722 673:0.064549722 675:0.064549722 677:0.064549722 709:0.064549722 725:0.064549722 727:0.064549722 732:0.064549722 741:0.064549722 746:0.064549722 749:0.064549722 763:0.064549722 769:0.064549722 772:0.064549722 807:0.064549722 808:0.064549722 823:0.064549722 830:0.064549722 837:0.064549722 845:0.064549722 847:0.064549722 851:0.064549722 854:0.064549722 869:0.064549722 870:0.064549722 872:0.064549722 884:0.064549722 899:0.064549722 904:0.064549722 915:0.064549722 921:0.064549722 925:0.064549722 954:0.064549722 963:0.064549722 969:0.064549722 972:0.064549722 976:0.064549722 986:0.064549722 987:0.064549722 993:0.064549722 1004:0.064549722 1006:0.064549722 1009:0.064549722 1015:0.064549722 1033:0.064549722 1048:0.064549722 1052:0.064549722 1057:0.064549722 1070:0.064549722 1078:0.064549722 1083:0.064549722 1106:0.064549722 1119:0.064549722 1128:0.064549722 1131:0.064549722 1137:0.064549722 1141:0.064549722 1152:0.064549722 1155:0.064549722 1159:0.064549722 1169:0.064549722 1178:0.064549722 1183:0.064549722 1188:0.064549722 1198:0.064549722 1201:0.064549722 1214:0.064549722 1231:0.064549722 1251:0.064549722 1261:0.064549722 1263:0.064549722 1267:0.064549722 1281:0.064549722 1285:0.064549722 1303:0.064549722 1305:0.064549722 1310:0.064549722 1314:0.064549722 1318:0.064549722 1328:0.064549722 1329:0.064549722 1335:0.064549722 1336:0.064549722 1338:0.064549722 1357:0.064549722 1381:0.064549722 1393:0.064549722 1394:0.064549722 1403:0.064549722 1452:0.064549722 1453:0.064549722 1455:0.064549722 1460:0.064549722 1464:0.064549722 1471:0.064549722 1476:0.064549722 1477:0.064549722 1488:0.064549722 1498:0.064549722 1499:0.064549722 1504:0.064549722 1506:0.064549722 1526:0.064549722 1535:0.064549722 1542:0.064549722 1545:0.064549722 1546:0.064549722 1548:0.064549722 1567:0.064549722 1571:0.064549722 1580:0.064549722 1581:0.064549722 1582:0.064549722 1594:0.064549722 1602:0.064549722 1605:0.064549722 1610:0.064549722 1618:0.064549722 1619:0.064549722 1624:0.064549722 1656:0.064549722 1670:0.064549722 1673:0.064549722 1679:0.064549722 1684:0.064549722 1693:0.064549722 1707:0.064549722 1711:0.064549722 1721:0.064549722 1727:0.064549722 1735:0.064549722 1736:0.064549722 1737:0.064549722 1741:0.064549722 1742:0.064549722 1750:0.064549722 1752:0.064549722 1763:0.064549722 1765:0.064549722 1785:0.064549722 1816:0.064549722 1819:0.064549722 1822:0.064549722 1825:0.064549722 1829:0.064549722 1836:0.064549722 1840:0.064549722 1848:0.064549722 1851:0.064549722 1853:0.064549722 1863:0.064549722 1864:0.064549722 1865:0.064549722 1868:0.064549722 1869:0.064549722 1876:0.064549722 1877:0.064549722 1880:0.064549722 1885:0.064549722 1892:0.064549722 1898:0.064549722 1904:0.064549722 1921:0.064549722 1927:0.064549722 1928:0.064549722 1953:0.064549722 1956:0.064549722 1960:0.064549722 1962:0.064549722 1968:0.064549722 1987:0.064549722 1988:0.064549722 1997:0.064549722 #
-0.44163654802043533775801620322454 38:0.33333334 52:0.33333334 160:0.33333334 164:0.33333334 546:0.33333334 806:0.33333334 1326:0.33333334 1535:0.33333334 1670:0.33333334 #
0.97699056734192635254032666125568 1:0.10369517 22:0.10369517 52:0.10369517 77:0.10369517 88:0.10369517 115:0.10369517 160:0.10369517 196:0.10369517 227:0.10369517 241:0.10369517 263:0.10369517 266:0.10369517 267:0.10369517 288:0.10369517 293:0.10369517 294:0.10369517 313:0.10369517 328:0.10369517 329:0.10369517 351:0.10369517 357:0.10369517 381:0.10369517 393:0.10369517 415:0.10369517 416:0.10369517 417:0.10369517 418:0.10369517 424:0.10369517 431:0.10369517 456:0.10369517 510:0.10369517 525:0.10369517 536:0.10369517 617:0.10369517 672:0.10369517 714:0.10369517 736:0.10369517 747:0.10369517 749:0.10369517 763:0.10369517 765:0.10369517 769:0.10369517 771:0.10369517 811:0.10369517 828:0.10369517 836:0.10369517 837:0.10369517 904:0.10369517 908:0.10369517 909:0.10369517 932:0.10369517 954:0.10369517 972:0.10369517 987:0.10369517 1004:0.10369517 1015:0.10369517 1033:0.10369517 1083:0.10369517 1123:0.10369517 1149:0.10369517 1189:0.10369517 1201:0.10369517 1202:0.10369517 1238:0.10369517 1266:0.10369517 1311:0.10369517 1316:0.10369517 1339:0.10369517 1358:0.10369517 1374:0.10369517 1386:0.10369517 1400:0.10369517 1404:0.10369517 1445:0.10369517 1458:0.10369517 1477:0.10369517 1595:0.10369517 1605:0.10369517 1618:0.10369517 1685:0.10369517 1727:0.10369517 1737:0.10369517 1741:0.10369517 1794:0.10369517 1814:0.10369517 1831:0.10369517 1853:0.10369517 1875:0.10369517 1925:0.10369517 1927:0.10369517 1929:0.10369517 1954:0.10369517 1956:0.10369517 #
0.19592001914760864833553455355286 7:0.10314213 61:0.10314213 77:0.10314213 83:0.10314213 88:0.10314213 123:0.10314213 139:0.10314213 160:0.10314213 175:0.10314213 185:0.10314213 243:0.10314213 249:0.10314213 263:0.10314213 266:0.10314213 273:0.10314213 340:0.10314213 351:0.10314213 357:0.10314213 359:0.10314213 379:0.10314213 381:0.10314213 398:0.10314213 413:0.10314213 415:0.10314213 424:0.10314213 438:0.10314213 443:0.10314213 459:0.10314213 469:0.10314213 473:0.10314213 482:0.10314213 504:0.10314213 532:0.10314213 546:0.10314213 608:0.10314213 668:0.10314213 672:0.10314213 687:0.10314213 688:0.10314213 699:0.10314213 705:0.10314213 749:0.10314213 772:0.10314213 806:0.10314213 823:0.10314213 836:0.10314213 846:0.10314213 863:0.10314213 922:0.10314213 929:0.10314213 954:0.10314213 964:0.10314213 972:0.10314213 976:0.10314213 979:0.10314213 986:0.10314213 987:0.10314213 1015:0.10314213 1031:0.10314213 1033:0.10314213 1080:0.10314213 1100:0.10314213 1175:0.10314213 1198:0.10314213 1321:0.10314213 1326:0.10314213 1328:0.10314213 1329:0.10314213 1345:0.10314213 1357:0.10314213 1381:0.10314213 1383:0.10314213 1384:0.10314213 1448:0.10314213 1452:0.10314213 1477:0.10314213 1495:0.10314213 1535:0.10314213 1559:0.10314213 1618:0.10314213 1620:0.10314213 1640:0.10314213 1643:0.10314213 1646:0.10314213 1687:0.10314213 1727:0.10314213 1729:0.10314213 1731:0.10314213 1773:0.10314213 1817:0.10314213 1829:0.10314213 1853:0.10314213 1876:0.10314213 1962:0.10314213 #
1 5:0.080064073 22:0.080064073 30:0.080064073 40:0.080064073 52:0.080064073 53:0.080064073 63:0.080064073 77:0.080064073 88:0.080064073 90:0.080064073 92:0.080064073 93:0.080064073 95:0.080064073 103:0.080064073 116:0.080064073 122:0.080064073 125:0.080064073 130:0.080064073 133:0.080064073 134:0.080064073 138:0.080064073 139:0.080064073 160:0.080064073 177:0.080064073 185:0.080064073 202:0.080064073 234:0.080064073 241:0.080064073 263:0.080064073 286:0.080064073 287:0.080064073 299:0.080064073 301:0.080064073 313:0.080064073 326:0.080064073 340:0.080064073 343:0.080064073 351:0.080064073 357:0.080064073 392:0.080064073 398:0.080064073 418:0.080064073 424:0.080064073 425:0.080064073 438:0.080064073 455:0.080064073 456:0.080064073 459:0.080064073 467:0.080064073 477:0.080064073 531:0.080064073 543:0.080064073 549:0.080064073 561:0.080064073 563:0.080064073 583:0.080064073 608:0.080064073 645:0.080064073 651:0.080064073 655:0.080064073 672:0.080064073 717:0.080064073 722:0.080064073 726:0.080064073 749:0.080064073 757:0.080064073 762:0.080064073 763:0.080064073 769:0.080064073 775:0.080064073 784:0.080064073 807:0.080064073 819:0.080064073 845:0.080064073 847:0.080064073 881:0.080064073 904:0.080064073 919:0.080064073 954:0.080064073 963:0.080064073 975:0.080064073 987:0.080064073 1004:0.080064073 1015:0.080064073 1065:0.080064073 1101:0.080064073 1106:0.080064073 1112:0.080064073 1118:0.080064073 1119:0.080064073 1134:0.080064073 1149:0.080064073 1154:0.080064073 1168:0.080064073 1169:0.080064073 1178:0.080064073 1182:0.080064073 1188:0.080064073 1190:0.080064073 1200:0.080064073 1215:0.080064073 1247:0.080064073 1252:0.080064073 1303:0.080064073 1305:0.080064073 1311:0.080064073 1326:0.080064073 1328:0.080064073 1390:0.080064073 1400:0.080064073 1434:0.080064073 1446:0.080064073 1452:0.080064073 1453:0.080064073 1460:0.080064073 1463:0.080064073 1464:0.080064073 1479:0.080064073 1495:0.080064073 1498:0.080064073 1504:0.080064073 1526:0.080064073 1542:0.080064073 1543:0.080064073 1548:0.080064073 1585:0.080064073 1594:0.080064073 1606:0.080064073 1618:0.080064073 1620:0.080064073 1684:0.080064073 1693:0.080064073 1705:0.080064073 1711:0.080064073 1716:0.080064073 1727:0.080064073 1735:0.080064073 1737:0.080064073 1741:0.080064073 1745:0.080064073 1765:0.080064073 1767:0.080064073 1807:0.080064073 1809:0.080064073 1831:0.080064073 1848:0.080064073 1851:0.080064073 1853:0.080064073 1877:0.080064073 1898:0.080064073 1908:0.080064073 1927:0.080064073 1928:0.080064073 1953:0.080064073 1956:0.080064073 1988:0.080064073 #
-0.16806856045619633643894985652878 20:0.09853293 30:0.09853293 75:0.09853293 88:0.09853293 93:0.09853293 103:0.09853293 123:0.09853293 129:0.09853293 138:0.09853293 145:0.09853293 158:0.09853293 160:0.09853293 192:0.09853293 229:0.09853293 288:0.09853293 326:0.09853293 328:0.09853293 332:0.09853293 340:0.09853293 351:0.09853293 376:0.09853293 420:0.09853293 424:0.09853293 455:0.09853293 456:0.09853293 468:0.09853293 504:0.09853293 590:0.09853293 605:0.09853293 608:0.09853293 643:0.09853293 672:0.09853293 725:0.09853293 726:0.09853293 729:0.09853293 749:0.09853293 750:0.09853293 757:0.09853293 763:0.09853293 786:0.09853293 851:0.09853293 861:0.09853293 865:0.09853293 873:0.09853293 887:0.09853293 938:0.09853293 951:0.09853293 961:0.09853293 963:0.09853293 968:0.09853293 972:0.09853293 974:0.09853293 997:0.09853293 1004:0.09853293 1015:0.09853293 1018:0.09853293 1033:0.09853293 1065:0.09853293 1090:0.09853293 1113:0.09853293 1120:0.09853293 1128:0.09853293 1168:0.09853293 1188:0.09853293 1201:0.09853293 1214:0.09853293 1226:0.09853293 1233:0.09853293 1261:0.09853293 1264:0.09853293 1368:0.09853293 1369:0.09853293 1433:0.09853293 1442:0.09853293 1452:0.09853293 1460:0.09853293 1463:0.09853293 1464:0.09853293 1471:0.09853293 1477:0.09853293 1482:0.09853293 1498:0.09853293 1526:0.09853293 1535:0.09853293 1574:0.09853293 1581:0.09853293 1618:0.09853293 1660:0.09853293 1741:0.09853293 1742:0.09853293 1765:0.09853293 1785:0.09853293 1787:0.09853293 1789:0.09853293 1843:0.09853293 1853:0.09853293 1877:0.09853293 1910:0.09853293 1927:0.09853293 1956:0.09853293 1962:0.09853293 1963:0.09853293 1995:0.09853293 #
0.47236018468745422094201558138593 22:0.10721125 40:0.10721125 53:0.10721125 63:0.10721125 88:0.10721125 91:0.10721125 130:0.10721125 138:0.10721125 160:0.10721125 177:0.10721125 202:0.10721125 211:0.10721125 252:0.10721125 277:0.10721125 313:0.10721125 327:0.10721125 351:0.10721125 390:0.10721125 398:0.10721125 411:0.10721125 424:0.10721125 444:0.10721125 455:0.10721125 456:0.10721125 475:0.10721125 477:0.10721125 514:0.10721125 546:0.10721125 569:0.10721125 580:0.10721125 608:0.10721125 612:0.10721125 627:0.10721125 639:0.10721125 645:0.10721125 647:0.10721125 655:0.10721125 672:0.10721125 677:0.10721125 706:0.10721125 749:0.10721125 757:0.10721125 763:0.10721125 871:0.10721125 872:0.10721125 910:0.10721125 913:0.10721125 954:0.10721125 963:0.10721125 1004:0.10721125 1015:0.10721125 1033:0.10721125 1057:0.10721125 1083:0.10721125 1149:0.10721125 1159:0.10721125 1169:0.10721125 1190:0.10721125 1194:0.10721125 1216:0.10721125 1263:0.10721125 1305:0.10721125 1461:0.10721125 1469:0.10721125 1477:0.10721125 1505:0.10721125 1535:0.10721125 1553:0.10721125 1557:0.10721125 1603:0.10721125 1620:0.10721125 1659:0.10721125 1684:0.10721125 1717:0.10721125 1727:0.10721125 1735:0.10721125 1737:0.10721125 1791:0.10721125 1823:0.10721125 1843:0.10721125 1844:0.10721125 1848:0.10721125 1853:0.10721125 1927:0.10721125 1949:0.10721125 1956:0.10721125 1962:0.10721125 #
-1 5:0.093658581 30:0.093658581 39:0.093658581 50:0.093658581 53:0.093658581 77:0.093658581 88:0.093658581 103:0.093658581 122:0.093658581 132:0.093658581 137:0.093658581 139:0.093658581 160:0.093658581 161:0.093658581 167:0.093658581 178:0.093658581 185:0.093658581 207:0.093658581 218:0.093658581 232:0.093658581 258:0.093658581 263:0.093658581 285:0.093658581 313:0.093658581 326:0.093658581 327:0.093658581 351:0.093658581 357:0.093658581 398:0.093658581 424:0.093658581 431:0.093658581 434:0.093658581 443:0.093658581 456:0.093658581 491:0.093658581 495:0.093658581 504:0.093658581 562:0.093658581 600:0.093658581 608:0.093658581 635:0.093658581 645:0.093658581 651:0.093658581 655:0.093658581 672:0.093658581 726:0.093658581 727:0.093658581 749:0.093658581 751:0.093658581 757:0.093658581 759:0.093658581 795:0.093658581 807:0.093658581 810:0.093658581 811:0.093658581 825:0.093658581 837:0.093658581 845:0.093658581 859:0.093658581 897:0.093658581 950:0.093658581 954:0.093658581 972:0.093658581 976:0.093658581 987:0.093658581 998:0.093658581 1004:0.093658581 1015:0.093658581 1033:0.093658581 1060:0.093658581 1063:0.093658581 1080:0.093658581 1083:0.093658581 1119:0.093658581 1164:0.093658581 1175:0.093658581 1235:0.093658581 1282:0.093658581 1303:0.093658581 1305:0.093658581 1308:0.093658581 1328:0.093658581 1396:0.093658581 1438:0.093658581 1448:0.093658581 1452:0.093658581 1498:0.093658581 1569:0.093658581 1598:0.093658581 1605:0.093658581 1606:0.093658581 1618:0.093658581 1620:0.093658581 1640:0.093658581 1646:0.093658581 1670:0.093658581 1684:0.093658581 1727:0.093658581 1737:0.093658581 1748:0.093658581 1791:0.093658581 1806:0.093658581 1815:0.093658581 1831:0.093658581 1848:0.093658581 1853:0.093658581 1875:0.093658581 1877:0.093658581 1904:0.093658581 1927:0.093658581 1929:0.093658581 1953:0.093658581 1956:0.093658581 1962:0.093658581 #
-1 21:0.10369517 33:0.10369517 53:0.10369517 83:0.10369517 111:0.10369517 138:0.10369517 149:0.10369517 160:0.10369517 215:0.10369517 263:0.10369517 287:0.10369517 294:0.10369517 309:0.10369517 313:0.10369517 340:0.10369517 349:0.10369517 351:0.10369517 353:0.10369517 357:0.10369517 359:0.10369517 380:0.10369517 398:0.10369517 424:0.10369517 432:0.10369517 456:0.10369517 530:0.10369517 546:0.10369517 556:0.10369517 568:0.10369517 596:0.10369517 627:0.10369517 639:0.10369517 645:0.10369517 655:0.10369517 672:0.10369517 711:0.10369517 725:0.10369517 749:0.10369517 763:0.10369517 772:0.10369517 781:0.10369517 784:0.10369517 825:0.10369517 845:0.10369517 846:0.10369517 847:0.10369517 879:0.10369517 887:0.10369517 954:0.10369517 963:0.10369517 971:0.10369517 987:0.10369517 1004:0.10369517 1009:0.10369517 1015:0.10369517 1033:0.10369517 1059:0.10369517 1083:0.10369517 1124:0.10369517 1165:0.10369517 1168:0.10369517 1169:0.10369517 1190:0.10369517 1215:0.10369517 1230:0.10369517 1251:0.10369517 1260:0.10369517 1263:0.10369517 1281:0.10369517 1305:0.10369517 1310:0.10369517 1345:0.10369517 1381:0.10369517 1453:0.10369517 1464:0.10369517 1516:0.10369517 1535:0.10369517 1602:0.10369517 1605:0.10369517 1620:0.10369517 1727:0.10369517 1737:0.10369517 1799:0.10369517 1818:0.10369517 1853:0.10369517 1898:0.10369517 1904:0.10369517 1921:0.10369517 1927:0.10369517 1954:0.10369517 1956:0.10369517 1960:0.10369517 1985:0.10369517 #
-0.23248438776456853416263470535341 8:0.10369517 11:0.10369517 72:0.10369517 77:0.10369517 86:0.10369517 88:0.10369517 91:0.10369517 122:0.10369517 134:0.10369517 141:0.10369517 160:0.10369517 177:0.10369517 263:0.10369517 313:0.10369517 326:0.10369517 328:0.10369517 351:0.10369517 357:0.10369517 422:0.10369517 424:0.10369517 487:0.10369517 572:0.10369517 608:0.10369517 629:0.10369517 672:0.10369517 694:0.10369517 749:0.10369517 757:0.10369517 766:0.10369517 772:0.10369517 792:0.10369517 811:0.10369517 838:0.10369517 845:0.10369517 846:0.10369517 850:0.10369517 872:0.10369517 927:0.10369517 954:0.10369517 963:0.10369517 972:0.10369517 976:0.10369517 982:0.10369517 987:0.10369517 988:0.10369517 1004:0.10369517 1015:0.10369517 1032:0.10369517 1033:0.10369517 1043:0.10369517 1087:0.10369517 1102:0.10369517 1114:0.10369517 1169:0.10369517 1190:0.10369517 1203:0.10369517 1224:0.10369517 1230:0.10369517 1251:0.10369517 1285:0.10369517 1301:0.10369517 1305:0.10369517 1328:0.10369517 1353:0.10369517 1452:0.10369517 1460:0.10369517 1463:0.10369517 1464:0.10369517 1465:0.10369517 1469:0.10369517 1487:0.10369517 1505:0.10369517 1528:0.10369517 1535:0.10369517 1586:0.10369517 1602:0.10369517 1684:0.10369517 1711:0.10369517 1727:0.10369517 1822:0.10369517 1830:0.10369517 1845:0.10369517 1848:0.10369517 1851:0.10369517 1853:0.10369517 1877:0.10369517 1891:0.10369517 1927:0.10369517 1928:0.10369517 1948:0.10369517 1953:0.10369517 1956:0.10369517 1966:0.10369517 #
-0.8580901833801558575842705067771 30:0.11043153 58:0.11043153 63:0.11043153 77:0.11043153 79:0.11043153 98:0.11043153 99:0.11043153 130:0.11043153 134:0.11043153 136:0.11043153 138:0.11043153 145:0.11043153 160:0.11043153 190:0.11043153 196:0.11043153 205:0.11043153 263:0.11043153 272:0.11043153 293:0.11043153 313:0.11043153 415:0.11043153 424:0.11043153 456:0.11043153 477:0.11043153 505:0.11043153 525:0.11043153 639:0.11043153 645:0.11043153 665:0.11043153 672:0.11043153 721:0.11043153 749:0.11043153 769:0.11043153 772:0.11043153 811:0.11043153 829:0.11043153 845:0.11043153 869:0.11043153 920:0.11043153 925:0.11043153 954:0.11043153 961:0.11043153 963:0.11043153 1015:0.11043153 1043:0.11043153 1069:0.11043153 1094:0.11043153 1169:0.11043153 1172:0.11043153 1265:0.11043153 1267:0.11043153 1305:0.11043153 1328:0.11043153 1353:0.11043153 1396:0.11043153 1398:0.11043153 1403:0.11043153 1422:0.11043153 1433:0.11043153 1452:0.11043153 1453:0.11043153 1535:0.11043153 1571:0.11043153 1582:0.11043153 1618:0.11043153 1629:0.11043153 1646:0.11043153 1665:0.11043153 1710:0.11043153 1727:0.11043153 1728:0.11043153 1770:0.11043153 1786:0.11043153 1844:0.11043153 1848:0.11043153 1853:0.11043153 1887:0.11043153 1904:0.11043153 1927:0.11043153 1956:0.11043153 1966:0.11043153 1987:0.11043153 #
-1 3:0.11547005 88:0.11547005 138:0.11547005 139:0.11547005 160:0.11547005 185:0.11547005 217:0.11547005 294:0.11547005 309:0.11547005 313:0.11547005 315:0.11547005 326:0.11547005 351:0.11547005 361:0.11547005 424:0.11547005 431:0.11547005 444:0.11547005 448:0.11547005 451:0.11547005 456:0.11547005 473:0.11547005 504:0.11547005 509:0.11547005 531:0.11547005 539:0.11547005 546:0.11547005 614:0.11547005 623:0.11547005 673:0.11547005 709:0.11547005 722:0.11547005 749:0.11547005 810:0.11547005 811:0.11547005 823:0.11547005 837:0.11547005 869:0.11547005 877:0.11547005 954:0.11547005 963:0.11547005 976:0.11547005 987:0.11547005 1033:0.11547005 1083:0.11547005 1085:0.11547005 1155:0.11547005 1164:0.11547005 1168:0.11547005 1182:0.11547005 1187:0.11547005 1190:0.11547005 1305:0.11547005 1315:0.11547005 1328:0.11547005 1344:0.11547005 1438:0.11547005 1453:0.11547005 1464:0.11547005 1606:0.11547005 1618:0.11547005 1620:0.11547005 1676:0.11547005 1684:0.11547005 1727:0.11547005 1742:0.11547005 1765:0.11547005 1775:0.11547005 1848:0.11547005 1867:0.11547005 1934:0.11547005 1953:0.11547005 1956:0.11547005 1960:0.11547005 1970:0.11547005 1974:0.11547005 #
1 26:0.16439898 88:0.16439898 137:0.16439898 218:0.16439898 274:0.16439898 351:0.16439898 387:0.16439898 473:0.16439898 546:0.16439898 711:0.16439898 726:0.16439898 732:0.16439898 749:0.16439898 784:0.16439898 972:0.16439898 1057:0.16439898 1203:0.16439898 1205:0.16439898 1268:0.16439898 1339:0.16439898 1422:0.16439898 1464:0.16439898 1482:0.16439898 1535:0.16439898 1630:0.16439898 1639:0.16439898 1670:0.16439898 1708:0.16439898 1727:0.16439898 1741:0.16439898 1831:0.16439898 1851:0.16439898 1904:0.16439898 1921:0.16439898 1932:0.16439898 1956:0.16439898 1972:0.16439898 #
1 263:0.28867513 351:0.28867513 396:0.28867513 405:0.28867513 954:0.28867513 987:0.28867513 1535:0.28867513 1670:0.28867513 1685:0.28867513 1792:0.28867513 1842:0.28867513 1972:0.28867513 #
1 7:0.30151135 424:0.30151135 428:0.30151135 796:0.30151135 847:0.30151135 873:0.30151135 1064:0.30151135 1190:0.30151135 1515:0.30151135 1535:0.30151135 1915:0.30151135 #
1 2:0.17677669 7:0.17677669 38:0.17677669 76:0.17677669 123:0.17677669 160:0.17677669 191:0.17677669 241:0.17677669 519:0.17677669 531:0.17677669 551:0.17677669 684:0.17677669 829:0.17677669 954:0.17677669 963:0.17677669 1009:0.17677669 1107:0.17677669 1175:0.17677669 1188:0.17677669 1220:0.17677669 1326:0.17677669 1331:0.17677669 1354:0.17677669 1464:0.17677669 1535:0.17677669 1571:0.17677669 1670:0.17677669 1684:0.17677669 1710:0.17677669 1920:0.17677669 1951:0.17677669 1960:0.17677669 #
-0.59056496610412445580351459284429 27:0.14744195 123:0.14744195 133:0.14744195 136:0.14744195 253:0.14744195 266:0.14744195 272:0.14744195 351:0.14744195 357:0.14744195 372:0.14744195 465:0.14744195 472:0.14744195 547:0.14744195 651:0.14744195 665:0.14744195 673:0.14744195 790:0.14744195 808:0.14744195 838:0.14744195 879:0.14744195 954:0.14744195 963:0.14744195 972:0.14744195 974:0.14744195 987:0.14744195 1097:0.14744195 1245:0.14744195 1317:0.14744195 1320:0.14744195 1445:0.14744195 1522:0.14744195 1535:0.14744195 1602:0.14744195 1603:0.14744195 1659:0.14744195 1707:0.14744195 1741:0.14744195 1744:0.14744195 1750:0.14744195 1789:0.14744195 1822:0.14744195 1848:0.14744195 1926:0.14744195 1937:0.14744195 1962:0.14744195 1972:0.14744195 #
-0.081864552739326870711700223637308 77:0.19611613 351:0.19611613 357:0.19611613 387:0.19611613 546:0.19611613 584:0.19611613 678:0.19611613 700:0.19611613 954:0.19611613 963:0.19611613 1015:0.19611613 1331:0.19611613 1452:0.19611613 1535:0.19611613 1580:0.19611613 1630:0.19611613 1669:0.19611613 1727:0.19611613 1738:0.19611613 1815:0.19611613 1844:0.19611613 1851:0.19611613 1898:0.19611613 1904:0.19611613 1927:0.19611613 1934:0.19611613 #
-1 83:0.13018891 99:0.13018891 130:0.13018891 161:0.13018891 167:0.13018891 202:0.13018891 246:0.13018891 280:0.13018891 332:0.13018891 351:0.13018891 381:0.13018891 387:0.13018891 424:0.13018891 456:0.13018891 705:0.13018891 711:0.13018891 726:0.13018891 729:0.13018891 741:0.13018891 749:0.13018891 765:0.13018891 771:0.13018891 772:0.13018891 781:0.13018891 807:0.13018891 811:0.13018891 823:0.13018891 837:0.13018891 873:0.13018891 954:0.13018891 955:0.13018891 963:0.13018891 987:0.13018891 1015:0.13018891 1167:0.13018891 1168:0.13018891 1178:0.13018891 1190:0.13018891 1266:0.13018891 1269:0.13018891 1270:0.13018891 1421:0.13018891 1464:0.13018891 1483:0.13018891 1498:0.13018891 1535:0.13018891 1582:0.13018891 1603:0.13018891 1630:0.13018891 1670:0.13018891 1704:0.13018891 1762:0.13018891 1844:0.13018891 1887:0.13018891 1898:0.13018891 1921:0.13018891 1956:0.13018891 1972:0.13018891 1988:0.13018891 #
-1 139:0.25819889 160:0.25819889 294:0.25819889 351:0.25819889 398:0.25819889 444:0.25819889 778:0.25819889 920:0.25819889 954:0.25819889 1080:0.25819889 1159:0.25819889 1244:0.25819889 1535:0.25819889 1851:0.25819889 1875:0.25819889 #
-0.37463835756014685074433145928197 77:0.15430336 91:0.15430336 94:0.15430336 160:0.15430336 241:0.15430336 249:0.15430336 263:0.15430336 342:0.15430336 351:0.15430336 387:0.15430336 424:0.15430336 482:0.15430336 608:0.15430336 663:0.15430336 700:0.15430336 736:0.15430336 823:0.15430336 852:0.15430336 873:0.15430336 878:0.15430336 1007:0.15430336 1023:0.15430336 1051:0.15430336 1106:0.15430336 1321:0.15430336 1354:0.15430336 1357:0.15430336 1400:0.15430336 1427:0.15430336 1477:0.15430336 1478:0.15430336 1498:0.15430336 1515:0.15430336 1530:0.15430336 1535:0.15430336 1602:0.15430336 1644:0.15430336 1670:0.15430336 1727:0.15430336 1737:0.15430336 1802:0.15430336 1848:0.15430336 #
1 14:0.10721125 53:0.10721125 69:0.10721125 77:0.10721125 83:0.10721125 91:0.10721125 93:0.10721125 99:0.10721125 103:0.10721125 123:0.10721125 138:0.10721125 139:0.10721125 160:0.10721125 204:0.10721125 263:0.10721125 313:0.10721125 351:0.10721125 352:0.10721125 357:0.10721125 390:0.10721125 413:0.10721125 424:0.10721125 434:0.10721125 475:0.10721125 531:0.10721125 612:0.10721125 626:0.10721125 645:0.10721125 655:0.10721125 698:0.10721125 705:0.10721125 726:0.10721125 749:0.10721125 811:0.10721125 819:0.10721125 825:0.10721125 836:0.10721125 845:0.10721125 850:0.10721125 880:0.10721125 882:0.10721125 935:0.10721125 948:0.10721125 954:0.10721125 972:0.10721125 976:0.10721125 1015:0.10721125 1033:0.10721125 1070:0.10721125 1083:0.10721125 1169:0.10721125 1178:0.10721125 1188:0.10721125 1267:0.10721125 1294:0.10721125 1305:0.10721125 1310:0.10721125 1328:0.10721125 1331:0.10721125 1345:0.10721125 1353:0.10721125 1382:0.10721125 1394:0.10721125 1421:0.10721125 1452:0.10721125 1464:0.10721125 1498:0.10721125 1535:0.10721125 1545:0.10721125 1606:0.10721125 1618:0.10721125 1620:0.10721125 1670:0.10721125 1684:0.10721125 1727:0.10721125 1728:0.10721125 1758:0.10721125 1759:0.10721125 1765:0.10721125 1843:0.10721125 1853:0.10721125 1898:0.10721125 1904:0.10721125 1927:0.10721125 1952:0.10721125 1988:0.10721125 1993:0.10721125 #
1 30:0.12309149 61:0.12309149 91:0.12309149 105:0.12309149 130:0.12309149 138:0.12309149 139:0.12309149 160:0.12309149 182:0.12309149 243:0.12309149 249:0.12309149 267:0.12309149 286:0.12309149 287:0.12309149 357:0.12309149 418:0.12309149 456:0.12309149 458:0.12309149 469:0.12309149 482:0.12309149 546:0.12309149 595:0.12309149 655:0.12309149 672:0.12309149 705:0.12309149 706:0.12309149 744:0.12309149 811:0.12309149 828:0.12309149 872:0.12309149 879:0.12309149 922:0.12309149 927:0.12309149 954:0.12309149 963:0.12309149 976:0.12309149 987:0.12309149 1015:0.12309149 1033:0.12309149 1103:0.12309149 1165:0.12309149 1178:0.12309149 1285:0.12309149 1305:0.12309149 1321:0.12309149 1328:0.12309149 1384:0.12309149 1460:0.12309149 1535:0.12309149 1557:0.12309149 1602:0.12309149 1701:0.12309149 1712:0.12309149 1742:0.12309149 1748:0.12309149 1767:0.12309149 1787:0.12309149 1822:0.12309149 1829:0.12309149 1876:0.12309149 1877:0.12309149 1878:0.12309149 1880:0.12309149 1904:0.12309149 1927:0.12309149 1987:0.12309149 #
1 67:0.10369517 88:0.10369517 104:0.10369517 106:0.10369517 122:0.10369517 130:0.10369517 145:0.10369517 160:0.10369517 162:0.10369517 246:0.10369517 251:0.10369517 255:0.10369517 258:0.10369517 263:0.10369517 313:0.10369517 315:0.10369517 321:0.10369517 326:0.10369517 351:0.10369517 381:0.10369517 398:0.10369517 424:0.10369517 456:0.10369517 469:0.10369517 477:0.10369517 544:0.10369517 546:0.10369517 552:0.10369517 564:0.10369517 627:0.10369517 658:0.10369517 672:0.10369517 729:0.10369517 749:0.10369517 771:0.10369517 808:0.10369517 811:0.10369517 825:0.10369517 837:0.10369517 845:0.10369517 849:0.10369517 954:0.10369517 963:0.10369517 972:0.10369517 976:0.10369517 987:0.10369517 1004:0.10369517 1015:0.10369517 1033:0.10369517 1036:0.10369517 1048:0.10369517 1056:0.10369517 1083:0.10369517 1090:0.10369517 1095:0.10369517 1123:0.10369517 1169:0.10369517 1178:0.10369517 1190:0.10369517 1227:0.10369517 1254:0.10369517 1305:0.10369517 1322:0.10369517 1353:0.10369517 1381:0.10369517 1386:0.10369517 1453:0.10369517 1464:0.10369517 1471:0.10369517 1477:0.10369517 1478:0.10369517 1535:0.10369517 1603:0.10369517 1618:0.10369517 1684:0.10369517 1693:0.10369517 1705:0.10369517 1727:0.10369517 1742:0.10369517 1785:0.10369517 1797:0.10369517 1819:0.10369517 1827:0.10369517 1848:0.10369517 1875:0.10369517 1876:0.10369517 1878:0.10369517 1898:0.10369517 1921:0.10369517 1927:0.10369517 1952:0.10369517 1953:0.10369517 1956:0.10369517 #
1 13:0.10050378 39:0.10050378 50:0.10050378 61:0.10050378 77:0.10050378 83:0.10050378 84:0.10050378 88:0.10050378 139:0.10050378 160:0.10050378 161:0.10050378 219:0.10050378 267:0.10050378 326:0.10050378 340:0.10050378 346:0.10050378 351:0.10050378 381:0.10050378 418:0.10050378 424:0.10050378 469:0.10050378 477:0.10050378 500:0.10050378 546:0.10050378 608:0.10050378 617:0.10050378 645:0.10050378 651:0.10050378 657:0.10050378 668:0.10050378 672:0.10050378 695:0.10050378 705:0.10050378 714:0.10050378 749:0.10050378 771:0.10050378 807:0.10050378 811:0.10050378 823:0.10050378 828:0.10050378 845:0.10050378 847:0.10050378 905:0.10050378 917:0.10050378 922:0.10050378 924:0.10050378 954:0.10050378 972:0.10050378 976:0.10050378 987:0.10050378 1012:0.10050378 1015:0.10050378 1021:0.10050378 1083:0.10050378 1106:0.10050378 1110:0.10050378 1119:0.10050378 1126:0.10050378 1142:0.10050378 1147:0.10050378 1165:0.10050378 1169:0.10050378 1229:0.10050378 1305:0.10050378 1309:0.10050378 1321:0.10050378 1345:0.10050378 1353:0.10050378 1384:0.10050378 1453:0.10050378 1464:0.10050378 1471:0.10050378 1524:0.10050378 1535:0.10050378 1536:0.10050378 1608:0.10050378 1618:0.10050378 1620:0.10050378 1670:0.10050378 1710:0.10050378 1711:0.10050378 1750:0.10050378 1765:0.10050378 1778:0.10050378 1824:0.10050378 1829:0.10050378 1848:0.10050378 1851:0.10050378 1852:0.10050378 1856:0.10050378 1876:0.10050378 1895:0.10050378 1898:0.10050378 1910:0.10050378 1921:0.10050378 1927:0.10050378 1935:0.10050378 1963:0.10050378 1977:0.10050378 #
1 8:0.10660036 12:0.10660036 44:0.10660036 50:0.10660036 53:0.10660036 60:0.10660036 93:0.10660036 139:0.10660036 145:0.10660036 157:0.10660036 158:0.10660036 160:0.10660036 161:0.10660036 162:0.10660036 167:0.10660036 241:0.10660036 243:0.10660036 246:0.10660036 253:0.10660036 313:0.10660036 351:0.10660036 381:0.10660036 424:0.10660036 430:0.10660036 456:0.10660036 546:0.10660036 595:0.10660036 608:0.10660036 621:0.10660036 645:0.10660036 672:0.10660036 673:0.10660036 738:0.10660036 741:0.10660036 769:0.10660036 771:0.10660036 823:0.10660036 825:0.10660036 836:0.10660036 845:0.10660036 877:0.10660036 900:0.10660036 904:0.10660036 917:0.10660036 919:0.10660036 954:0.10660036 955:0.10660036 972:0.10660036 973:0.10660036 974:0.10660036 1015:0.10660036 1033:0.10660036 1083:0.10660036 1090:0.10660036 1142:0.10660036 1147:0.10660036 1149:0.10660036 1182:0.10660036 1251:0.10660036 1305:0.10660036 1328:0.10660036 1331:0.10660036 1334:0.10660036 1353:0.10660036 1386:0.10660036 1422:0.10660036 1464:0.10660036 1471:0.10660036 1487:0.10660036 1535:0.10660036 1618:0.10660036 1620:0.10660036 1638:0.10660036 1670:0.10660036 1684:0.10660036 1739:0.10660036 1749:0.10660036 1822:0.10660036 1851:0.10660036 1853:0.10660036 1861:0.10660036 1873:0.10660036 1875:0.10660036 1878:0.10660036 1921:0.10660036 1953:0.10660036 1974:0.10660036 1977:0.10660036 #
-0.64644299582453956798389071991551 11:0.10206208 44:0.10206208 53:0.10206208 58:0.10206208 76:0.10206208 77:0.10206208 120:0.10206208 123:0.10206208 125:0.10206208 134:0.10206208 160:0.10206208 227:0.10206208 272:0.10206208 277:0.10206208 308:0.10206208 326:0.10206208 327:0.10206208 328:0.10206208 351:0.10206208 407:0.10206208 418:0.10206208 424:0.10206208 470:0.10206208 550:0.10206208 645:0.10206208 659:0.10206208 685:0.10206208 709:0.10206208 714:0.10206208 749:0.10206208 763:0.10206208 793:0.10206208 806:0.10206208 807:0.10206208 836:0.10206208 845:0.10206208 848:0.10206208 850:0.10206208 869:0.10206208 887:0.10206208 904:0.10206208 908:0.10206208 915:0.10206208 963:0.10206208 976:0.10206208 987:0.10206208 993:0.10206208 1015:0.10206208 1023:0.10206208 1033:0.10206208 1041:0.10206208 1045:0.10206208 1048:0.10206208 1059:0.10206208 1083:0.10206208 1167:0.10206208 1169:0.10206208 1186:0.10206208 1216:0.10206208 1228:0.10206208 1305:0.10206208 1308:0.10206208 1328:0.10206208 1353:0.10206208 1384:0.10206208 1428:0.10206208 1439:0.10206208 1446:0.10206208 1462:0.10206208 1464:0.10206208 1471:0.10206208 1472:0.10206208 1495:0.10206208 1499:0.10206208 1516:0.10206208 1535:0.10206208 1571:0.10206208 1580:0.10206208 1581:0.10206208 1585:0.10206208 1602:0.10206208 1612:0.10206208 1618:0.10206208 1711:0.10206208 1727:0.10206208 1737:0.10206208 1741:0.10206208 1765:0.10206208 1781:0.10206208 1840:0.10206208 1895:0.10206208 1908:0.10206208 1918:0.10206208 1935:0.10206208 1953:0.10206208 1966:0.10206208 #
-1 69:0.125 88:0.125 103:0.125 122:0.125 130:0.125 160:0.125 161:0.125 165:0.125 326:0.125 424:0.125 456:0.125 479:0.125 494:0.125 525:0.125 539:0.125 546:0.125 645:0.125 655:0.125 660:0.125 672:0.125 673:0.125 726:0.125 749:0.125 757:0.125 772:0.125 829:0.125 845:0.125 925:0.125 954:0.125 956:0.125 987:0.125 1004:0.125 1015:0.125 1033:0.125 1095:0.125 1115:0.125 1116:0.125 1168:0.125 1169:0.125 1190:0.125 1305:0.125 1331:0.125 1333:0.125 1353:0.125 1401:0.125 1464:0.125 1471:0.125 1491:0.125 1535:0.125 1583:0.125 1603:0.125 1618:0.125 1701:0.125 1741:0.125 1761:0.125 1829:0.125 1877:0.125 1916:0.125 1927:0.125 1948:0.125 1956:0.125 1960:0.125 1972:0.125 1996:0.125 #
0.42784749404111566128960930655012 7:0.14002801 64:0.14002801 77:0.14002801 93:0.14002801 137:0.14002801 164:0.14002801 167:0.14002801 252:0.14002801 271:0.14002801 285:0.14002801 313:0.14002801 340:0.14002801 351:0.14002801 407:0.14002801 424:0.14002801 428:0.14002801 431:0.14002801 461:0.14002801 477:0.14002801 483:0.14002801 608:0.14002801 757:0.14002801 795:0.14002801 796:0.14002801 820:0.14002801 881:0.14002801 903:0.14002801 954:0.14002801 963:0.14002801 987:0.14002801 1057:0.14002801 1095:0.14002801 1119:0.14002801 1190:0.14002801 1261:0.14002801 1297:0.14002801 1314:0.14002801 1328:0.14002801 1345:0.14002801 1603:0.14002801 1639:0.14002801 1668:0.14002801 1806:0.14002801 1817:0.14002801 1844:0.14002801 1853:0.14002801 1891:0.14002801 1925:0.14002801 1956:0.14002801 1962:0.14002801 1972:0.14002801 #
-0.11681155731154918564485001297726 10:0.10660036 33:0.10660036 52:0.10660036 61:0.10660036 76:0.10660036 88:0.10660036 105:0.10660036 122:0.10660036 130:0.10660036 133:0.10660036 134:0.10660036 138:0.10660036 139:0.10660036 160:0.10660036 161:0.10660036 214:0.10660036 313:0.10660036 342:0.10660036 353:0.10660036 359:0.10660036 396:0.10660036 398:0.10660036 415:0.10660036 424:0.10660036 455:0.10660036 477:0.10660036 478:0.10660036 481:0.10660036 514:0.10660036 533:0.10660036 645:0.10660036 660:0.10660036 672:0.10660036 673:0.10660036 686:0.10660036 717:0.10660036 749:0.10660036 757:0.10660036 769:0.10660036 775:0.10660036 780:0.10660036 807:0.10660036 845:0.10660036 870:0.10660036 904:0.10660036 963:0.10660036 1004:0.10660036 1015:0.10660036 1055:0.10660036 1103:0.10660036 1149:0.10660036 1165:0.10660036 1169:0.10660036 1182:0.10660036 1188:0.10660036 1190:0.10660036 1195:0.10660036 1210:0.10660036 1305:0.10660036 1310:0.10660036 1315:0.10660036 1326:0.10660036 1327:0.10660036 1345:0.10660036 1353:0.10660036 1401:0.10660036 1427:0.10660036 1464:0.10660036 1498:0.10660036 1535:0.10660036 1582:0.10660036 1618:0.10660036 1693:0.10660036 1727:0.10660036 1741:0.10660036 1820:0.10660036 1823:0.10660036 1833:0.10660036 1848:0.10660036 1851:0.10660036 1898:0.10660036 1910:0.10660036 1917:0.10660036 1927:0.10660036 1956:0.10660036 1972:0.10660036 1985:0.10660036 1988:0.10660036 #
-1 8:0.11785113 35:0.11785113 63:0.11785113 77:0.11785113 88:0.11785113 160:0.11785113 167:0.11785113 185:0.11785113 286:0.11785113 313:0.11785113 317:0.11785113 326:0.11785113 332:0.11785113 340:0.11785113 351:0.11785113 396:0.11785113 424:0.11785113 440:0.11785113 455:0.11785113 456:0.11785113 466:0.11785113 476:0.11785113 546:0.11785113 561:0.11785113 619:0.11785113 636:0.11785113 645:0.11785113 685:0.11785113 728:0.11785113 735:0.11785113 749:0.11785113 751:0.11785113 769:0.11785113 834:0.11785113 845:0.11785113 954:0.11785113 956:0.11785113 976:0.11785113 1000:0.11785113 1033:0.11785113 1119:0.11785113 1161:0.11785113 1168:0.11785113 1209:0.11785113 1216:0.11785113 1251:0.11785113 1305:0.11785113 1353:0.11785113 1434:0.11785113 1464:0.11785113 1470:0.11785113 1471:0.11785113 1473:0.11785113 1498:0.11785113 1526:0.11785113 1535:0.11785113 1559:0.11785113 1615:0.11785113 1618:0.11785113 1650:0.11785113 1684:0.11785113 1727:0.11785113 1735:0.11785113 1791:0.11785113 1853:0.11785113 1856:0.11785113 1904:0.11785113 1923:0.11785113 1936:0.11785113 1956:0.11785113 1962:0.11785113 1988:0.11785113 #
1 77:0.16666667 88:0.16666667 130:0.16666667 160:0.16666667 167:0.16666667 226:0.16666667 338:0.16666667 351:0.16666667 398:0.16666667 424:0.16666667 456:0.16666667 531:0.16666667 546:0.16666667 562:0.16666667 568:0.16666667 757:0.16666667 804:0.16666667 879:0.16666667 887:0.16666667 987:0.16666667 1083:0.16666667 1103:0.16666667 1159:0.16666667 1272:0.16666667 1285:0.16666667 1322:0.16666667 1439:0.16666667 1498:0.16666667 1535:0.16666667 1536:0.16666667 1603:0.16666667 1770:0.16666667 1815:0.16666667 1956:0.16666667 1962:0.16666667 1972:0.16666667 #
0.73156784347242254096244096217561 44:0.19245009 100:0.19245009 152:0.19245009 160:0.19245009 294:0.19245009 351:0.19245009 398:0.19245009 444:0.19245009 609:0.19245009 636:0.19245009 648:0.19245009 706:0.19245009 963:0.19245009 1004:0.19245009 1106:0.19245009 1159:0.19245009 1185:0.19245009 1465:0.19245009 1560:0.19245009 1727:0.19245009 1734:0.19245009 1815:0.19245009 1833:0.19245009 1848:0.19245009 1867:0.19245009 1945:0.19245009 1953:0.19245009 #
1 5:0.11043153 11:0.11043153 33:0.11043153 52:0.11043153 69:0.11043153 77:0.11043153 88:0.11043153 138:0.11043153 139:0.11043153 164:0.11043153 248:0.11043153 286:0.11043153 313:0.11043153 332:0.11043153 340:0.11043153 351:0.11043153 361:0.11043153 381:0.11043153 391:0.11043153 392:0.11043153 398:0.11043153 424:0.11043153 456:0.11043153 463:0.11043153 470:0.11043153 504:0.11043153 546:0.11043153 584:0.11043153 604:0.11043153 614:0.11043153 645:0.11043153 663:0.11043153 672:0.11043153 739:0.11043153 749:0.11043153 763:0.11043153 786:0.11043153 869:0.11043153 887:0.11043153 915:0.11043153 954:0.11043153 974:0.11043153 982:0.11043153 987:0.11043153 988:0.11043153 994:0.11043153 1004:0.11043153 1150:0.11043153 1242:0.11043153 1249:0.11043153 1303:0.11043153 1349:0.11043153 1403:0.11043153 1422:0.11043153 1424:0.11043153 1452:0.11043153 1453:0.11043153 1471:0.11043153 1473:0.11043153 1477:0.11043153 1520:0.11043153 1618:0.11043153 1630:0.11043153 1646:0.11043153 1651:0.11043153 1684:0.11043153 1703:0.11043153 1727:0.11043153 1737:0.11043153 1741:0.11043153 1751:0.11043153 1770:0.11043153 1789:0.11043153 1806:0.11043153 1815:0.11043153 1816:0.11043153 1825:0.11043153 1878:0.11043153 1910:0.11043153 1927:0.11043153 1956:0.11043153 1972:0.11043153 #
1 53:0.20412415 88:0.20412415 95:0.20412415 236:0.20412415 423:0.20412415 546:0.20412415 608:0.20412415 642:0.20412415 722:0.20412415 741:0.20412415 763:0.20412415 772:0.20412415 869:0.20412415 1033:0.20412415 1198:0.20412415 1203:0.20412415 1419:0.20412415 1535:0.20412415 1582:0.20412415 1693:0.20412415 1738:0.20412415 1878:0.20412415 1898:0.20412415 1953:0.20412415 #
1 13:0.12598816 27:0.12598816 30:0.12598816 63:0.12598816 77:0.12598816 80:0.12598816 88:0.12598816 130:0.12598816 133:0.12598816 172:0.12598816 293:0.12598816 340:0.12598816 351:0.12598816 354:0.12598816 357:0.12598816 360:0.12598816 363:0.12598816 384:0.12598816 529:0.12598816 546:0.12598816 666:0.12598816 691:0.12598816 692:0.12598816 705:0.12598816 741:0.12598816 749:0.12598816 772:0.12598816 808:0.12598816 858:0.12598816 877:0.12598816 920:0.12598816 963:0.12598816 1015:0.12598816 1119:0.12598816 1122:0.12598816 1167:0.12598816 1210:0.12598816 1303:0.12598816 1328:0.12598816 1331:0.12598816 1346:0.12598816 1377:0.12598816 1409:0.12598816 1452:0.12598816 1463:0.12598816 1464:0.12598816 1473:0.12598816 1499:0.12598816 1516:0.12598816 1535:0.12598816 1580:0.12598816 1670:0.12598816 1684:0.12598816 1693:0.12598816 1727:0.12598816 1781:0.12598816 1848:0.12598816 1878:0.12598816 1898:0.12598816 1904:0.12598816 1956:0.12598816 1957:0.12598816 1987:0.12598816 #
-0.20261619507130307349385134330078 103:0.11867817 144:0.11867817 159:0.11867817 160:0.11867817 173:0.11867817 185:0.11867817 209:0.11867817 285:0.11867817 286:0.11867817 293:0.11867817 300:0.11867817 310:0.11867817 328:0.11867817 351:0.11867817 393:0.11867817 444:0.11867817 563:0.11867817 648:0.11867817 662:0.11867817 722:0.11867817 725:0.11867817 749:0.11867817 757:0.11867817 811:0.11867817 898:0.11867817 901:0.11867817 954:0.11867817 972:0.11867817 976:0.11867817 982:0.11867817 987:0.11867817 993:0.11867817 1015:0.11867817 1033:0.11867817 1083:0.11867817 1106:0.11867817 1116:0.11867817 1119:0.11867817 1122:0.11867817 1139:0.11867817 1146:0.11867817 1189:0.11867817 1256:0.11867817 1306:0.11867817 1464:0.11867817 1465:0.11867817 1471:0.11867817 1498:0.11867817 1509:0.11867817 1512:0.11867817 1534:0.11867817 1535:0.11867817 1620:0.11867817 1668:0.11867817 1670:0.11867817 1676:0.11867817 1741:0.11867817 1746:0.11867817 1765:0.11867817 1775:0.11867817 1848:0.11867817 1853:0.11867817 1904:0.11867817 1921:0.11867817 1927:0.11867817 1960:0.11867817 1961:0.11867817 1962:0.11867817 1963:0.11867817 1965:0.11867817 1986:0.11867817 #
-0.62128524704126220079558606812498 24:0.11470786 34:0.11470786 38:0.11470786 63:0.11470786 91:0.11470786 105:0.11470786 138:0.11470786 160:0.11470786 206:0.11470786 263:0.11470786 286:0.11470786 293:0.11470786 312:0.11470786 340:0.11470786 351:0.11470786 357:0.11470786 381:0.11470786 418:0.11470786 420:0.11470786 424:0.11470786 541:0.11470786 542:0.11470786 672:0.11470786 687:0.11470786 692:0.11470786 714:0.11470786 749:0.11470786 757:0.11470786 772:0.11470786 823:0.11470786 872:0.11470786 879:0.11470786 919:0.11470786 954:0.11470786 963:0.11470786 976:0.11470786 1004:0.11470786 1033:0.11470786 1067:0.11470786 1083:0.11470786 1110:0.11470786 1119:0.11470786 1169:0.11470786 1174:0.11470786 1181:0.11470786 1232:0.11470786 1300:0.11470786 1305:0.11470786 1328:0.11470786 1336:0.11470786 1419:0.11470786 1421:0.11470786 1452:0.11470786 1464:0.11470786 1471:0.11470786 1480:0.11470786 1504:0.11470786 1535:0.11470786 1555:0.11470786 1597:0.11470786 1618:0.11470786 1684:0.11470786 1688:0.11470786 1727:0.11470786 1728:0.11470786 1732:0.11470786 1745:0.11470786 1780:0.11470786 1797:0.11470786 1805:0.11470786 1877:0.11470786 1891:0.11470786 1898:0.11470786 1908:0.11470786 1914:0.11470786 1927:0.11470786 #
-0.073691286198559941000851836179208 139:0.17149858 160:0.17149858 313:0.17149858 340:0.17149858 344:0.17149858 351:0.17149858 477:0.17149858 531:0.17149858 651:0.17149858 749:0.17149858 845:0.17149858 861:0.17149858 865:0.17149858 961:0.17149858 1020:0.17149858 1083:0.17149858 1085:0.17149858 1097:0.17149858 1159:0.17149858 1281:0.17149858 1305:0.17149858 1359:0.17149858 1409:0.17149858 1464:0.17149858 1471:0.17149858 1477:0.17149858 1482:0.17149858 1535:0.17149858 1816:0.17149858 1848:0.17149858 1862:0.17149858 1925:0.17149858 1927:0.17149858 1931:0.17149858 #
-0.30437312493004026192622291091539 249:0.22941573 289:0.22941573 340:0.22941573 424:0.22941573 482:0.22941573 546:0.22941573 568:0.22941573 741:0.22941573 894:0.22941573 987:0.22941573 1072:0.22941573 1185:0.22941573 1221:0.22941573 1602:0.22941573 1670:0.22941573 1796:0.22941573 1802:0.22941573 1805:0.22941573 1926:0.22941573 #
-0.87121066749175901655632969777798 49:0.13736056 51:0.13736056 63:0.13736056 146:0.13736056 160:0.13736056 256:0.13736056 257:0.13736056 300:0.13736056 360:0.13736056 374:0.13736056 379:0.13736056 440:0.13736056 468:0.13736056 477:0.13736056 531:0.13736056 546:0.13736056 556:0.13736056 597:0.13736056 627:0.13736056 700:0.13736056 704:0.13736056 749:0.13736056 808:0.13736056 822:0.13736056 832:0.13736056 845:0.13736056 850:0.13736056 954:0.13736056 987:0.13736056 1004:0.13736056 1109:0.13736056 1305:0.13736056 1310:0.13736056 1329:0.13736056 1353:0.13736056 1464:0.13736056 1491:0.13736056 1498:0.13736056 1500:0.13736056 1535:0.13736056 1536:0.13736056 1595:0.13736056 1610:0.13736056 1668:0.13736056 1670:0.13736056 1685:0.13736056 1741:0.13736056 1757:0.13736056 1844:0.13736056 1848:0.13736056 1851:0.13736056 1894:0.13736056 1960:0.13736056 #
1 11:0.125 52:0.125 53:0.125 61:0.125 88:0.125 92:0.125 113:0.125 160:0.125 185:0.125 267:0.125 342:0.125 351:0.125 396:0.125 415:0.125 424:0.125 444:0.125 456:0.125 481:0.125 548:0.125 645:0.125 651:0.125 672:0.125 673:0.125 749:0.125 772:0.125 808:0.125 825:0.125 845:0.125 866:0.125 870:0.125 904:0.125 905:0.125 913:0.125 921:0.125 954:0.125 1004:0.125 1083:0.125 1155:0.125 1165:0.125 1168:0.125 1231:0.125 1235:0.125 1261:0.125 1305:0.125 1321:0.125 1357:0.125 1381:0.125 1498:0.125 1535:0.125 1567:0.125 1618:0.125 1620:0.125 1703:0.125 1760:0.125 1785:0.125 1816:0.125 1829:0.125 1833:0.125 1851:0.125 1904:0.125 1927:0.125 1939:0.125 1954:0.125 1956:0.125 #
1 38:0.12038586 39:0.12038586 53:0.12038586 63:0.12038586 91:0.12038586 122:0.12038586 160:0.12038586 167:0.12038586 237:0.12038586 263:0.12038586 298:0.12038586 340:0.12038586 351:0.12038586 367:0.12038586 398:0.12038586 424:0.12038586 437:0.12038586 444:0.12038586 550:0.12038586 565:0.12038586 627:0.12038586 672:0.12038586 673:0.12038586 700:0.12038586 725:0.12038586 749:0.12038586 757:0.12038586 769:0.12038586 772:0.12038586 784:0.12038586 811:0.12038586 815:0.12038586 866:0.12038586 896:0.12038586 921:0.12038586 954:0.12038586 956:0.12038586 987:0.12038586 1015:0.12038586 1083:0.12038586 1117:0.12038586 1119:0.12038586 1155:0.12038586 1169:0.12038586 1188:0.12038586 1220:0.12038586 1231:0.12038586 1247:0.12038586 1347:0.12038586 1416:0.12038586 1464:0.12038586 1473:0.12038586 1498:0.12038586 1513:0.12038586 1571:0.12038586 1610:0.12038586 1618:0.12038586 1710:0.12038586 1727:0.12038586 1771:0.12038586 1796:0.12038586 1843:0.12038586 1844:0.12038586 1898:0.12038586 1908:0.12038586 1935:0.12038586 1956:0.12038586 1960:0.12038586 1988:0.12038586 #
1 120:0.1490712 133:0.1490712 134:0.1490712 160:0.1490712 162:0.1490712 176:0.1490712 180:0.1490712 204:0.1490712 293:0.1490712 294:0.1490712 351:0.1490712 424:0.1490712 456:0.1490712 672:0.1490712 700:0.1490712 763:0.1490712 784:0.1490712 845:0.1490712 921:0.1490712 956:0.1490712 976:0.1490712 1009:0.1490712 1083:0.1490712 1209:0.1490712 1216:0.1490712 1305:0.1490712 1353:0.1490712 1362:0.1490712 1413:0.1490712 1450:0.1490712 1525:0.1490712 1535:0.1490712 1557:0.1490712 1606:0.1490712 1618:0.1490712 1701:0.1490712 1727:0.1490712 1792:0.1490712 1804:0.1490712 1829:0.1490712 1833:0.1490712 1844:0.1490712 1877:0.1490712 1926:0.1490712 1956:0.1490712 #
1 10:0.12700012 36:0.12700012 44:0.12700012 63:0.12700012 67:0.12700012 99:0.12700012 103:0.12700012 134:0.12700012 138:0.12700012 139:0.12700012 147:0.12700012 149:0.12700012 160:0.12700012 351:0.12700012 364:0.12700012 367:0.12700012 405:0.12700012 407:0.12700012 410:0.12700012 424:0.12700012 456:0.12700012 546:0.12700012 655:0.12700012 672:0.12700012 722:0.12700012 725:0.12700012 790:0.12700012 811:0.12700012 845:0.12700012 869:0.12700012 954:0.12700012 976:0.12700012 1033:0.12700012 1087:0.12700012 1169:0.12700012 1188:0.12700012 1190:0.12700012 1197:0.12700012 1222:0.12700012 1305:0.12700012 1328:0.12700012 1336:0.12700012 1353:0.12700012 1441:0.12700012 1464:0.12700012 1499:0.12700012 1535:0.12700012 1582:0.12700012 1623:0.12700012 1670:0.12700012 1699:0.12700012 1707:0.12700012 1727:0.12700012 1737:0.12700012 1739:0.12700012 1827:0.12700012 1829:0.12700012 1853:0.12700012 1887:0.12700012 1956:0.12700012 1962:0.12700012 1975:0.12700012 #
1 8:0.13483997 138:0.13483997 159:0.13483997 160:0.13483997 173:0.13483997 212:0.13483997 259:0.13483997 288:0.13483997 294:0.13483997 397:0.13483997 411:0.13483997 522:0.13483997 569:0.13483997 583:0.13483997 672:0.13483997 746:0.13483997 749:0.13483997 757:0.13483997 778:0.13483997 781:0.13483997 807:0.13483997 845:0.13483997 953:0.13483997 958:0.13483997 976:0.13483997 1015:0.13483997 1080:0.13483997 1119:0.13483997 1146:0.13483997 1178:0.13483997 1305:0.13483997 1328:0.13483997 1353:0.13483997 1433:0.13483997 1498:0.13483997 1535:0.13483997 1555:0.13483997 1618:0.13483997 1620:0.13483997 1635:0.13483997 1643:0.13483997 1670:0.13483997 1684:0.13483997 1805:0.13483997 1811:0.13483997 1834:0.13483997 1835:0.13483997 1853:0.13483997 1906:0.13483997 1921:0.13483997 1937:0.13483997 1945:0.13483997 1954:0.13483997 1956:0.13483997 1986:0.13483997 #
-1 88:0.11250879 120:0.11250879 123:0.11250879 154:0.11250879 160:0.11250879 212:0.11250879 248:0.11250879 263:0.11250879 298:0.11250879 313:0.11250879 326:0.11250879 340:0.11250879 351:0.11250879 380:0.11250879 398:0.11250879 424:0.11250879 456:0.11250879 477:0.11250879 496:0.11250879 546:0.11250879 601:0.11250879 637:0.11250879 665:0.11250879 672:0.11250879 673:0.11250879 725:0.11250879 749:0.11250879 763:0.11250879 811:0.11250879 825:0.11250879 845:0.11250879 872:0.11250879 900:0.11250879 910:0.11250879 916:0.11250879 949:0.11250879 954:0.11250879 972:0.11250879 995:0.11250879 1015:0.11250879 1109:0.11250879 1209:0.11250879 1216:0.11250879 1225:0.11250879 1285:0.11250879 1298:0.11250879 1305:0.11250879 1321:0.11250879 1397:0.11250879 1403:0.11250879 1471:0.11250879 1483:0.11250879 1502:0.11250879 1535:0.11250879 1536:0.11250879 1557:0.11250879 1595:0.11250879 1602:0.11250879 1606:0.11250879 1620:0.11250879 1690:0.11250879 1693:0.11250879 1705:0.11250879 1727:0.11250879 1728:0.11250879 1765:0.11250879 1806:0.11250879 1813:0.11250879 1843:0.11250879 1853:0.11250879 1869:0.11250879 1873:0.11250879 1894:0.11250879 1904:0.11250879 1929:0.11250879 1953:0.11250879 1954:0.11250879 1956:0.11250879 1961:0.11250879 #
-0.87753470046124038006496448360849 38:0.17677669 160:0.17677669 263:0.17677669 424:0.17677669 572:0.17677669 660:0.17677669 762:0.17677669 792:0.17677669 807:0.17677669 825:0.17677669 829:0.17677669 849:0.17677669 963:0.17677669 1076:0.17677669 1083:0.17677669 1188:0.17677669 1190:0.17677669 1198:0.17677669 1353:0.17677669 1512:0.17677669 1516:0.17677669 1566:0.17677669 1650:0.17677669 1684:0.17677669 1829:0.17677669 1842:0.17677669 1853:0.17677669 1878:0.17677669 1956:0.17677669 1960:0.17677669 1970:0.17677669 1983:0.17677669 #
-0.11372384677229938065856629236805 32:0.076028593 37:0.076028593 53:0.076028593 68:0.076028593 72:0.076028593 73:0.076028593 77:0.076028593 88:0.076028593 94:0.076028593 99:0.076028593 105:0.076028593 125:0.076028593 126:0.076028593 134:0.076028593 138:0.076028593 139:0.076028593 160:0.076028593 165:0.076028593 218:0.076028593 285:0.076028593 287:0.076028593 293:0.076028593 303:0.076028593 313:0.076028593 326:0.076028593 328:0.076028593 340:0.076028593 357:0.076028593 368:0.076028593 381:0.076028593 384:0.076028593 410:0.076028593 418:0.076028593 424:0.076028593 485:0.076028593 557:0.076028593 562:0.076028593 571:0.076028593 580:0.076028593 608:0.076028593 609:0.076028593 620:0.076028593 621:0.076028593 627:0.076028593 629:0.076028593 642:0.076028593 651:0.076028593 661:0.076028593 672:0.076028593 673:0.076028593 709:0.076028593 722:0.076028593 723:0.076028593 749:0.076028593 769:0.076028593 772:0.076028593 779:0.076028593 784:0.076028593 819:0.076028593 823:0.076028593 845:0.076028593 846:0.076028593 847:0.076028593 851:0.076028593 872:0.076028593 882:0.076028593 898:0.076028593 910:0.076028593 919:0.076028593 921:0.076028593 954:0.076028593 957:0.076028593 963:0.076028593 976:0.076028593 982:0.076028593 986:0.076028593 987:0.076028593 1004:0.076028593 1006:0.076028593 1007:0.076028593 1015:0.076028593 1020:0.076028593 1033:0.076028593 1042:0.076028593 1052:0.076028593 1057:0.076028593 1068:0.076028593 1070:0.076028593 1081:0.076028593 1083:0.076028593 1085:0.076028593 1097:0.076028593 1104:0.076028593 1110:0.076028593 1119:0.076028593 1127:0.076028593 1165:0.076028593 1220:0.076028593 1225:0.076028593 1231:0.076028593 1285:0.076028593 1303:0.076028593 1305:0.076028593 1313:0.076028593 1328:0.076028593 1336:0.076028593 1337:0.076028593 1359:0.076028593 1365:0.076028593 1376:0.076028593 1386:0.076028593 1403:0.076028593 1417:0.076028593 1419:0.076028593 1422:0.076028593 1445:0.076028593 1452:0.076028593 1458:0.076028593 1463:0.076028593 1464:0.076028593 1471:0.076028593 1477:0.076028593 1479:0.076028593 1482:0.076028593 1492:0.076028593 1496:0.076028593 1497:0.076028593 1498:0.076028593 1513:0.076028593 1543:0.076028593 1548:0.076028593 1574:0.076028593 1609:0.076028593 1610:0.076028593 1614:0.076028593 1618:0.076028593 1623:0.076028593 1636:0.076028593 1669:0.076028593 1680:0.076028593 1688:0.076028593 1711:0.076028593 1727:0.076028593 1737:0.076028593 1741:0.076028593 1750:0.076028593 1752:0.076028593 1765:0.076028593 1767:0.076028593 1770:0.076028593 1782:0.076028593 1785:0.076028593 1803:0.076028593 1822:0.076028593 1831:0.076028593 1834:0.076028593 1841:0.076028593 1843:0.076028593 1844:0.076028593 1848:0.076028593 1851:0.076028593 1864:0.076028593 1882:0.076028593 1898:0.076028593 1910:0.076028593 1920:0.076028593 1921:0.076028593 1927:0.076028593 1953:0.076028593 1956:0.076028593 1988:0.076028593 1997:0.076028593 1998:0.076028593 #
-0.13187757947000139369109206199937 30:0.12700012 35:0.12700012 60:0.12700012 61:0.12700012 103:0.12700012 115:0.12700012 138:0.12700012 160:0.12700012 169:0.12700012 171:0.12700012 217:0.12700012 246:0.12700012 267:0.12700012 271:0.12700012 285:0.12700012 342:0.12700012 351:0.12700012 396:0.12700012 424:0.12700012 456:0.12700012 481:0.12700012 513:0.12700012 614:0.12700012 645:0.12700012 651:0.12700012 672:0.12700012 687:0.12700012 811:0.12700012 845:0.12700012 920:0.12700012 963:0.12700012 993:0.12700012 1057:0.12700012 1169:0.12700012 1198:0.12700012 1246:0.12700012 1263:0.12700012 1305:0.12700012 1306:0.12700012 1311:0.12700012 1328:0.12700012 1353:0.12700012 1381:0.12700012 1434:0.12700012 1448:0.12700012 1449:0.12700012 1465:0.12700012 1522:0.12700012 1535:0.12700012 1684:0.12700012 1727:0.12700012 1729:0.12700012 1737:0.12700012 1738:0.12700012 1833:0.12700012 1848:0.12700012 1853:0.12700012 1875:0.12700012 1904:0.12700012 1914:0.12700012 1927:0.12700012 1960:0.12700012 #
-0.14568508511831665397373569703632 44:0.2 77:0.2 84:0.2 93:0.2 156:0.2 198:0.2 263:0.2 672:0.2 959:0.2 997:0.2 1005:0.2 1185:0.2 1261:0.2 1425:0.2 1431:0.2 1464:0.2 1466:0.2 1471:0.2 1499:0.2 1803:0.2 1814:0.2 1848:0.2 1859:0.2 1954:0.2 1957:0.2 #
1 69:0.10976426 77:0.10976426 98:0.10976426 128:0.10976426 131:0.10976426 134:0.10976426 192:0.10976426 214:0.10976426 257:0.10976426 329:0.10976426 357:0.10976426 387:0.10976426 424:0.10976426 456:0.10976426 463:0.10976426 483:0.10976426 491:0.10976426 551:0.10976426 592:0.10976426 604:0.10976426 608:0.10976426 623:0.10976426 626:0.10976426 627:0.10976426 629:0.10976426 667:0.10976426 686:0.10976426 702:0.10976426 706:0.10976426 711:0.10976426 736:0.10976426 741:0.10976426 765:0.10976426 772:0.10976426 781:0.10976426 853:0.10976426 902:0.10976426 954:0.10976426 972:0.10976426 1005:0.10976426 1015:0.10976426 1033:0.10976426 1085:0.10976426 1127:0.10976426 1159:0.10976426 1239:0.10976426 1257:0.10976426 1299:0.10976426 1314:0.10976426 1328:0.10976426 1331:0.10976426 1413:0.10976426 1431:0.10976426 1439:0.10976426 1452:0.10976426 1464:0.10976426 1471:0.10976426 1497:0.10976426 1535:0.10976426 1537:0.10976426 1543:0.10976426 1568:0.10976426 1581:0.10976426 1597:0.10976426 1603:0.10976426 1618:0.10976426 1620:0.10976426 1623:0.10976426 1629:0.10976426 1670:0.10976426 1693:0.10976426 1698:0.10976426 1699:0.10976426 1727:0.10976426 1784:0.10976426 1805:0.10976426 1822:0.10976426 1844:0.10976426 1851:0.10976426 1932:0.10976426 1957:0.10976426 1962:0.10976426 1981:0.10976426 #
1 90:0.20851441 133:0.20851441 160:0.20851441 249:0.20851441 313:0.20851441 434:0.20851441 466:0.20851441 482:0.20851441 558:0.20851441 778:0.20851441 871:0.20851441 1006:0.20851441 1070:0.20851441 1160:0.20851441 1186:0.20851441 1381:0.20851441 1471:0.20851441 1684:0.20851441 1847:0.20851441 1876:0.20851441 1887:0.20851441 1914:0.20851441 1954:0.20851441 #
1 42:0.17677669 245:0.17677669 284:0.17677669 313:0.17677669 374:0.17677669 424:0.17677669 478:0.17677669 483:0.17677669 626:0.17677669 643:0.17677669 737:0.17677669 781:0.17677669 816:0.17677669 822:0.17677669 963:0.17677669 1066:0.17677669 1067:0.17677669 1110:0.17677669 1124:0.17677669 1127:0.17677669 1184:0.17677669 1237:0.17677669 1385:0.17677669 1545:0.17677669 1603:0.17677669 1618:0.17677669 1764:0.17677669 1796:0.17677669 1814:0.17677669 1885:0.17677669 1927:0.17677669 1988:0.17677669 #
1 77:0.17149858 90:0.17149858 139:0.17149858 156:0.17149858 214:0.17149858 249:0.17149858 340:0.17149858 357:0.17149858 387:0.17149858 424:0.17149858 469:0.17149858 482:0.17149858 483:0.17149858 546:0.17149858 604:0.17149858 608:0.17149858 741:0.17149858 772:0.17149858 913:0.17149858 963:0.17149858 976:0.17149858 1015:0.17149858 1031:0.17149858 1401:0.17149858 1497:0.17149858 1535:0.17149858 1612:0.17149858 1644:0.17149858 1684:0.17149858 1844:0.17149858 1898:0.17149858 1920:0.17149858 1927:0.17149858 1952:0.17149858 #
1 30:0.13363062 88:0.13363062 94:0.13363062 99:0.13363062 105:0.13363062 139:0.13363062 160:0.13363062 168:0.13363062 191:0.13363062 263:0.13363062 267:0.13363062 351:0.13363062 357:0.13363062 420:0.13363062 546:0.13363062 608:0.13363062 627:0.13363062 637:0.13363062 652:0.13363062 664:0.13363062 691:0.13363062 714:0.13363062 722:0.13363062 725:0.13363062 729:0.13363062 749:0.13363062 807:0.13363062 915:0.13363062 926:0.13363062 960:0.13363062 961:0.13363062 972:0.13363062 987:0.13363062 1015:0.13363062 1201:0.13363062 1277:0.13363062 1281:0.13363062 1305:0.13363062 1326:0.13363062 1416:0.13363062 1439:0.13363062 1442:0.13363062 1471:0.13363062 1479:0.13363062 1618:0.13363062 1630:0.13363062 1643:0.13363062 1667:0.13363062 1670:0.13363062 1687:0.13363062 1728:0.13363062 1741:0.13363062 1831:0.13363062 1844:0.13363062 1848:0.13363062 1851:0.13363062 #
-0.91668037278975422754712099049357 77:0.22941573 139:0.22941573 175:0.22941573 245:0.22941573 313:0.22941573 357:0.22941573 387:0.22941573 483:0.22941573 741:0.22941573 764:0.22941573 963:0.22941573 1067:0.22941573 1331:0.22941573 1580:0.22941573 1603:0.22941573 1898:0.22941573 1954:0.22941573 1961:0.22941573 1972:0.22941573 #
-0.88383101564121790971739756059833 61:0.15811388 77:0.15811388 99:0.15811388 105:0.15811388 139:0.15811388 172:0.15811388 340:0.15811388 357:0.15811388 387:0.15811388 390:0.15811388 405:0.15811388 415:0.15811388 546:0.15811388 741:0.15811388 756:0.15811388 772:0.15811388 976:0.15811388 1015:0.15811388 1052:0.15811388 1067:0.15811388 1106:0.15811388 1198:0.15811388 1331:0.15811388 1497:0.15811388 1535:0.15811388 1543:0.15811388 1602:0.15811388 1618:0.15811388 1636:0.15811388 1670:0.15811388 1684:0.15811388 1705:0.15811388 1727:0.15811388 1728:0.15811388 1794:0.15811388 1814:0.15811388 1833:0.15811388 1851:0.15811388 1873:0.15811388 1957:0.15811388 #
-1 13:0.12216944 21:0.12216944 53:0.12216944 63:0.12216944 69:0.12216944 77:0.12216944 88:0.12216944 90:0.12216944 257:0.12216944 263:0.12216944 267:0.12216944 278:0.12216944 288:0.12216944 293:0.12216944 313:0.12216944 326:0.12216944 357:0.12216944 424:0.12216944 436:0.12216944 447:0.12216944 456:0.12216944 504:0.12216944 546:0.12216944 558:0.12216944 592:0.12216944 608:0.12216944 645:0.12216944 655:0.12216944 659:0.12216944 718:0.12216944 723:0.12216944 733:0.12216944 741:0.12216944 749:0.12216944 778:0.12216944 836:0.12216944 954:0.12216944 963:0.12216944 976:0.12216944 1015:0.12216944 1078:0.12216944 1083:0.12216944 1168:0.12216944 1189:0.12216944 1190:0.12216944 1260:0.12216944 1326:0.12216944 1331:0.12216944 1406:0.12216944 1414:0.12216944 1438:0.12216944 1441:0.12216944 1464:0.12216944 1473:0.12216944 1620:0.12216944 1684:0.12216944 1687:0.12216944 1727:0.12216944 1736:0.12216944 1844:0.12216944 1848:0.12216944 1851:0.12216944 1898:0.12216944 1920:0.12216944 1927:0.12216944 1956:0.12216944 1980:0.12216944 #
-0.54954597886161027364693154595443 53:0.17960531 67:0.17960531 77:0.17960531 424:0.17960531 483:0.17960531 504:0.17960531 546:0.17960531 605:0.17960531 608:0.17960531 686:0.17960531 823:0.17960531 919:0.17960531 954:0.17960531 964:0.17960531 976:0.17960531 1051:0.17960531 1157:0.17960531 1159:0.17960531 1267:0.17960531 1303:0.17960531 1323:0.17960531 1452:0.17960531 1535:0.17960531 1618:0.17960531 1670:0.17960531 1684:0.17960531 1693:0.17960531 1768:0.17960531 1816:0.17960531 1848:0.17960531 1920:0.17960531 #
-1 36:0.15075567 63:0.15075567 64:0.15075567 77:0.15075567 160:0.15075567 165:0.15075567 176:0.15075567 313:0.15075567 504:0.15075567 505:0.15075567 508:0.15075567 558:0.15075567 626:0.15075567 645:0.15075567 672:0.15075567 677:0.15075567 714:0.15075567 741:0.15075567 772:0.15075567 954:0.15075567 972:0.15075567 1004:0.15075567 1015:0.15075567 1033:0.15075567 1069:0.15075567 1083:0.15075567 1117:0.15075567 1192:0.15075567 1219:0.15075567 1223:0.15075567 1452:0.15075567 1464:0.15075567 1497:0.15075567 1543:0.15075567 1606:0.15075567 1710:0.15075567 1727:0.15075567 1728:0.15075567 1770:0.15075567 1844:0.15075567 1898:0.15075567 1927:0.15075567 1953:0.15075567 1962:0.15075567 #
1 38:0.10783277 49:0.10783277 63:0.10783277 103:0.10783277 138:0.10783277 139:0.10783277 160:0.10783277 217:0.10783277 303:0.10783277 325:0.10783277 326:0.10783277 328:0.10783277 340:0.10783277 343:0.10783277 351:0.10783277 359:0.10783277 425:0.10783277 427:0.10783277 448:0.10783277 456:0.10783277 479:0.10783277 497:0.10783277 531:0.10783277 554:0.10783277 559:0.10783277 645:0.10783277 651:0.10783277 672:0.10783277 683:0.10783277 749:0.10783277 772:0.10783277 794:0.10783277 837:0.10783277 847:0.10783277 851:0.10783277 872:0.10783277 896:0.10783277 954:0.10783277 963:0.10783277 982:0.10783277 987:0.10783277 993:0.10783277 995:0.10783277 1004:0.10783277 1083:0.10783277 1095:0.10783277 1198:0.10783277 1209:0.10783277 1238:0.10783277 1281:0.10783277 1305:0.10783277 1358:0.10783277 1377:0.10783277 1379:0.10783277 1429:0.10783277 1464:0.10783277 1471:0.10783277 1482:0.10783277 1495:0.10783277 1502:0.10783277 1518:0.10783277 1535:0.10783277 1589:0.10783277 1609:0.10783277 1638:0.10783277 1663:0.10783277 1670:0.10783277 1727:0.10783277 1728:0.10783277 1737:0.10783277 1745:0.10783277 1750:0.10783277 1792:0.10783277 1801:0.10783277 1809:0.10783277 1848:0.10783277 1851:0.10783277 1855:0.10783277 1872:0.10783277 1898:0.10783277 1910:0.10783277 1921:0.10783277 1931:0.10783277 1953:0.10783277 1956:0.10783277 1972:0.10783277 #
1 38:0.1 39:0.1 77:0.1 88:0.1 103:0.1 108:0.1 131:0.1 138:0.1 145:0.1 146:0.1 160:0.1 161:0.1 263:0.1 266:0.1 267:0.1 293:0.1 304:0.1 326:0.1 340:0.1 351:0.1 357:0.1 398:0.1 415:0.1 424:0.1 444:0.1 455:0.1 456:0.1 460:0.1 477:0.1 504:0.1 546:0.1 594:0.1 617:0.1 645:0.1 709:0.1 747:0.1 749:0.1 763:0.1 833:0.1 839:0.1 845:0.1 846:0.1 869:0.1 904:0.1 954:0.1 958:0.1 964:0.1 987:0.1 1006:0.1 1017:0.1 1033:0.1 1068:0.1 1069:0.1 1083:0.1 1168:0.1 1209:0.1 1246:0.1 1285:0.1 1305:0.1 1315:0.1 1328:0.1 1345:0.1 1353:0.1 1406:0.1 1417:0.1 1460:0.1 1471:0.1 1473:0.1 1478:0.1 1498:0.1 1520:0.1 1529:0.1 1535:0.1 1539:0.1 1554:0.1 1606:0.1 1620:0.1 1670:0.1 1680:0.1 1687:0.1 1720:0.1 1727:0.1 1735:0.1 1737:0.1 1741:0.1 1745:0.1 1755:0.1 1769:0.1 1794:0.1 1829:0.1 1831:0.1 1843:0.1 1853:0.1 1904:0.1 1927:0.1 1948:0.1 1956:0.1 1960:0.1 1974:0.1 1977:0.1 #
0.77982432373402144065721586230211 63:0.13130644 88:0.13130644 99:0.13130644 134:0.13130644 138:0.13130644 160:0.13130644 167:0.13130644 177:0.13130644 263:0.13130644 313:0.13130644 328:0.13130644 351:0.13130644 381:0.13130644 424:0.13130644 455:0.13130644 465:0.13130644 565:0.13130644 608:0.13130644 645:0.13130644 662:0.13130644 727:0.13130644 738:0.13130644 749:0.13130644 757:0.13130644 787:0.13130644 811:0.13130644 825:0.13130644 845:0.13130644 871:0.13130644 888:0.13130644 927:0.13130644 954:0.13130644 961:0.13130644 972:0.13130644 988:0.13130644 1015:0.13130644 1083:0.13130644 1100:0.13130644 1119:0.13130644 1168:0.13130644 1169:0.13130644 1177:0.13130644 1190:0.13130644 1305:0.13130644 1336:0.13130644 1374:0.13130644 1386:0.13130644 1464:0.13130644 1471:0.13130644 1536:0.13130644 1668:0.13130644 1676:0.13130644 1728:0.13130644 1810:0.13130644 1830:0.13130644 1853:0.13130644 1910:0.13130644 1951:0.13130644 #
1 20:0.15430336 161:0.15430336 172:0.15430336 351:0.15430336 387:0.15430336 417:0.15430336 424:0.15430336 427:0.15430336 465:0.15430336 543:0.15430336 546:0.15430336 725:0.15430336 749:0.15430336 750:0.15430336 820:0.15430336 865:0.15430336 866:0.15430336 873:0.15430336 877:0.15430336 915:0.15430336 1018:0.15430336 1064:0.15430336 1120:0.15430336 1168:0.15430336 1190:0.15430336 1209:0.15430336 1256:0.15430336 1257:0.15430336 1310:0.15430336 1353:0.15430336 1369:0.15430336 1497:0.15430336 1535:0.15430336 1582:0.15430336 1618:0.15430336 1653:0.15430336 1797:0.15430336 1848:0.15430336 1904:0.15430336 1922:0.15430336 1957:0.15430336 1960:0.15430336 #
