SVM-light Version V6.02
0 # kernel type
3 # kernel parameter -d 
1 # kernel parameter -g 
1 # kernel parameter -s 
1 # kernel parameter -r 
empty# kernel parameter -u 
2000 # highest feature index 
2000 # number of training documents 
659 # number of support vectors plus 1 
0.57427682 # threshold b, each following line is a SV (starting with alpha*y)
-1 28:0.1490712 91:0.1490712 251:0.1490712 267:0.1490712 351:0.1490712 357:0.1490712 387:0.1490712 469:0.1490712 473:0.1490712 486:0.1490712 498:0.1490712 546:0.1490712 625:0.1490712 741:0.1490712 749:0.1490712 752:0.1490712 800:0.1490712 822:0.1490712 962:0.1490712 963:0.1490712 1076:0.1490712 1083:0.1490712 1123:0.1490712 1133:0.1490712 1150:0.1490712 1190:0.1490712 1290:0.1490712 1297:0.1490712 1452:0.1490712 1479:0.1490712 1482:0.1490712 1504:0.1490712 1535:0.1490712 1596:0.1490712 1603:0.1490712 1618:0.1490712 1659:0.1490712 1670:0.1490712 1684:0.1490712 1770:0.1490712 1898:0.1490712 1920:0.1490712 1935:0.1490712 1972:0.1490712 1980:0.1490712 #
-0.38805311093013261647399758658139 22:0.13736056 48:0.13736056 77:0.13736056 138:0.13736056 154:0.13736056 160:0.13736056 179:0.13736056 263:0.13736056 351:0.13736056 357:0.13736056 359:0.13736056 424:0.13736056 496:0.13736056 546:0.13736056 603:0.13736056 691:0.13736056 706:0.13736056 749:0.13736056 778:0.13736056 784:0.13736056 825:0.13736056 869:0.13736056 927:0.13736056 948:0.13736056 961:0.13736056 1015:0.13736056 1169:0.13736056 1190:0.13736056 1248:0.13736056 1328:0.13736056 1353:0.13736056 1433:0.13736056 1452:0.13736056 1460:0.13736056 1510:0.13736056 1534:0.13736056 1536:0.13736056 1595:0.13736056 1609:0.13736056 1621:0.13736056 1661:0.13736056 1697:0.13736056 1711:0.13736056 1727:0.13736056 1741:0.13736056 1742:0.13736056 1765:0.13736056 1811:0.13736056 1831:0.13736056 1894:0.13736056 1903:0.13736056 1904:0.13736056 1956:0.13736056 #
-0.44005689097851302671315920633788 15:0.082760587 16:0.082760587 30:0.082760587 43:0.082760587 44:0.082760587 51:0.082760587 53:0.082760587 54:0.082760587 63:0.082760587 77:0.082760587 91:0.082760587 99:0.082760587 113:0.082760587 130:0.082760587 138:0.082760587 139:0.082760587 149:0.082760587 192:0.082760587 199:0.082760587 206:0.082760587 263:0.082760587 267:0.082760587 268:0.082760587 270:0.082760587 282:0.082760587 313:0.082760587 326:0.082760587 328:0.082760587 329:0.082760587 345:0.082760587 351:0.082760587 357:0.082760587 381:0.082760587 392:0.082760587 413:0.082760587 415:0.082760587 418:0.082760587 424:0.082760587 456:0.082760587 479:0.082760587 483:0.082760587 554:0.082760587 557:0.082760587 562:0.082760587 597:0.082760587 608:0.082760587 614:0.082760587 642:0.082760587 658:0.082760587 672:0.082760587 673:0.082760587 679:0.082760587 709:0.082760587 722:0.082760587 725:0.082760587 736:0.082760587 741:0.082760587 745:0.082760587 749:0.082760587 757:0.082760587 763:0.082760587 811:0.082760587 853:0.082760587 854:0.082760587 872:0.082760587 878:0.082760587 885:0.082760587 904:0.082760587 905:0.082760587 919:0.082760587 931:0.082760587 954:0.082760587 956:0.082760587 957:0.082760587 963:0.082760587 976:0.082760587 978:0.082760587 986:0.082760587 1003:0.082760587 1004:0.082760587 1015:0.082760587 1042:0.082760587 1051:0.082760587 1057:0.082760587 1070:0.082760587 1083:0.082760587 1167:0.082760587 1169:0.082760587 1171:0.082760587 1188:0.082760587 1191:0.082760587 1201:0.082760587 1204:0.082760587 1210:0.082760587 1220:0.082760587 1225:0.082760587 1231:0.082760587 1245:0.082760587 1256:0.082760587 1326:0.082760587 1328:0.082760587 1331:0.082760587 1345:0.082760587 1359:0.082760587 1379:0.082760587 1381:0.082760587 1398:0.082760587 1409:0.082760587 1452:0.082760587 1463:0.082760587 1464:0.082760587 1471:0.082760587 1477:0.082760587 1535:0.082760587 1541:0.082760587 1548:0.082760587 1562:0.082760587 1580:0.082760587 1616:0.082760587 1618:0.082760587 1620:0.082760587 1630:0.082760587 1646:0.082760587 1680:0.082760587 1684:0.082760587 1692:0.082760587 1711:0.082760587 1727:0.082760587 1737:0.082760587 1746:0.082760587 1750:0.082760587 1775:0.082760587 1794:0.082760587 1814:0.082760587 1816:0.082760587 1844:0.082760587 1851:0.082760587 1853:0.082760587 1869:0.082760587 1898:0.082760587 1899:0.082760587 1927:0.082760587 1937:0.082760587 1962:0.082760587 1988:0.082760587 1998:0.082760587 #
-0.048456275509806141787993993830241 2:0.10153462 6:0.10153462 44:0.10153462 61:0.10153462 63:0.10153462 76:0.10153462 77:0.10153462 88:0.10153462 103:0.10153462 105:0.10153462 134:0.10153462 138:0.10153462 139:0.10153462 143:0.10153462 160:0.10153462 198:0.10153462 217:0.10153462 247:0.10153462 298:0.10153462 332:0.10153462 339:0.10153462 344:0.10153462 351:0.10153462 388:0.10153462 402:0.10153462 416:0.10153462 455:0.10153462 465:0.10153462 479:0.10153462 606:0.10153462 613:0.10153462 635:0.10153462 645:0.10153462 649:0.10153462 672:0.10153462 708:0.10153462 713:0.10153462 730:0.10153462 749:0.10153462 769:0.10153462 782:0.10153462 836:0.10153462 845:0.10153462 870:0.10153462 887:0.10153462 954:0.10153462 963:0.10153462 986:0.10153462 993:0.10153462 995:0.10153462 1004:0.10153462 1033:0.10153462 1057:0.10153462 1081:0.10153462 1083:0.10153462 1156:0.10153462 1188:0.10153462 1226:0.10153462 1281:0.10153462 1296:0.10153462 1305:0.10153462 1310:0.10153462 1328:0.10153462 1353:0.10153462 1381:0.10153462 1428:0.10153462 1437:0.10153462 1464:0.10153462 1468:0.10153462 1471:0.10153462 1489:0.10153462 1503:0.10153462 1515:0.10153462 1535:0.10153462 1580:0.10153462 1594:0.10153462 1618:0.10153462 1638:0.10153462 1673:0.10153462 1684:0.10153462 1693:0.10153462 1705:0.10153462 1711:0.10153462 1727:0.10153462 1729:0.10153462 1741:0.10153462 1823:0.10153462 1825:0.10153462 1853:0.10153462 1873:0.10153462 1877:0.10153462 1903:0.10153462 1904:0.10153462 1912:0.10153462 1960:0.10153462 1962:0.10153462 1998:0.10153462 #
-0.77343918514876841552307951133116 88:0.13130644 91:0.13130644 92:0.13130644 108:0.13130644 134:0.13130644 138:0.13130644 152:0.13130644 160:0.13130644 162:0.13130644 255:0.13130644 309:0.13130644 351:0.13130644 357:0.13130644 359:0.13130644 424:0.13130644 497:0.13130644 504:0.13130644 535:0.13130644 562:0.13130644 568:0.13130644 578:0.13130644 608:0.13130644 749:0.13130644 791:0.13130644 797:0.13130644 845:0.13130644 846:0.13130644 872:0.13130644 879:0.13130644 885:0.13130644 1004:0.13130644 1015:0.13130644 1033:0.13130644 1169:0.13130644 1255:0.13130644 1258:0.13130644 1305:0.13130644 1336:0.13130644 1347:0.13130644 1379:0.13130644 1419:0.13130644 1464:0.13130644 1477:0.13130644 1602:0.13130644 1603:0.13130644 1625:0.13130644 1685:0.13130644 1728:0.13130644 1734:0.13130644 1737:0.13130644 1750:0.13130644 1756:0.13130644 1765:0.13130644 1796:0.13130644 1822:0.13130644 1848:0.13130644 1972:0.13130644 1988:0.13130644 #
1 19:0.13608277 43:0.13608277 61:0.13608277 64:0.13608277 69:0.13608277 73:0.13608277 80:0.13608277 88:0.13608277 93:0.13608277 103:0.13608277 122:0.13608277 138:0.13608277 139:0.13608277 160:0.13608277 246:0.13608277 300:0.13608277 314:0.13608277 342:0.13608277 357:0.13608277 360:0.13608277 398:0.13608277 413:0.13608277 443:0.13608277 456:0.13608277 477:0.13608277 531:0.13608277 546:0.13608277 639:0.13608277 648:0.13608277 758:0.13608277 763:0.13608277 795:0.13608277 839:0.13608277 855:0.13608277 877:0.13608277 963:0.13608277 1013:0.13608277 1092:0.13608277 1183:0.13608277 1417:0.13608277 1438:0.13608277 1453:0.13608277 1498:0.13608277 1535:0.13608277 1616:0.13608277 1620:0.13608277 1711:0.13608277 1741:0.13608277 1787:0.13608277 1849:0.13608277 1853:0.13608277 1867:0.13608277 1960:0.13608277 1988:0.13608277 #
1 77:0.1490712 105:0.1490712 138:0.1490712 160:0.1490712 202:0.1490712 448:0.1490712 456:0.1490712 476:0.1490712 531:0.1490712 627:0.1490712 686:0.1490712 719:0.1490712 722:0.1490712 726:0.1490712 749:0.1490712 811:0.1490712 922:0.1490712 963:0.1490712 982:0.1490712 1004:0.1490712 1035:0.1490712 1057:0.1490712 1059:0.1490712 1126:0.1490712 1169:0.1490712 1183:0.1490712 1345:0.1490712 1398:0.1490712 1438:0.1490712 1450:0.1490712 1535:0.1490712 1618:0.1490712 1655:0.1490712 1670:0.1490712 1694:0.1490712 1711:0.1490712 1727:0.1490712 1746:0.1490712 1748:0.1490712 1753:0.1490712 1785:0.1490712 1840:0.1490712 1894:0.1490712 1927:0.1490712 1956:0.1490712 #
-0.95193434749706062891760893762694 30:0.13363062 88:0.13363062 94:0.13363062 99:0.13363062 105:0.13363062 139:0.13363062 160:0.13363062 168:0.13363062 191:0.13363062 263:0.13363062 267:0.13363062 351:0.13363062 357:0.13363062 420:0.13363062 546:0.13363062 608:0.13363062 627:0.13363062 637:0.13363062 652:0.13363062 664:0.13363062 691:0.13363062 714:0.13363062 722:0.13363062 725:0.13363062 729:0.13363062 749:0.13363062 807:0.13363062 915:0.13363062 926:0.13363062 960:0.13363062 961:0.13363062 972:0.13363062 987:0.13363062 1015:0.13363062 1201:0.13363062 1277:0.13363062 1281:0.13363062 1305:0.13363062 1326:0.13363062 1416:0.13363062 1439:0.13363062 1442:0.13363062 1471:0.13363062 1479:0.13363062 1618:0.13363062 1630:0.13363062 1643:0.13363062 1667:0.13363062 1670:0.13363062 1687:0.13363062 1728:0.13363062 1741:0.13363062 1831:0.13363062 1844:0.13363062 1848:0.13363062 1851:0.13363062 #
0.15761086071258853524845733318216 61:0.19245009 77:0.19245009 100:0.19245009 120:0.19245009 138:0.19245009 160:0.19245009 193:0.19245009 263:0.19245009 267:0.19245009 309:0.19245009 313:0.19245009 469:0.19245009 543:0.19245009 556:0.19245009 572:0.19245009 655:0.19245009 825:0.19245009 845:0.19245009 987:0.19245009 1033:0.19245009 1265:0.19245009 1353:0.19245009 1419:0.19245009 1489:0.19245009 1670:0.19245009 1829:0.19245009 1853:0.19245009 #
0.30927769898893553435215153513127 36:0.12909944 44:0.12909944 93:0.12909944 144:0.12909944 153:0.12909944 162:0.12909944 270:0.12909944 309:0.12909944 316:0.12909944 340:0.12909944 351:0.12909944 353:0.12909944 360:0.12909944 393:0.12909944 424:0.12909944 434:0.12909944 456:0.12909944 512:0.12909944 537:0.12909944 546:0.12909944 568:0.12909944 600:0.12909944 645:0.12909944 651:0.12909944 677:0.12909944 711:0.12909944 726:0.12909944 743:0.12909944 751:0.12909944 879:0.12909944 925:0.12909944 947:0.12909944 976:0.12909944 987:0.12909944 996:0.12909944 1001:0.12909944 1004:0.12909944 1033:0.12909944 1057:0.12909944 1143:0.12909944 1175:0.12909944 1201:0.12909944 1251:0.12909944 1298:0.12909944 1310:0.12909944 1328:0.12909944 1344:0.12909944 1345:0.12909944 1403:0.12909944 1452:0.12909944 1471:0.12909944 1505:0.12909944 1512:0.12909944 1525:0.12909944 1535:0.12909944 1629:0.12909944 1734:0.12909944 1831:0.12909944 1848:0.12909944 1853:0.12909944 #
-0.13888777039858732353927450731135 40:0.1490712 77:0.1490712 160:0.1490712 253:0.1490712 263:0.1490712 267:0.1490712 351:0.1490712 396:0.1490712 405:0.1490712 456:0.1490712 477:0.1490712 546:0.1490712 555:0.1490712 614:0.1490712 749:0.1490712 845:0.1490712 954:0.1490712 955:0.1490712 987:0.1490712 1083:0.1490712 1165:0.1490712 1199:0.1490712 1251:0.1490712 1261:0.1490712 1305:0.1490712 1316:0.1490712 1351:0.1490712 1353:0.1490712 1463:0.1490712 1493:0.1490712 1498:0.1490712 1499:0.1490712 1525:0.1490712 1535:0.1490712 1685:0.1490712 1690:0.1490712 1792:0.1490712 1831:0.1490712 1853:0.1490712 1877:0.1490712 1910:0.1490712 1927:0.1490712 1951:0.1490712 1960:0.1490712 1972:0.1490712 #
-0.017896748886914042725448936721477 39:0.092057459 47:0.092057459 52:0.092057459 63:0.092057459 77:0.092057459 80:0.092057459 85:0.092057459 95:0.092057459 99:0.092057459 103:0.092057459 130:0.092057459 138:0.092057459 139:0.092057459 146:0.092057459 160:0.092057459 165:0.092057459 177:0.092057459 179:0.092057459 211:0.092057459 215:0.092057459 246:0.092057459 287:0.092057459 313:0.092057459 326:0.092057459 328:0.092057459 336:0.092057459 351:0.092057459 364:0.092057459 398:0.092057459 415:0.092057459 418:0.092057459 424:0.092057459 443:0.092057459 452:0.092057459 456:0.092057459 477:0.092057459 478:0.092057459 504:0.092057459 531:0.092057459 563:0.092057459 593:0.092057459 604:0.092057459 627:0.092057459 679:0.092057459 706:0.092057459 709:0.092057459 723:0.092057459 726:0.092057459 733:0.092057459 749:0.092057459 757:0.092057459 763:0.092057459 769:0.092057459 772:0.092057459 807:0.092057459 825:0.092057459 832:0.092057459 836:0.092057459 845:0.092057459 846:0.092057459 860:0.092057459 869:0.092057459 885:0.092057459 925:0.092057459 930:0.092057459 954:0.092057459 963:0.092057459 976:0.092057459 987:0.092057459 1004:0.092057459 1033:0.092057459 1065:0.092057459 1083:0.092057459 1119:0.092057459 1149:0.092057459 1155:0.092057459 1168:0.092057459 1185:0.092057459 1190:0.092057459 1200:0.092057459 1216:0.092057459 1273:0.092057459 1281:0.092057459 1305:0.092057459 1318:0.092057459 1328:0.092057459 1353:0.092057459 1390:0.092057459 1433:0.092057459 1434:0.092057459 1452:0.092057459 1453:0.092057459 1499:0.092057459 1535:0.092057459 1542:0.092057459 1567:0.092057459 1591:0.092057459 1618:0.092057459 1620:0.092057459 1647:0.092057459 1656:0.092057459 1661:0.092057459 1667:0.092057459 1689:0.092057459 1724:0.092057459 1727:0.092057459 1741:0.092057459 1767:0.092057459 1785:0.092057459 1811:0.092057459 1843:0.092057459 1855:0.092057459 1877:0.092057459 1927:0.092057459 1956:0.092057459 1972:0.092057459 1984:0.092057459 1988:0.092057459 #
-1 44:0.15811388 135:0.15811388 138:0.15811388 160:0.15811388 286:0.15811388 424:0.15811388 463:0.15811388 527:0.15811388 548:0.15811388 633:0.15811388 645:0.15811388 655:0.15811388 667:0.15811388 672:0.15811388 763:0.15811388 836:0.15811388 845:0.15811388 963:0.15811388 1010:0.15811388 1035:0.15811388 1165:0.15811388 1168:0.15811388 1197:0.15811388 1228:0.15811388 1256:0.15811388 1291:0.15811388 1305:0.15811388 1353:0.15811388 1464:0.15811388 1535:0.15811388 1603:0.15811388 1698:0.15811388 1787:0.15811388 1829:0.15811388 1851:0.15811388 1891:0.15811388 1942:0.15811388 1956:0.15811388 1972:0.15811388 1980:0.15811388 #
-0.44534702373648366036107404397626 5:0.16012815 103:0.16012815 160:0.16012815 313:0.16012815 390:0.16012815 415:0.16012815 543:0.16012815 546:0.16012815 603:0.16012815 608:0.16012815 645:0.16012815 651:0.16012815 725:0.16012815 811:0.16012815 825:0.16012815 834:0.16012815 845:0.16012815 846:0.16012815 877:0.16012815 900:0.16012815 901:0.16012815 908:0.16012815 920:0.16012815 936:0.16012815 955:0.16012815 963:0.16012815 1015:0.16012815 1137:0.16012815 1165:0.16012815 1178:0.16012815 1305:0.16012815 1422:0.16012815 1453:0.16012815 1476:0.16012815 1489:0.16012815 1598:0.16012815 1620:0.16012815 1711:0.16012815 1972:0.16012815 #
-0.33981835193409998252533910090278 99:0.19245009 160:0.19245009 167:0.19245009 169:0.19245009 192:0.19245009 241:0.19245009 256:0.19245009 313:0.19245009 546:0.19245009 705:0.19245009 825:0.19245009 845:0.19245009 961:0.19245009 1033:0.19245009 1085:0.19245009 1119:0.19245009 1321:0.19245009 1422:0.19245009 1464:0.19245009 1535:0.19245009 1600:0.19245009 1615:0.19245009 1670:0.19245009 1742:0.19245009 1765:0.19245009 1927:0.19245009 1972:0.19245009 #
1 77:0.18257418 85:0.18257418 219:0.18257418 313:0.18257418 328:0.18257418 351:0.18257418 357:0.18257418 424:0.18257418 556:0.18257418 659:0.18257418 772:0.18257418 986:0.18257418 1004:0.18257418 1015:0.18257418 1028:0.18257418 1033:0.18257418 1057:0.18257418 1083:0.18257418 1303:0.18257418 1331:0.18257418 1333:0.18257418 1470:0.18257418 1603:0.18257418 1684:0.18257418 1727:0.18257418 1831:0.18257418 1844:0.18257418 1853:0.18257418 1920:0.18257418 1972:0.18257418 #
1 34:0.17149858 77:0.17149858 214:0.17149858 217:0.17149858 249:0.17149858 288:0.17149858 313:0.17149858 351:0.17149858 357:0.17149858 387:0.17149858 392:0.17149858 424:0.17149858 434:0.17149858 482:0.17149858 546:0.17149858 645:0.17149858 665:0.17149858 700:0.17149858 718:0.17149858 771:0.17149858 772:0.17149858 963:0.17149858 1015:0.17149858 1189:0.17149858 1412:0.17149858 1497:0.17149858 1618:0.17149858 1693:0.17149858 1727:0.17149858 1744:0.17149858 1921:0.17149858 1940:0.17149858 1956:0.17149858 1984:0.17149858 #
1 77:0.20412415 160:0.20412415 190:0.20412415 249:0.20412415 313:0.20412415 424:0.20412415 451:0.20412415 456:0.20412415 482:0.20412415 501:0.20412415 546:0.20412415 672:0.20412415 956:0.20412415 1032:0.20412415 1038:0.20412415 1047:0.20412415 1076:0.20412415 1221:0.20412415 1409:0.20412415 1618:0.20412415 1644:0.20412415 1737:0.20412415 1956:0.20412415 1980:0.20412415 #
-0.12872136664542319084425514574832 77:0.094072089 86:0.094072089 88:0.094072089 91:0.094072089 103:0.094072089 138:0.094072089 139:0.094072089 156:0.094072089 160:0.094072089 186:0.094072089 188:0.094072089 213:0.094072089 263:0.094072089 286:0.094072089 294:0.094072089 326:0.094072089 328:0.094072089 334:0.094072089 340:0.094072089 341:0.094072089 343:0.094072089 351:0.094072089 357:0.094072089 359:0.094072089 381:0.094072089 398:0.094072089 418:0.094072089 424:0.094072089 456:0.094072089 463:0.094072089 465:0.094072089 511:0.094072089 512:0.094072089 531:0.094072089 539:0.094072089 604:0.094072089 633:0.094072089 642:0.094072089 651:0.094072089 672:0.094072089 709:0.094072089 725:0.094072089 749:0.094072089 772:0.094072089 781:0.094072089 784:0.094072089 815:0.094072089 847:0.094072089 873:0.094072089 887:0.094072089 888:0.094072089 901:0.094072089 916:0.094072089 954:0.094072089 963:0.094072089 972:0.094072089 987:0.094072089 993:0.094072089 1004:0.094072089 1009:0.094072089 1015:0.094072089 1033:0.094072089 1059:0.094072089 1083:0.094072089 1100:0.094072089 1106:0.094072089 1167:0.094072089 1169:0.094072089 1182:0.094072089 1184:0.094072089 1190:0.094072089 1195:0.094072089 1197:0.094072089 1233:0.094072089 1328:0.094072089 1464:0.094072089 1471:0.094072089 1473:0.094072089 1482:0.094072089 1492:0.094072089 1498:0.094072089 1535:0.094072089 1537:0.094072089 1602:0.094072089 1603:0.094072089 1618:0.094072089 1620:0.094072089 1621:0.094072089 1670:0.094072089 1684:0.094072089 1689:0.094072089 1704:0.094072089 1705:0.094072089 1727:0.094072089 1741:0.094072089 1756:0.094072089 1791:0.094072089 1797:0.094072089 1803:0.094072089 1806:0.094072089 1822:0.094072089 1826:0.094072089 1844:0.094072089 1851:0.094072089 1853:0.094072089 1877:0.094072089 1888:0.094072089 1891:0.094072089 1898:0.094072089 1956:0.094072089 1960:0.094072089 1972:0.094072089 1988:0.094072089 #
1 63:0.14142136 77:0.14142136 113:0.14142136 160:0.14142136 233:0.14142136 265:0.14142136 294:0.14142136 309:0.14142136 351:0.14142136 357:0.14142136 415:0.14142136 424:0.14142136 515:0.14142136 546:0.14142136 608:0.14142136 645:0.14142136 647:0.14142136 673:0.14142136 725:0.14142136 751:0.14142136 845:0.14142136 849:0.14142136 872:0.14142136 955:0.14142136 1006:0.14142136 1015:0.14142136 1033:0.14142136 1072:0.14142136 1083:0.14142136 1159:0.14142136 1169:0.14142136 1220:0.14142136 1233:0.14142136 1277:0.14142136 1305:0.14142136 1327:0.14142136 1404:0.14142136 1452:0.14142136 1512:0.14142136 1532:0.14142136 1693:0.14142136 1709:0.14142136 1727:0.14142136 1805:0.14142136 1853:0.14142136 1875:0.14142136 1898:0.14142136 1914:0.14142136 1919:0.14142136 1956:0.14142136 #
-0.56424363529900156688512424807413 53:0.26726124 249:0.26726124 265:0.26726124 293:0.26726124 424:0.26726124 482:0.26726124 588:0.26726124 665:0.26726124 976:0.26726124 1028:0.26726124 1033:0.26726124 1646:0.26726124 1670:0.26726124 1848:0.26726124 #
-1 69:0.15811388 77:0.15811388 93:0.15811388 134:0.15811388 151:0.15811388 187:0.15811388 267:0.15811388 351:0.15811388 357:0.15811388 387:0.15811388 424:0.15811388 437:0.15811388 481:0.15811388 504:0.15811388 546:0.15811388 608:0.15811388 645:0.15811388 648:0.15811388 686:0.15811388 741:0.15811388 781:0.15811388 823:0.15811388 846:0.15811388 872:0.15811388 963:0.15811388 1015:0.15811388 1038:0.15811388 1272:0.15811388 1381:0.15811388 1498:0.15811388 1535:0.15811388 1670:0.15811388 1693:0.15811388 1727:0.15811388 1737:0.15811388 1898:0.15811388 1904:0.15811388 1909:0.15811388 1921:0.15811388 1962:0.15811388 #
0.087227888134299907951785257864685 52:0.14433756 95:0.14433756 160:0.14433756 185:0.14433756 237:0.14433756 288:0.14433756 293:0.14433756 359:0.14433756 396:0.14433756 424:0.14433756 443:0.14433756 456:0.14433756 477:0.14433756 531:0.14433756 537:0.14433756 556:0.14433756 608:0.14433756 651:0.14433756 686:0.14433756 701:0.14433756 709:0.14433756 726:0.14433756 829:0.14433756 845:0.14433756 913:0.14433756 927:0.14433756 987:0.14433756 1015:0.14433756 1171:0.14433756 1182:0.14433756 1267:0.14433756 1305:0.14433756 1328:0.14433756 1353:0.14433756 1386:0.14433756 1452:0.14433756 1464:0.14433756 1478:0.14433756 1535:0.14433756 1582:0.14433756 1596:0.14433756 1656:0.14433756 1684:0.14433756 1705:0.14433756 1742:0.14433756 1853:0.14433756 1897:0.14433756 1956:0.14433756 #
-0.28062712982756782276183571411821 53:0.16222142 63:0.16222142 73:0.16222142 77:0.16222142 83:0.16222142 138:0.16222142 160:0.16222142 192:0.16222142 214:0.16222142 233:0.16222142 313:0.16222142 340:0.16222142 351:0.16222142 357:0.16222142 424:0.16222142 558:0.16222142 608:0.16222142 645:0.16222142 700:0.16222142 741:0.16222142 743:0.16222142 877:0.16222142 954:0.16222142 1004:0.16222142 1083:0.16222142 1123:0.16222142 1464:0.16222142 1630:0.16222142 1711:0.16222142 1727:0.16222142 1805:0.16222142 1839:0.16222142 1853:0.16222142 1898:0.16222142 1920:0.16222142 1921:0.16222142 1954:0.16222142 1956:0.16222142 #
-0.39255560498018909898476636044506 10:0.11396058 13:0.11396058 39:0.11396058 53:0.11396058 91:0.11396058 93:0.11396058 123:0.11396058 138:0.11396058 139:0.11396058 158:0.11396058 160:0.11396058 250:0.11396058 253:0.11396058 263:0.11396058 265:0.11396058 286:0.11396058 293:0.11396058 305:0.11396058 313:0.11396058 351:0.11396058 375:0.11396058 398:0.11396058 418:0.11396058 424:0.11396058 456:0.11396058 506:0.11396058 583:0.11396058 597:0.11396058 656:0.11396058 661:0.11396058 672:0.11396058 726:0.11396058 738:0.11396058 749:0.11396058 825:0.11396058 827:0.11396058 845:0.11396058 875:0.11396058 883:0.11396058 905:0.11396058 921:0.11396058 936:0.11396058 954:0.11396058 961:0.11396058 963:0.11396058 987:0.11396058 993:0.11396058 1015:0.11396058 1083:0.11396058 1099:0.11396058 1159:0.11396058 1169:0.11396058 1216:0.11396058 1247:0.11396058 1265:0.11396058 1305:0.11396058 1436:0.11396058 1462:0.11396058 1464:0.11396058 1513:0.11396058 1605:0.11396058 1618:0.11396058 1640:0.11396058 1657:0.11396058 1711:0.11396058 1725:0.11396058 1727:0.11396058 1741:0.11396058 1800:0.11396058 1831:0.11396058 1851:0.11396058 1896:0.11396058 1921:0.11396058 1956:0.11396058 1960:0.11396058 1962:0.11396058 1984:0.11396058 #
1 63:0.14285715 88:0.14285715 126:0.14285715 160:0.14285715 161:0.14285715 163:0.14285715 202:0.14285715 326:0.14285715 342:0.14285715 440:0.14285715 456:0.14285715 466:0.14285715 504:0.14285715 508:0.14285715 543:0.14285715 645:0.14285715 722:0.14285715 725:0.14285715 749:0.14285715 767:0.14285715 807:0.14285715 823:0.14285715 845:0.14285715 954:0.14285715 976:0.14285715 1013:0.14285715 1165:0.14285715 1305:0.14285715 1310:0.14285715 1353:0.14285715 1436:0.14285715 1438:0.14285715 1455:0.14285715 1464:0.14285715 1504:0.14285715 1535:0.14285715 1589:0.14285715 1620:0.14285715 1626:0.14285715 1705:0.14285715 1727:0.14285715 1765:0.14285715 1785:0.14285715 1833:0.14285715 1843:0.14285715 1853:0.14285715 1925:0.14285715 1960:0.14285715 1962:0.14285715 #
1 30:0.22941573 160:0.22941573 238:0.22941573 387:0.22941573 456:0.22941573 749:0.22941573 752:0.22941573 770:0.22941573 829:0.22941573 845:0.22941573 1179:0.22941573 1305:0.22941573 1353:0.22941573 1535:0.22941573 1684:0.22941573 1802:0.22941573 1848:0.22941573 1877:0.22941573 1878:0.22941573 #
1 48:0.15249857 134:0.15249857 160:0.15249857 177:0.15249857 289:0.15249857 313:0.15249857 335:0.15249857 342:0.15249857 420:0.15249857 495:0.15249857 543:0.15249857 546:0.15249857 569:0.15249857 572:0.15249857 665:0.15249857 765:0.15249857 778:0.15249857 825:0.15249857 845:0.15249857 869:0.15249857 873:0.15249857 963:0.15249857 972:0.15249857 1033:0.15249857 1053:0.15249857 1256:0.15249857 1305:0.15249857 1315:0.15249857 1353:0.15249857 1362:0.15249857 1535:0.15249857 1543:0.15249857 1654:0.15249857 1684:0.15249857 1701:0.15249857 1748:0.15249857 1797:0.15249857 1813:0.15249857 1829:0.15249857 1831:0.15249857 1833:0.15249857 1926:0.15249857 1981:0.15249857 #
0.88515514727537092376508098823251 30:0.087370403 53:0.087370403 63:0.087370403 90:0.087370403 92:0.087370403 99:0.087370403 117:0.087370403 123:0.087370403 130:0.087370403 138:0.087370403 139:0.087370403 160:0.087370403 167:0.087370403 176:0.087370403 205:0.087370403 232:0.087370403 263:0.087370403 267:0.087370403 268:0.087370403 286:0.087370403 300:0.087370403 310:0.087370403 326:0.087370403 328:0.087370403 336:0.087370403 340:0.087370403 351:0.087370403 353:0.087370403 357:0.087370403 359:0.087370403 381:0.087370403 398:0.087370403 415:0.087370403 418:0.087370403 424:0.087370403 451:0.087370403 455:0.087370403 456:0.087370403 477:0.087370403 537:0.087370403 559:0.087370403 571:0.087370403 572:0.087370403 608:0.087370403 627:0.087370403 672:0.087370403 673:0.087370403 715:0.087370403 749:0.087370403 757:0.087370403 772:0.087370403 807:0.087370403 808:0.087370403 824:0.087370403 869:0.087370403 898:0.087370403 904:0.087370403 905:0.087370403 920:0.087370403 921:0.087370403 922:0.087370403 954:0.087370403 963:0.087370403 976:0.087370403 982:0.087370403 987:0.087370403 1004:0.087370403 1040:0.087370403 1057:0.087370403 1083:0.087370403 1119:0.087370403 1149:0.087370403 1169:0.087370403 1188:0.087370403 1198:0.087370403 1203:0.087370403 1249:0.087370403 1261:0.087370403 1271:0.087370403 1305:0.087370403 1315:0.087370403 1321:0.087370403 1328:0.087370403 1336:0.087370403 1347:0.087370403 1434:0.087370403 1438:0.087370403 1443:0.087370403 1464:0.087370403 1471:0.087370403 1473:0.087370403 1498:0.087370403 1513:0.087370403 1522:0.087370403 1526:0.087370403 1535:0.087370403 1596:0.087370403 1606:0.087370403 1618:0.087370403 1624:0.087370403 1646:0.087370403 1665:0.087370403 1670:0.087370403 1675:0.087370403 1676:0.087370403 1692:0.087370403 1722:0.087370403 1741:0.087370403 1765:0.087370403 1776:0.087370403 1786:0.087370403 1811:0.087370403 1848:0.087370403 1850:0.087370403 1855:0.087370403 1864:0.087370403 1877:0.087370403 1878:0.087370403 1892:0.087370403 1898:0.087370403 1899:0.087370403 1904:0.087370403 1910:0.087370403 1921:0.087370403 1927:0.087370403 1951:0.087370403 1956:0.087370403 1960:0.087370403 1966:0.087370403 1988:0.087370403 1990:0.087370403 #
1 381:0.37796447 469:0.37796447 1535:0.37796447 1603:0.37796447 1670:0.37796447 1876:0.37796447 1972:0.37796447 #
-0.16273269548109040028016636370012 9:0.19611613 30:0.19611613 122:0.19611613 134:0.19611613 139:0.19611613 185:0.19611613 308:0.19611613 546:0.19611613 672:0.19611613 675:0.19611613 714:0.19611613 1006:0.19611613 1033:0.19611613 1190:0.19611613 1310:0.19611613 1328:0.19611613 1511:0.19611613 1535:0.19611613 1617:0.19611613 1715:0.19611613 1727:0.19611613 1833:0.19611613 1851:0.19611613 1908:0.19611613 1941:0.19611613 1956:0.19611613 #
-1 244:0.26726124 252:0.26726124 342:0.26726124 819:0.26726124 848:0.26726124 927:0.26726124 982:0.26726124 1029:0.26726124 1290:0.26726124 1596:0.26726124 1670:0.26726124 1797:0.26726124 1831:0.26726124 1833:0.26726124 #
-0.34280038564385301169679109989374 342:0.33333334 469:0.33333334 575:0.33333334 995:0.33333334 1502:0.33333334 1670:0.33333334 1844:0.33333334 1926:0.33333334 1972:0.33333334 #
-1 134:0.15430336 138:0.15430336 156:0.15430336 160:0.15430336 217:0.15430336 267:0.15430336 272:0.15430336 288:0.15430336 328:0.15430336 491:0.15430336 686:0.15430336 706:0.15430336 772:0.15430336 845:0.15430336 872:0.15430336 873:0.15430336 987:0.15430336 1033:0.15430336 1189:0.15430336 1197:0.15430336 1282:0.15430336 1305:0.15430336 1308:0.15430336 1328:0.15430336 1338:0.15430336 1339:0.15430336 1353:0.15430336 1387:0.15430336 1408:0.15430336 1464:0.15430336 1497:0.15430336 1535:0.15430336 1603:0.15430336 1605:0.15430336 1670:0.15430336 1689:0.15430336 1797:0.15430336 1851:0.15430336 1927:0.15430336 1956:0.15430336 1972:0.15430336 1995:0.15430336 #
-0.42694393040166800368240274110576 80:0.15811388 88:0.15811388 159:0.15811388 160:0.15811388 196:0.15811388 351:0.15811388 381:0.15811388 398:0.15811388 413:0.15811388 424:0.15811388 455:0.15811388 485:0.15811388 495:0.15811388 621:0.15811388 749:0.15811388 827:0.15811388 833:0.15811388 900:0.15811388 922:0.15811388 963:0.15811388 1015:0.15811388 1033:0.15811388 1062:0.15811388 1083:0.15811388 1305:0.15811388 1310:0.15811388 1326:0.15811388 1439:0.15811388 1471:0.15811388 1535:0.15811388 1670:0.15811388 1684:0.15811388 1763:0.15811388 1806:0.15811388 1853:0.15811388 1865:0.15811388 1887:0.15811388 1914:0.15811388 1919:0.15811388 1986:0.15811388 #
0.56611298808307342067536183094489 51:0.15617377 91:0.15617377 95:0.15617377 200:0.15617377 263:0.15617377 309:0.15617377 356:0.15617377 424:0.15617377 545:0.15617377 556:0.15617377 635:0.15617377 672:0.15617377 691:0.15617377 741:0.15617377 811:0.15617377 825:0.15617377 887:0.15617377 1001:0.15617377 1004:0.15617377 1067:0.15617377 1159:0.15617377 1185:0.15617377 1204:0.15617377 1210:0.15617377 1239:0.15617377 1344:0.15617377 1427:0.15617377 1432:0.15617377 1453:0.15617377 1481:0.15617377 1516:0.15617377 1555:0.15617377 1646:0.15617377 1685:0.15617377 1722:0.15617377 1799:0.15617377 1844:0.15617377 1848:0.15617377 1898:0.15617377 1921:0.15617377 1972:0.15617377 #
1 325:0.17960531 351:0.17960531 357:0.17960531 417:0.17960531 455:0.17960531 465:0.17960531 503:0.17960531 540:0.17960531 574:0.17960531 608:0.17960531 672:0.17960531 714:0.17960531 726:0.17960531 742:0.17960531 808:0.17960531 811:0.17960531 819:0.17960531 901:0.17960531 919:0.17960531 931:0.17960531 976:0.17960531 1015:0.17960531 1103:0.17960531 1168:0.17960531 1326:0.17960531 1433:0.17960531 1464:0.17960531 1750:0.17960531 1851:0.17960531 1867:0.17960531 1978:0.17960531 #
1 42:0.15075567 53:0.15075567 63:0.15075567 77:0.15075567 136:0.15075567 138:0.15075567 139:0.15075567 210:0.15075567 245:0.15075567 342:0.15075567 351:0.15075567 357:0.15075567 381:0.15075567 387:0.15075567 424:0.15075567 525:0.15075567 546:0.15075567 558:0.15075567 568:0.15075567 587:0.15075567 612:0.15075567 665:0.15075567 741:0.15075567 756:0.15075567 976:0.15075567 1015:0.15075567 1067:0.15075567 1122:0.15075567 1167:0.15075567 1328:0.15075567 1336:0.15075567 1422:0.15075567 1464:0.15075567 1497:0.15075567 1535:0.15075567 1555:0.15075567 1646:0.15075567 1684:0.15075567 1693:0.15075567 1805:0.15075567 1864:0.15075567 1912:0.15075567 1936:0.15075567 1972:0.15075567 #
1 13:0.12216944 21:0.12216944 53:0.12216944 63:0.12216944 69:0.12216944 77:0.12216944 88:0.12216944 90:0.12216944 257:0.12216944 263:0.12216944 267:0.12216944 278:0.12216944 288:0.12216944 293:0.12216944 313:0.12216944 326:0.12216944 357:0.12216944 424:0.12216944 436:0.12216944 447:0.12216944 456:0.12216944 504:0.12216944 546:0.12216944 558:0.12216944 592:0.12216944 608:0.12216944 645:0.12216944 655:0.12216944 659:0.12216944 718:0.12216944 723:0.12216944 733:0.12216944 741:0.12216944 749:0.12216944 778:0.12216944 836:0.12216944 954:0.12216944 963:0.12216944 976:0.12216944 1015:0.12216944 1078:0.12216944 1083:0.12216944 1168:0.12216944 1189:0.12216944 1190:0.12216944 1260:0.12216944 1326:0.12216944 1331:0.12216944 1406:0.12216944 1414:0.12216944 1438:0.12216944 1441:0.12216944 1464:0.12216944 1473:0.12216944 1620:0.12216944 1684:0.12216944 1687:0.12216944 1727:0.12216944 1736:0.12216944 1844:0.12216944 1848:0.12216944 1851:0.12216944 1898:0.12216944 1920:0.12216944 1927:0.12216944 1956:0.12216944 1980:0.12216944 #
1 3:0.12598816 28:0.12598816 63:0.12598816 94:0.12598816 142:0.12598816 143:0.12598816 149:0.12598816 151:0.12598816 160:0.12598816 200:0.12598816 216:0.12598816 232:0.12598816 239:0.12598816 252:0.12598816 263:0.12598816 288:0.12598816 313:0.12598816 351:0.12598816 357:0.12598816 424:0.12598816 431:0.12598816 444:0.12598816 602:0.12598816 608:0.12598816 672:0.12598816 751:0.12598816 763:0.12598816 769:0.12598816 778:0.12598816 807:0.12598816 808:0.12598816 813:0.12598816 825:0.12598816 845:0.12598816 883:0.12598816 963:0.12598816 976:0.12598816 982:0.12598816 1015:0.12598816 1026:0.12598816 1083:0.12598816 1085:0.12598816 1161:0.12598816 1181:0.12598816 1285:0.12598816 1305:0.12598816 1314:0.12598816 1328:0.12598816 1440:0.12598816 1515:0.12598816 1596:0.12598816 1618:0.12598816 1670:0.12598816 1681:0.12598816 1711:0.12598816 1739:0.12598816 1817:0.12598816 1831:0.12598816 1844:0.12598816 1848:0.12598816 1907:0.12598816 1956:0.12598816 1987:0.12598816 #
-0.22642269050395069651671065003029 35:0.1132277 38:0.1132277 63:0.1132277 90:0.1132277 139:0.1132277 160:0.1132277 181:0.1132277 263:0.1132277 313:0.1132277 319:0.1132277 340:0.1132277 351:0.1132277 424:0.1132277 427:0.1132277 443:0.1132277 456:0.1132277 520:0.1132277 548:0.1132277 558:0.1132277 645:0.1132277 672:0.1132277 677:0.1132277 698:0.1132277 700:0.1132277 726:0.1132277 752:0.1132277 762:0.1132277 825:0.1132277 845:0.1132277 870:0.1132277 884:0.1132277 919:0.1132277 954:0.1132277 963:0.1132277 987:0.1132277 995:0.1132277 1004:0.1132277 1010:0.1132277 1015:0.1132277 1057:0.1132277 1110:0.1132277 1142:0.1132277 1159:0.1132277 1188:0.1132277 1190:0.1132277 1256:0.1132277 1301:0.1132277 1305:0.1132277 1310:0.1132277 1326:0.1132277 1464:0.1132277 1477:0.1132277 1498:0.1132277 1502:0.1132277 1508:0.1132277 1535:0.1132277 1557:0.1132277 1602:0.1132277 1618:0.1132277 1650:0.1132277 1651:0.1132277 1727:0.1132277 1728:0.1132277 1754:0.1132277 1805:0.1132277 1815:0.1132277 1848:0.1132277 1868:0.1132277 1878:0.1132277 1898:0.1132277 1920:0.1132277 1921:0.1132277 1948:0.1132277 1950:0.1132277 1956:0.1132277 1960:0.1132277 1975:0.1132277 1988:0.1132277 #
0.7572647845747354500289816314762 52:0.11043153 99:0.11043153 123:0.11043153 130:0.11043153 138:0.11043153 160:0.11043153 267:0.11043153 310:0.11043153 325:0.11043153 351:0.11043153 415:0.11043153 424:0.11043153 456:0.11043153 458:0.11043153 495:0.11043153 546:0.11043153 556:0.11043153 564:0.11043153 633:0.11043153 645:0.11043153 651:0.11043153 672:0.11043153 703:0.11043153 726:0.11043153 749:0.11043153 757:0.11043153 812:0.11043153 821:0.11043153 823:0.11043153 844:0.11043153 845:0.11043153 954:0.11043153 987:0.11043153 993:0.11043153 1004:0.11043153 1033:0.11043153 1035:0.11043153 1159:0.11043153 1168:0.11043153 1169:0.11043153 1183:0.11043153 1190:0.11043153 1198:0.11043153 1256:0.11043153 1260:0.11043153 1273:0.11043153 1277:0.11043153 1305:0.11043153 1308:0.11043153 1328:0.11043153 1353:0.11043153 1397:0.11043153 1403:0.11043153 1410:0.11043153 1453:0.11043153 1460:0.11043153 1464:0.11043153 1485:0.11043153 1526:0.11043153 1535:0.11043153 1606:0.11043153 1650:0.11043153 1659:0.11043153 1664:0.11043153 1668:0.11043153 1670:0.11043153 1675:0.11043153 1693:0.11043153 1727:0.11043153 1737:0.11043153 1773:0.11043153 1785:0.11043153 1822:0.11043153 1824:0.11043153 1843:0.11043153 1853:0.11043153 1855:0.11043153 1904:0.11043153 1914:0.11043153 1956:0.11043153 1962:0.11043153 1963:0.11043153 #
-1 30:0.15075567 53:0.15075567 58:0.15075567 77:0.15075567 99:0.15075567 190:0.15075567 272:0.15075567 313:0.15075567 326:0.15075567 351:0.15075567 357:0.15075567 374:0.15075567 387:0.15075567 424:0.15075567 456:0.15075567 525:0.15075567 584:0.15075567 627:0.15075567 741:0.15075567 749:0.15075567 873:0.15075567 901:0.15075567 954:0.15075567 986:0.15075567 1010:0.15075567 1058:0.15075567 1122:0.15075567 1265:0.15075567 1303:0.15075567 1331:0.15075567 1422:0.15075567 1571:0.15075567 1580:0.15075567 1618:0.15075567 1646:0.15075567 1727:0.15075567 1741:0.15075567 1831:0.15075567 1838:0.15075567 1853:0.15075567 1898:0.15075567 1934:0.15075567 1956:0.15075567 1960:0.15075567 #
-0.22638276500441750771486226767593 27:0.10660036 30:0.10660036 63:0.10660036 77:0.10660036 88:0.10660036 103:0.10660036 123:0.10660036 133:0.10660036 138:0.10660036 139:0.10660036 157:0.10660036 160:0.10660036 161:0.10660036 203:0.10660036 217:0.10660036 236:0.10660036 240:0.10660036 241:0.10660036 263:0.10660036 274:0.10660036 293:0.10660036 313:0.10660036 349:0.10660036 351:0.10660036 381:0.10660036 397:0.10660036 424:0.10660036 444:0.10660036 456:0.10660036 477:0.10660036 503:0.10660036 531:0.10660036 546:0.10660036 599:0.10660036 604:0.10660036 614:0.10660036 690:0.10660036 722:0.10660036 724:0.10660036 811:0.10660036 825:0.10660036 840:0.10660036 845:0.10660036 863:0.10660036 887:0.10660036 894:0.10660036 901:0.10660036 963:0.10660036 987:0.10660036 1016:0.10660036 1078:0.10660036 1103:0.10660036 1130:0.10660036 1157:0.10660036 1159:0.10660036 1169:0.10660036 1182:0.10660036 1189:0.10660036 1190:0.10660036 1220:0.10660036 1228:0.10660036 1237:0.10660036 1256:0.10660036 1305:0.10660036 1308:0.10660036 1326:0.10660036 1336:0.10660036 1453:0.10660036 1471:0.10660036 1477:0.10660036 1498:0.10660036 1620:0.10660036 1667:0.10660036 1668:0.10660036 1680:0.10660036 1712:0.10660036 1727:0.10660036 1728:0.10660036 1831:0.10660036 1853:0.10660036 1875:0.10660036 1878:0.10660036 1914:0.10660036 1929:0.10660036 1934:0.10660036 1956:0.10660036 1977:0.10660036 1988:0.10660036 #
-1 7:0.12700012 54:0.12700012 63:0.12700012 77:0.12700012 88:0.12700012 122:0.12700012 138:0.12700012 160:0.12700012 217:0.12700012 313:0.12700012 351:0.12700012 381:0.12700012 424:0.12700012 443:0.12700012 450:0.12700012 455:0.12700012 456:0.12700012 531:0.12700012 538:0.12700012 546:0.12700012 614:0.12700012 635:0.12700012 645:0.12700012 648:0.12700012 657:0.12700012 672:0.12700012 674:0.12700012 725:0.12700012 726:0.12700012 743:0.12700012 749:0.12700012 771:0.12700012 825:0.12700012 845:0.12700012 954:0.12700012 976:0.12700012 982:0.12700012 987:0.12700012 1033:0.12700012 1145:0.12700012 1159:0.12700012 1232:0.12700012 1293:0.12700012 1305:0.12700012 1326:0.12700012 1353:0.12700012 1397:0.12700012 1471:0.12700012 1509:0.12700012 1515:0.12700012 1535:0.12700012 1618:0.12700012 1620:0.12700012 1695:0.12700012 1848:0.12700012 1853:0.12700012 1875:0.12700012 1878:0.12700012 1914:0.12700012 1953:0.12700012 1956:0.12700012 1963:0.12700012 #
1 10:0.16903085 103:0.16903085 156:0.16903085 202:0.16903085 337:0.16903085 348:0.16903085 351:0.16903085 367:0.16903085 424:0.16903085 468:0.16903085 478:0.16903085 609:0.16903085 614:0.16903085 705:0.16903085 845:0.16903085 873:0.16903085 954:0.16903085 1093:0.16903085 1197:0.16903085 1306:0.16903085 1310:0.16903085 1345:0.16903085 1389:0.16903085 1496:0.16903085 1535:0.16903085 1664:0.16903085 1670:0.16903085 1689:0.16903085 1764:0.16903085 1765:0.16903085 1797:0.16903085 1853:0.16903085 1898:0.16903085 1963:0.16903085 1972:0.16903085 #
1 80:0.25819889 160:0.25819889 359:0.25819889 424:0.25819889 444:0.25819889 1134:0.25819889 1353:0.25819889 1421:0.25819889 1568:0.25819889 1670:0.25819889 1797:0.25819889 1816:0.25819889 1853:0.25819889 1876:0.25819889 1986:0.25819889 #
1 93:0.14744195 131:0.14744195 133:0.14744195 160:0.14744195 192:0.14744195 274:0.14744195 326:0.14744195 331:0.14744195 340:0.14744195 345:0.14744195 351:0.14744195 398:0.14744195 415:0.14744195 424:0.14744195 506:0.14744195 655:0.14744195 686:0.14744195 705:0.14744195 711:0.14744195 765:0.14744195 768:0.14744195 872:0.14744195 976:0.14744195 987:0.14744195 1033:0.14744195 1165:0.14744195 1188:0.14744195 1216:0.14744195 1245:0.14744195 1248:0.14744195 1256:0.14744195 1281:0.14744195 1310:0.14744195 1328:0.14744195 1528:0.14744195 1535:0.14744195 1576:0.14744195 1582:0.14744195 1626:0.14744195 1670:0.14744195 1684:0.14744195 1693:0.14744195 1727:0.14744195 1771:0.14744195 1782:0.14744195 1818:0.14744195 #
1 186:0.33333334 434:0.33333334 958:0.33333334 1331:0.33333334 1334:0.33333334 1535:0.33333334 1670:0.33333334 1741:0.33333334 1797:0.33333334 #
1 38:0.33333334 52:0.33333334 160:0.33333334 164:0.33333334 546:0.33333334 806:0.33333334 1326:0.33333334 1535:0.33333334 1670:0.33333334 #
-1 478:0.37796447 1187:0.37796447 1467:0.37796447 1535:0.37796447 1568:0.37796447 1670:0.37796447 1972:0.37796447 #
-1 160:0.30151135 424:0.30151135 456:0.30151135 515:0.30151135 1051:0.30151135 1534:0.30151135 1535:0.30151135 1670:0.30151135 1694:0.30151135 1848:0.30151135 1952:0.30151135 #
-0.13202044462697248849991638053325 10:0.086710997 23:0.086710997 39:0.086710997 44:0.086710997 47:0.086710997 63:0.086710997 91:0.086710997 99:0.086710997 103:0.086710997 116:0.086710997 123:0.086710997 133:0.086710997 138:0.086710997 139:0.086710997 144:0.086710997 158:0.086710997 167:0.086710997 172:0.086710997 219:0.086710997 263:0.086710997 270:0.086710997 274:0.086710997 328:0.086710997 332:0.086710997 351:0.086710997 357:0.086710997 359:0.086710997 381:0.086710997 418:0.086710997 424:0.086710997 448:0.086710997 456:0.086710997 458:0.086710997 528:0.086710997 531:0.086710997 543:0.086710997 608:0.086710997 614:0.086710997 622:0.086710997 629:0.086710997 635:0.086710997 661:0.086710997 672:0.086710997 696:0.086710997 705:0.086710997 722:0.086710997 725:0.086710997 741:0.086710997 749:0.086710997 769:0.086710997 772:0.086710997 774:0.086710997 785:0.086710997 807:0.086710997 808:0.086710997 876:0.086710997 900:0.086710997 908:0.086710997 954:0.086710997 956:0.086710997 963:0.086710997 972:0.086710997 976:0.086710997 987:0.086710997 998:0.086710997 1004:0.086710997 1015:0.086710997 1033:0.086710997 1040:0.086710997 1041:0.086710997 1042:0.086710997 1044:0.086710997 1082:0.086710997 1083:0.086710997 1097:0.086710997 1103:0.086710997 1119:0.086710997 1149:0.086710997 1169:0.086710997 1175:0.086710997 1177:0.086710997 1216:0.086710997 1229:0.086710997 1233:0.086710997 1263:0.086710997 1315:0.086710997 1328:0.086710997 1345:0.086710997 1348:0.086710997 1353:0.086710997 1377:0.086710997 1379:0.086710997 1391:0.086710997 1417:0.086710997 1419:0.086710997 1453:0.086710997 1464:0.086710997 1471:0.086710997 1473:0.086710997 1526:0.086710997 1551:0.086710997 1605:0.086710997 1618:0.086710997 1650:0.086710997 1670:0.086710997 1679:0.086710997 1684:0.086710997 1704:0.086710997 1711:0.086710997 1741:0.086710997 1742:0.086710997 1750:0.086710997 1751:0.086710997 1764:0.086710997 1765:0.086710997 1771:0.086710997 1781:0.086710997 1802:0.086710997 1838:0.086710997 1851:0.086710997 1853:0.086710997 1855:0.086710997 1875:0.086710997 1877:0.086710997 1896:0.086710997 1898:0.086710997 1904:0.086710997 1910:0.086710997 1918:0.086710997 1927:0.086710997 1960:0.086710997 1963:0.086710997 1988:0.086710997 #
0.91637165628012251517020558821969 30:0.13608277 63:0.13608277 83:0.13608277 91:0.13608277 93:0.13608277 139:0.13608277 160:0.13608277 187:0.13608277 192:0.13608277 263:0.13608277 271:0.13608277 313:0.13608277 336:0.13608277 357:0.13608277 393:0.13608277 418:0.13608277 424:0.13608277 443:0.13608277 531:0.13608277 537:0.13608277 546:0.13608277 667:0.13608277 670:0.13608277 705:0.13608277 713:0.13608277 725:0.13608277 737:0.13608277 741:0.13608277 749:0.13608277 751:0.13608277 825:0.13608277 845:0.13608277 958:0.13608277 1001:0.13608277 1106:0.13608277 1357:0.13608277 1464:0.13608277 1465:0.13608277 1473:0.13608277 1532:0.13608277 1534:0.13608277 1535:0.13608277 1618:0.13608277 1670:0.13608277 1727:0.13608277 1764:0.13608277 1799:0.13608277 1804:0.13608277 1817:0.13608277 1851:0.13608277 1853:0.13608277 1914:0.13608277 1954:0.13608277 1956:0.13608277 #
-0.38899187321986383736316383874509 861:0.44721359 922:0.44721359 1535:0.44721359 1578:0.44721359 1670:0.44721359 #
1 75:0.10976426 77:0.10976426 85:0.10976426 136:0.10976426 139:0.10976426 144:0.10976426 152:0.10976426 160:0.10976426 183:0.10976426 192:0.10976426 313:0.10976426 351:0.10976426 357:0.10976426 413:0.10976426 424:0.10976426 455:0.10976426 456:0.10976426 468:0.10976426 477:0.10976426 503:0.10976426 504:0.10976426 537:0.10976426 548:0.10976426 563:0.10976426 621:0.10976426 651:0.10976426 726:0.10976426 749:0.10976426 753:0.10976426 762:0.10976426 763:0.10976426 793:0.10976426 807:0.10976426 822:0.10976426 825:0.10976426 845:0.10976426 934:0.10976426 954:0.10976426 963:0.10976426 976:0.10976426 1119:0.10976426 1123:0.10976426 1136:0.10976426 1139:0.10976426 1144:0.10976426 1190:0.10976426 1283:0.10976426 1285:0.10976426 1305:0.10976426 1314:0.10976426 1328:0.10976426 1345:0.10976426 1348:0.10976426 1386:0.10976426 1393:0.10976426 1434:0.10976426 1452:0.10976426 1453:0.10976426 1461:0.10976426 1471:0.10976426 1512:0.10976426 1513:0.10976426 1615:0.10976426 1618:0.10976426 1620:0.10976426 1632:0.10976426 1646:0.10976426 1650:0.10976426 1681:0.10976426 1727:0.10976426 1729:0.10976426 1734:0.10976426 1767:0.10976426 1833:0.10976426 1851:0.10976426 1853:0.10976426 1925:0.10976426 1927:0.10976426 1953:0.10976426 1954:0.10976426 1960:0.10976426 1963:0.10976426 1987:0.10976426 #
1 77:0.15430336 90:0.15430336 99:0.15430336 293:0.15430336 300:0.15430336 313:0.15430336 359:0.15430336 417:0.15430336 456:0.15430336 531:0.15430336 614:0.15430336 643:0.15430336 734:0.15430336 772:0.15430336 859:0.15430336 878:0.15430336 904:0.15430336 954:0.15430336 963:0.15430336 987:0.15430336 1033:0.15430336 1039:0.15430336 1066:0.15430336 1169:0.15430336 1171:0.15430336 1204:0.15430336 1326:0.15430336 1345:0.15430336 1452:0.15430336 1455:0.15430336 1473:0.15430336 1498:0.15430336 1542:0.15430336 1693:0.15430336 1741:0.15430336 1837:0.15430336 1848:0.15430336 1853:0.15430336 1888:0.15430336 1898:0.15430336 1927:0.15430336 1956:0.15430336 #
1 39:0.15430336 77:0.15430336 90:0.15430336 160:0.15430336 161:0.15430336 313:0.15430336 351:0.15430336 398:0.15430336 431:0.15430336 483:0.15430336 492:0.15430336 531:0.15430336 537:0.15430336 539:0.15430336 544:0.15430336 617:0.15430336 645:0.15430336 741:0.15430336 742:0.15430336 749:0.15430336 811:0.15430336 859:0.15430336 904:0.15430336 932:0.15430336 954:0.15430336 1015:0.15430336 1033:0.15430336 1182:0.15430336 1202:0.15430336 1216:0.15430336 1315:0.15430336 1362:0.15430336 1377:0.15430336 1498:0.15430336 1618:0.15430336 1620:0.15430336 1630:0.15430336 1654:0.15430336 1705:0.15430336 1851:0.15430336 1927:0.15430336 1954:0.15430336 #
0.34584178918400526603349476317817 11:0.074124932 30:0.074124932 39:0.074124932 47:0.074124932 53:0.074124932 56:0.074124932 63:0.074124932 69:0.074124932 76:0.074124932 77:0.074124932 88:0.074124932 91:0.074124932 99:0.074124932 107:0.074124932 130:0.074124932 134:0.074124932 138:0.074124932 139:0.074124932 160:0.074124932 202:0.074124932 225:0.074124932 263:0.074124932 267:0.074124932 279:0.074124932 286:0.074124932 293:0.074124932 307:0.074124932 309:0.074124932 311:0.074124932 313:0.074124932 328:0.074124932 340:0.074124932 351:0.074124932 353:0.074124932 357:0.074124932 359:0.074124932 381:0.074124932 398:0.074124932 405:0.074124932 410:0.074124932 424:0.074124932 432:0.074124932 443:0.074124932 455:0.074124932 456:0.074124932 466:0.074124932 477:0.074124932 483:0.074124932 530:0.074124932 537:0.074124932 550:0.074124932 601:0.074124932 608:0.074124932 627:0.074124932 628:0.074124932 635:0.074124932 645:0.074124932 648:0.074124932 651:0.074124932 672:0.074124932 686:0.074124932 722:0.074124932 725:0.074124932 730:0.074124932 749:0.074124932 757:0.074124932 767:0.074124932 772:0.074124932 777:0.074124932 778:0.074124932 781:0.074124932 792:0.074124932 793:0.074124932 806:0.074124932 807:0.074124932 811:0.074124932 845:0.074124932 860:0.074124932 873:0.074124932 882:0.074124932 887:0.074124932 901:0.074124932 904:0.074124932 905:0.074124932 912:0.074124932 954:0.074124932 961:0.074124932 963:0.074124932 972:0.074124932 976:0.074124932 982:0.074124932 987:0.074124932 1004:0.074124932 1015:0.074124932 1057:0.074124932 1083:0.074124932 1119:0.074124932 1144:0.074124932 1145:0.074124932 1161:0.074124932 1163:0.074124932 1164:0.074124932 1169:0.074124932 1190:0.074124932 1216:0.074124932 1230:0.074124932 1243:0.074124932 1256:0.074124932 1263:0.074124932 1269:0.074124932 1277:0.074124932 1305:0.074124932 1310:0.074124932 1311:0.074124932 1315:0.074124932 1326:0.074124932 1327:0.074124932 1328:0.074124932 1331:0.074124932 1336:0.074124932 1353:0.074124932 1377:0.074124932 1409:0.074124932 1448:0.074124932 1452:0.074124932 1459:0.074124932 1463:0.074124932 1464:0.074124932 1465:0.074124932 1500:0.074124932 1515:0.074124932 1526:0.074124932 1535:0.074124932 1542:0.074124932 1567:0.074124932 1581:0.074124932 1589:0.074124932 1600:0.074124932 1610:0.074124932 1618:0.074124932 1620:0.074124932 1630:0.074124932 1636:0.074124932 1666:0.074124932 1693:0.074124932 1705:0.074124932 1711:0.074124932 1719:0.074124932 1727:0.074124932 1741:0.074124932 1743:0.074124932 1782:0.074124932 1785:0.074124932 1796:0.074124932 1815:0.074124932 1816:0.074124932 1844:0.074124932 1847:0.074124932 1851:0.074124932 1852:0.074124932 1853:0.074124932 1856:0.074124932 1861:0.074124932 1871:0.074124932 1872:0.074124932 1875:0.074124932 1881:0.074124932 1898:0.074124932 1910:0.074124932 1921:0.074124932 1927:0.074124932 1949:0.074124932 1956:0.074124932 1960:0.074124932 1962:0.074124932 1963:0.074124932 1969:0.074124932 1978:0.074124932 1985:0.074124932 1988:0.074124932 1996:0.074124932 1999:0.074124932 #
0.89267556078855569978713901946321 6:0.11547005 63:0.11547005 97:0.11547005 99:0.11547005 134:0.11547005 138:0.11547005 139:0.11547005 160:0.11547005 183:0.11547005 216:0.11547005 218:0.11547005 262:0.11547005 267:0.11547005 285:0.11547005 286:0.11547005 294:0.11547005 340:0.11547005 349:0.11547005 351:0.11547005 381:0.11547005 398:0.11547005 415:0.11547005 424:0.11547005 456:0.11547005 539:0.11547005 548:0.11547005 594:0.11547005 595:0.11547005 749:0.11547005 752:0.11547005 784:0.11547005 810:0.11547005 829:0.11547005 834:0.11547005 845:0.11547005 954:0.11547005 982:0.11547005 987:0.11547005 996:0.11547005 1015:0.11547005 1033:0.11547005 1051:0.11547005 1083:0.11547005 1155:0.11547005 1172:0.11547005 1204:0.11547005 1233:0.11547005 1249:0.11547005 1256:0.11547005 1278:0.11547005 1305:0.11547005 1310:0.11547005 1328:0.11547005 1399:0.11547005 1404:0.11547005 1464:0.11547005 1498:0.11547005 1536:0.11547005 1618:0.11547005 1620:0.11547005 1646:0.11547005 1693:0.11547005 1737:0.11547005 1785:0.11547005 1822:0.11547005 1827:0.11547005 1831:0.11547005 1848:0.11547005 1898:0.11547005 1921:0.11547005 1927:0.11547005 1956:0.11547005 1960:0.11547005 1963:0.11547005 1987:0.11547005 #
-0.27432188882816233022055030232877 5:0.080064073 22:0.080064073 30:0.080064073 40:0.080064073 52:0.080064073 53:0.080064073 63:0.080064073 77:0.080064073 88:0.080064073 90:0.080064073 92:0.080064073 93:0.080064073 95:0.080064073 103:0.080064073 116:0.080064073 122:0.080064073 125:0.080064073 130:0.080064073 133:0.080064073 134:0.080064073 138:0.080064073 139:0.080064073 160:0.080064073 177:0.080064073 185:0.080064073 202:0.080064073 234:0.080064073 241:0.080064073 263:0.080064073 286:0.080064073 287:0.080064073 299:0.080064073 301:0.080064073 313:0.080064073 326:0.080064073 340:0.080064073 343:0.080064073 351:0.080064073 357:0.080064073 392:0.080064073 398:0.080064073 418:0.080064073 424:0.080064073 425:0.080064073 438:0.080064073 455:0.080064073 456:0.080064073 459:0.080064073 467:0.080064073 477:0.080064073 531:0.080064073 543:0.080064073 549:0.080064073 561:0.080064073 563:0.080064073 583:0.080064073 608:0.080064073 645:0.080064073 651:0.080064073 655:0.080064073 672:0.080064073 717:0.080064073 722:0.080064073 726:0.080064073 749:0.080064073 757:0.080064073 762:0.080064073 763:0.080064073 769:0.080064073 775:0.080064073 784:0.080064073 807:0.080064073 819:0.080064073 845:0.080064073 847:0.080064073 881:0.080064073 904:0.080064073 919:0.080064073 954:0.080064073 963:0.080064073 975:0.080064073 987:0.080064073 1004:0.080064073 1015:0.080064073 1065:0.080064073 1101:0.080064073 1106:0.080064073 1112:0.080064073 1118:0.080064073 1119:0.080064073 1134:0.080064073 1149:0.080064073 1154:0.080064073 1168:0.080064073 1169:0.080064073 1178:0.080064073 1182:0.080064073 1188:0.080064073 1190:0.080064073 1200:0.080064073 1215:0.080064073 1247:0.080064073 1252:0.080064073 1303:0.080064073 1305:0.080064073 1311:0.080064073 1326:0.080064073 1328:0.080064073 1390:0.080064073 1400:0.080064073 1434:0.080064073 1446:0.080064073 1452:0.080064073 1453:0.080064073 1460:0.080064073 1463:0.080064073 1464:0.080064073 1479:0.080064073 1495:0.080064073 1498:0.080064073 1504:0.080064073 1526:0.080064073 1542:0.080064073 1543:0.080064073 1548:0.080064073 1585:0.080064073 1594:0.080064073 1606:0.080064073 1618:0.080064073 1620:0.080064073 1684:0.080064073 1693:0.080064073 1705:0.080064073 1711:0.080064073 1716:0.080064073 1727:0.080064073 1735:0.080064073 1737:0.080064073 1741:0.080064073 1745:0.080064073 1765:0.080064073 1767:0.080064073 1807:0.080064073 1809:0.080064073 1831:0.080064073 1848:0.080064073 1851:0.080064073 1853:0.080064073 1877:0.080064073 1898:0.080064073 1908:0.080064073 1927:0.080064073 1928:0.080064073 1953:0.080064073 1956:0.080064073 1988:0.080064073 #
-0.20866668033036880891550879368879 5:0.086066298 13:0.086066298 30:0.086066298 32:0.086066298 43:0.086066298 44:0.086066298 71:0.086066298 77:0.086066298 87:0.086066298 106:0.086066298 122:0.086066298 130:0.086066298 138:0.086066298 139:0.086066298 154:0.086066298 160:0.086066298 167:0.086066298 181:0.086066298 194:0.086066298 217:0.086066298 223:0.086066298 294:0.086066298 308:0.086066298 313:0.086066298 318:0.086066298 326:0.086066298 340:0.086066298 350:0.086066298 377:0.086066298 381:0.086066298 386:0.086066298 398:0.086066298 418:0.086066298 424:0.086066298 445:0.086066298 449:0.086066298 457:0.086066298 487:0.086066298 527:0.086066298 531:0.086066298 609:0.086066298 613:0.086066298 627:0.086066298 643:0.086066298 645:0.086066298 655:0.086066298 662:0.086066298 672:0.086066298 673:0.086066298 679:0.086066298 680:0.086066298 722:0.086066298 749:0.086066298 762:0.086066298 772:0.086066298 783:0.086066298 784:0.086066298 811:0.086066298 827:0.086066298 845:0.086066298 846:0.086066298 872:0.086066298 880:0.086066298 901:0.086066298 904:0.086066298 942:0.086066298 954:0.086066298 956:0.086066298 976:0.086066298 978:0.086066298 979:0.086066298 987:0.086066298 1004:0.086066298 1015:0.086066298 1033:0.086066298 1046:0.086066298 1048:0.086066298 1082:0.086066298 1091:0.086066298 1103:0.086066298 1117:0.086066298 1119:0.086066298 1128:0.086066298 1166:0.086066298 1190:0.086066298 1214:0.086066298 1220:0.086066298 1241:0.086066298 1305:0.086066298 1308:0.086066298 1310:0.086066298 1315:0.086066298 1328:0.086066298 1353:0.086066298 1359:0.086066298 1381:0.086066298 1422:0.086066298 1452:0.086066298 1453:0.086066298 1463:0.086066298 1465:0.086066298 1471:0.086066298 1473:0.086066298 1498:0.086066298 1499:0.086066298 1526:0.086066298 1535:0.086066298 1541:0.086066298 1615:0.086066298 1618:0.086066298 1622:0.086066298 1638:0.086066298 1646:0.086066298 1647:0.086066298 1684:0.086066298 1711:0.086066298 1727:0.086066298 1741:0.086066298 1755:0.086066298 1771:0.086066298 1821:0.086066298 1839:0.086066298 1844:0.086066298 1848:0.086066298 1855:0.086066298 1876:0.086066298 1878:0.086066298 1887:0.086066298 1898:0.086066298 1909:0.086066298 1927:0.086066298 1935:0.086066298 1976:0.086066298 1980:0.086066298 1987:0.086066298 #
-1 52:0.16439898 77:0.16439898 91:0.16439898 160:0.16439898 326:0.16439898 357:0.16439898 415:0.16439898 451:0.16439898 661:0.16439898 714:0.16439898 726:0.16439898 749:0.16439898 757:0.16439898 800:0.16439898 808:0.16439898 855:0.16439898 910:0.16439898 954:0.16439898 987:0.16439898 1015:0.16439898 1062:0.16439898 1083:0.16439898 1106:0.16439898 1119:0.16439898 1168:0.16439898 1496:0.16439898 1498:0.16439898 1684:0.16439898 1727:0.16439898 1742:0.16439898 1765:0.16439898 1767:0.16439898 1791:0.16439898 1875:0.16439898 1921:0.16439898 1960:0.16439898 1996:0.16439898 #
-0.24780777458039129901301578229322 18:0.12216944 88:0.12216944 96:0.12216944 123:0.12216944 133:0.12216944 138:0.12216944 160:0.12216944 213:0.12216944 267:0.12216944 274:0.12216944 313:0.12216944 328:0.12216944 351:0.12216944 357:0.12216944 379:0.12216944 381:0.12216944 398:0.12216944 415:0.12216944 424:0.12216944 456:0.12216944 476:0.12216944 504:0.12216944 526:0.12216944 608:0.12216944 645:0.12216944 725:0.12216944 741:0.12216944 772:0.12216944 840:0.12216944 887:0.12216944 901:0.12216944 920:0.12216944 927:0.12216944 987:0.12216944 988:0.12216944 1036:0.12216944 1083:0.12216944 1205:0.12216944 1292:0.12216944 1297:0.12216944 1305:0.12216944 1306:0.12216944 1311:0.12216944 1326:0.12216944 1328:0.12216944 1407:0.12216944 1439:0.12216944 1458:0.12216944 1464:0.12216944 1471:0.12216944 1516:0.12216944 1535:0.12216944 1563:0.12216944 1618:0.12216944 1630:0.12216944 1705:0.12216944 1727:0.12216944 1737:0.12216944 1742:0.12216944 1765:0.12216944 1773:0.12216944 1815:0.12216944 1844:0.12216944 1851:0.12216944 1910:0.12216944 1927:0.12216944 1956:0.12216944 #
-0.41896722240929329394987234991277 53:0.10976426 63:0.10976426 69:0.10976426 77:0.10976426 88:0.10976426 103:0.10976426 105:0.10976426 130:0.10976426 138:0.10976426 158:0.10976426 160:0.10976426 164:0.10976426 166:0.10976426 168:0.10976426 173:0.10976426 235:0.10976426 263:0.10976426 286:0.10976426 288:0.10976426 293:0.10976426 294:0.10976426 313:0.10976426 348:0.10976426 351:0.10976426 357:0.10976426 424:0.10976426 504:0.10976426 572:0.10976426 605:0.10976426 608:0.10976426 645:0.10976426 651:0.10976426 672:0.10976426 701:0.10976426 749:0.10976426 757:0.10976426 769:0.10976426 772:0.10976426 825:0.10976426 830:0.10976426 845:0.10976426 855:0.10976426 871:0.10976426 954:0.10976426 963:0.10976426 1004:0.10976426 1015:0.10976426 1061:0.10976426 1071:0.10976426 1091:0.10976426 1146:0.10976426 1168:0.10976426 1169:0.10976426 1182:0.10976426 1201:0.10976426 1263:0.10976426 1305:0.10976426 1310:0.10976426 1315:0.10976426 1328:0.10976426 1353:0.10976426 1386:0.10976426 1464:0.10976426 1477:0.10976426 1484:0.10976426 1535:0.10976426 1620:0.10976426 1651:0.10976426 1684:0.10976426 1693:0.10976426 1711:0.10976426 1739:0.10976426 1742:0.10976426 1762:0.10976426 1765:0.10976426 1790:0.10976426 1853:0.10976426 1881:0.10976426 1898:0.10976426 1910:0.10976426 1960:0.10976426 1980:0.10976426 1995:0.10976426 #
1 154:0.33333334 252:0.33333334 485:0.33333334 807:0.33333334 1159:0.33333334 1168:0.33333334 1422:0.33333334 1914:0.33333334 1972:0.33333334 #
1 99:0.25 147:0.25 156:0.25 160:0.25 424:0.25 662:0.25 858:0.25 901:0.25 922:0.25 986:0.25 1015:0.25 1180:0.25 1190:0.25 1535:0.25 1776:0.25 1956:0.25 #
1 30:0.21821789 131:0.21821789 160:0.21821789 249:0.21821789 443:0.21821789 482:0.21821789 642:0.21821789 698:0.21821789 749:0.21821789 963:0.21821789 987:0.21821789 1216:0.21821789 1345:0.21821789 1464:0.21821789 1499:0.21821789 1535:0.21821789 1576:0.21821789 1640:0.21821789 1644:0.21821789 1670:0.21821789 1937:0.21821789 #
-0.32397016305642534206299387733452 6:0.1118034 9:0.1118034 13:0.1118034 35:0.1118034 58:0.1118034 71:0.1118034 90:0.1118034 101:0.1118034 107:0.1118034 126:0.1118034 138:0.1118034 186:0.1118034 211:0.1118034 263:0.1118034 272:0.1118034 293:0.1118034 313:0.1118034 351:0.1118034 424:0.1118034 430:0.1118034 456:0.1118034 464:0.1118034 477:0.1118034 608:0.1118034 623:0.1118034 656:0.1118034 672:0.1118034 749:0.1118034 807:0.1118034 808:0.1118034 845:0.1118034 954:0.1118034 961:0.1118034 963:0.1118034 973:0.1118034 1004:0.1118034 1015:0.1118034 1073:0.1118034 1082:0.1118034 1083:0.1118034 1091:0.1118034 1190:0.1118034 1204:0.1118034 1225:0.1118034 1241:0.1118034 1305:0.1118034 1310:0.1118034 1328:0.1118034 1331:0.1118034 1353:0.1118034 1359:0.1118034 1427:0.1118034 1471:0.1118034 1482:0.1118034 1535:0.1118034 1536:0.1118034 1582:0.1118034 1589:0.1118034 1618:0.1118034 1620:0.1118034 1668:0.1118034 1676:0.1118034 1727:0.1118034 1731:0.1118034 1737:0.1118034 1741:0.1118034 1760:0.1118034 1788:0.1118034 1829:0.1118034 1852:0.1118034 1853:0.1118034 1865:0.1118034 1879:0.1118034 1881:0.1118034 1886:0.1118034 1921:0.1118034 1966:0.1118034 1979:0.1118034 1988:0.1118034 1998:0.1118034 #
1 168:0.33333334 991:0.33333334 1535:0.33333334 1603:0.33333334 1620:0.33333334 1670:0.33333334 1831:0.33333334 1907:0.33333334 1921:0.33333334 #
-0.72077282852620327968651281480561 99:0.24253562 387:0.24253562 604:0.24253562 741:0.24253562 963:0.24253562 969:0.24253562 991:0.24253562 1345:0.24253562 1397:0.24253562 1498:0.24253562 1535:0.24253562 1603:0.24253562 1670:0.24253562 1727:0.24253562 1831:0.24253562 1927:0.24253562 1972:0.24253562 #
-0.86049981152532084571760151447961 139:0.25819889 160:0.25819889 294:0.25819889 351:0.25819889 398:0.25819889 444:0.25819889 778:0.25819889 920:0.25819889 954:0.25819889 1080:0.25819889 1159:0.25819889 1244:0.25819889 1535:0.25819889 1851:0.25819889 1875:0.25819889 #
-1 160:0.25 280:0.25 357:0.25 571:0.25 749:0.25 807:0.25 811:0.25 1168:0.25 1198:0.25 1303:0.25 1535:0.25 1557:0.25 1620:0.25 1797:0.25 1926:0.25 1956:0.25 #
-0.8382829952176110710482248578046 245:0.24253562 313:0.24253562 340:0.24253562 404:0.24253562 546:0.24253562 678:0.24253562 700:0.24253562 1067:0.24253562 1310:0.24253562 1331:0.24253562 1408:0.24253562 1535:0.24253562 1618:0.24253562 1633:0.24253562 1738:0.24253562 1790:0.24253562 1907:0.24253562 #
-0.31229932523917269815427744106273 152:0.40824831 404:0.40824831 700:0.40824831 1535:0.40824831 1734:0.40824831 1738:0.40824831 #
1 5:0.093658581 30:0.093658581 39:0.093658581 50:0.093658581 53:0.093658581 77:0.093658581 88:0.093658581 103:0.093658581 122:0.093658581 132:0.093658581 137:0.093658581 139:0.093658581 160:0.093658581 161:0.093658581 167:0.093658581 178:0.093658581 185:0.093658581 207:0.093658581 218:0.093658581 232:0.093658581 258:0.093658581 263:0.093658581 285:0.093658581 313:0.093658581 326:0.093658581 327:0.093658581 351:0.093658581 357:0.093658581 398:0.093658581 424:0.093658581 431:0.093658581 434:0.093658581 443:0.093658581 456:0.093658581 491:0.093658581 495:0.093658581 504:0.093658581 562:0.093658581 600:0.093658581 608:0.093658581 635:0.093658581 645:0.093658581 651:0.093658581 655:0.093658581 672:0.093658581 726:0.093658581 727:0.093658581 749:0.093658581 751:0.093658581 757:0.093658581 759:0.093658581 795:0.093658581 807:0.093658581 810:0.093658581 811:0.093658581 825:0.093658581 837:0.093658581 845:0.093658581 859:0.093658581 897:0.093658581 950:0.093658581 954:0.093658581 972:0.093658581 976:0.093658581 987:0.093658581 998:0.093658581 1004:0.093658581 1015:0.093658581 1033:0.093658581 1060:0.093658581 1063:0.093658581 1080:0.093658581 1083:0.093658581 1119:0.093658581 1164:0.093658581 1175:0.093658581 1235:0.093658581 1282:0.093658581 1303:0.093658581 1305:0.093658581 1308:0.093658581 1328:0.093658581 1396:0.093658581 1438:0.093658581 1448:0.093658581 1452:0.093658581 1498:0.093658581 1569:0.093658581 1598:0.093658581 1605:0.093658581 1606:0.093658581 1618:0.093658581 1620:0.093658581 1640:0.093658581 1646:0.093658581 1670:0.093658581 1684:0.093658581 1727:0.093658581 1737:0.093658581 1748:0.093658581 1791:0.093658581 1806:0.093658581 1815:0.093658581 1831:0.093658581 1848:0.093658581 1853:0.093658581 1875:0.093658581 1877:0.093658581 1904:0.093658581 1927:0.093658581 1929:0.093658581 1953:0.093658581 1956:0.093658581 1962:0.093658581 #
1 19:0.125 38:0.125 44:0.125 69:0.125 77:0.125 83:0.125 88:0.125 99:0.125 134:0.125 138:0.125 160:0.125 236:0.125 242:0.125 313:0.125 351:0.125 357:0.125 381:0.125 418:0.125 424:0.125 443:0.125 456:0.125 546:0.125 608:0.125 637:0.125 672:0.125 726:0.125 749:0.125 810:0.125 882:0.125 887:0.125 901:0.125 961:0.125 963:0.125 976:0.125 987:0.125 1004:0.125 1015:0.125 1067:0.125 1083:0.125 1169:0.125 1178:0.125 1182:0.125 1188:0.125 1190:0.125 1233:0.125 1263:0.125 1328:0.125 1331:0.125 1357:0.125 1464:0.125 1512:0.125 1571:0.125 1582:0.125 1596:0.125 1618:0.125 1686:0.125 1727:0.125 1765:0.125 1875:0.125 1878:0.125 1921:0.125 1956:0.125 1969:0.125 1980:0.125 #
1 53:0.13130644 88:0.13130644 101:0.13130644 210:0.13130644 313:0.13130644 328:0.13130644 351:0.13130644 357:0.13130644 381:0.13130644 424:0.13130644 431:0.13130644 478:0.13130644 483:0.13130644 504:0.13130644 525:0.13130644 581:0.13130644 608:0.13130644 620:0.13130644 645:0.13130644 741:0.13130644 743:0.13130644 749:0.13130644 769:0.13130644 772:0.13130644 807:0.13130644 810:0.13130644 825:0.13130644 832:0.13130644 845:0.13130644 901:0.13130644 954:0.13130644 963:0.13130644 1015:0.13130644 1083:0.13130644 1209:0.13130644 1257:0.13130644 1277:0.13130644 1305:0.13130644 1308:0.13130644 1353:0.13130644 1355:0.13130644 1356:0.13130644 1377:0.13130644 1482:0.13130644 1515:0.13130644 1535:0.13130644 1549:0.13130644 1598:0.13130644 1603:0.13130644 1618:0.13130644 1659:0.13130644 1670:0.13130644 1727:0.13130644 1797:0.13130644 1875:0.13130644 1877:0.13130644 1926:0.13130644 1972:0.13130644 #
0.44070703651338644091239871158905 12:0.090166964 63:0.090166964 69:0.090166964 77:0.090166964 88:0.090166964 99:0.090166964 133:0.090166964 138:0.090166964 149:0.090166964 160:0.090166964 263:0.090166964 271:0.090166964 286:0.090166964 307:0.090166964 309:0.090166964 340:0.090166964 348:0.090166964 351:0.090166964 353:0.090166964 357:0.090166964 379:0.090166964 381:0.090166964 415:0.090166964 418:0.090166964 424:0.090166964 470:0.090166964 477:0.090166964 478:0.090166964 489:0.090166964 531:0.090166964 546:0.090166964 589:0.090166964 608:0.090166964 612:0.090166964 635:0.090166964 642:0.090166964 645:0.090166964 653:0.090166964 668:0.090166964 672:0.090166964 684:0.090166964 690:0.090166964 749:0.090166964 763:0.090166964 772:0.090166964 773:0.090166964 794:0.090166964 807:0.090166964 811:0.090166964 845:0.090166964 846:0.090166964 847:0.090166964 878:0.090166964 882:0.090166964 901:0.090166964 954:0.090166964 976:0.090166964 987:0.090166964 993:0.090166964 1015:0.090166964 1033:0.090166964 1037:0.090166964 1083:0.090166964 1106:0.090166964 1169:0.090166964 1188:0.090166964 1190:0.090166964 1201:0.090166964 1202:0.090166964 1228:0.090166964 1230:0.090166964 1256:0.090166964 1281:0.090166964 1285:0.090166964 1292:0.090166964 1305:0.090166964 1328:0.090166964 1353:0.090166964 1419:0.090166964 1452:0.090166964 1463:0.090166964 1464:0.090166964 1465:0.090166964 1470:0.090166964 1471:0.090166964 1473:0.090166964 1485:0.090166964 1498:0.090166964 1500:0.090166964 1535:0.090166964 1556:0.090166964 1602:0.090166964 1620:0.090166964 1630:0.090166964 1653:0.090166964 1667:0.090166964 1670:0.090166964 1684:0.090166964 1686:0.090166964 1711:0.090166964 1722:0.090166964 1727:0.090166964 1729:0.090166964 1741:0.090166964 1785:0.090166964 1799:0.090166964 1809:0.090166964 1825:0.090166964 1848:0.090166964 1859:0.090166964 1875:0.090166964 1881:0.090166964 1898:0.090166964 1906:0.090166964 1910:0.090166964 1914:0.090166964 1917:0.090166964 1929:0.090166964 1956:0.090166964 1961:0.090166964 1962:0.090166964 1972:0.090166964 1986:0.090166964 #
0.5551636034168807576349990995368 30:0.11043153 77:0.11043153 88:0.11043153 122:0.11043153 198:0.11043153 214:0.11043153 247:0.11043153 265:0.11043153 282:0.11043153 310:0.11043153 325:0.11043153 340:0.11043153 349:0.11043153 350:0.11043153 351:0.11043153 357:0.11043153 362:0.11043153 387:0.11043153 424:0.11043153 427:0.11043153 546:0.11043153 594:0.11043153 608:0.11043153 613:0.11043153 623:0.11043153 672:0.11043153 673:0.11043153 701:0.11043153 713:0.11043153 718:0.11043153 725:0.11043153 736:0.11043153 749:0.11043153 784:0.11043153 808:0.11043153 810:0.11043153 811:0.11043153 832:0.11043153 870:0.11043153 1004:0.11043153 1015:0.11043153 1028:0.11043153 1076:0.11043153 1083:0.11043153 1157:0.11043153 1253:0.11043153 1292:0.11043153 1303:0.11043153 1326:0.11043153 1328:0.11043153 1333:0.11043153 1438:0.11043153 1464:0.11043153 1493:0.11043153 1498:0.11043153 1535:0.11043153 1595:0.11043153 1606:0.11043153 1609:0.11043153 1618:0.11043153 1640:0.11043153 1654:0.11043153 1670:0.11043153 1685:0.11043153 1695:0.11043153 1727:0.11043153 1734:0.11043153 1735:0.11043153 1756:0.11043153 1765:0.11043153 1770:0.11043153 1844:0.11043153 1853:0.11043153 1868:0.11043153 1874:0.11043153 1875:0.11043153 1877:0.11043153 1912:0.11043153 1921:0.11043153 1956:0.11043153 1976:0.11043153 1997:0.11043153 #
-0.84811011054501694861329497143743 139:0.15430336 160:0.15430336 165:0.15430336 213:0.15430336 259:0.15430336 263:0.15430336 288:0.15430336 351:0.15430336 359:0.15430336 397:0.15430336 456:0.15430336 479:0.15430336 514:0.15430336 546:0.15430336 583:0.15430336 608:0.15430336 645:0.15430336 662:0.15430336 672:0.15430336 726:0.15430336 845:0.15430336 925:0.15430336 982:0.15430336 1004:0.15430336 1010:0.15430336 1015:0.15430336 1083:0.15430336 1165:0.15430336 1178:0.15430336 1273:0.15430336 1281:0.15430336 1305:0.15430336 1308:0.15430336 1464:0.15430336 1482:0.15430336 1618:0.15430336 1705:0.15430336 1727:0.15430336 1737:0.15430336 1868:0.15430336 1906:0.15430336 1980:0.15430336 #
-1 6:0.085435763 44:0.085435763 47:0.085435763 64:0.085435763 77:0.085435763 83:0.085435763 99:0.085435763 103:0.085435763 134:0.085435763 138:0.085435763 139:0.085435763 160:0.085435763 161:0.085435763 241:0.085435763 268:0.085435763 274:0.085435763 294:0.085435763 298:0.085435763 304:0.085435763 326:0.085435763 328:0.085435763 330:0.085435763 351:0.085435763 359:0.085435763 379:0.085435763 381:0.085435763 397:0.085435763 418:0.085435763 424:0.085435763 455:0.085435763 456:0.085435763 468:0.085435763 473:0.085435763 476:0.085435763 502:0.085435763 504:0.085435763 532:0.085435763 546:0.085435763 550:0.085435763 568:0.085435763 583:0.085435763 584:0.085435763 608:0.085435763 609:0.085435763 614:0.085435763 635:0.085435763 645:0.085435763 660:0.085435763 671:0.085435763 672:0.085435763 673:0.085435763 691:0.085435763 692:0.085435763 698:0.085435763 706:0.085435763 725:0.085435763 749:0.085435763 763:0.085435763 778:0.085435763 806:0.085435763 807:0.085435763 811:0.085435763 845:0.085435763 846:0.085435763 847:0.085435763 869:0.085435763 877:0.085435763 904:0.085435763 906:0.085435763 930:0.085435763 933:0.085435763 943:0.085435763 954:0.085435763 963:0.085435763 987:0.085435763 998:0.085435763 1004:0.085435763 1009:0.085435763 1015:0.085435763 1033:0.085435763 1063:0.085435763 1080:0.085435763 1083:0.085435763 1088:0.085435763 1168:0.085435763 1169:0.085435763 1193:0.085435763 1212:0.085435763 1256:0.085435763 1263:0.085435763 1292:0.085435763 1303:0.085435763 1305:0.085435763 1326:0.085435763 1328:0.085435763 1353:0.085435763 1403:0.085435763 1439:0.085435763 1464:0.085435763 1473:0.085435763 1480:0.085435763 1498:0.085435763 1509:0.085435763 1529:0.085435763 1535:0.085435763 1536:0.085435763 1540:0.085435763 1557:0.085435763 1562:0.085435763 1582:0.085435763 1606:0.085435763 1618:0.085435763 1643:0.085435763 1667:0.085435763 1684:0.085435763 1687:0.085435763 1690:0.085435763 1695:0.085435763 1727:0.085435763 1729:0.085435763 1737:0.085435763 1781:0.085435763 1784:0.085435763 1787:0.085435763 1829:0.085435763 1831:0.085435763 1843:0.085435763 1853:0.085435763 1886:0.085435763 1903:0.085435763 1921:0.085435763 1927:0.085435763 1953:0.085435763 1956:0.085435763 1960:0.085435763 1988:0.085435763 1999:0.085435763 #
0.01578491505576160719437339707838 15:0.096673653 30:0.096673653 77:0.096673653 88:0.096673653 90:0.096673653 123:0.096673653 130:0.096673653 134:0.096673653 138:0.096673653 160:0.096673653 162:0.096673653 167:0.096673653 176:0.096673653 185:0.096673653 198:0.096673653 216:0.096673653 223:0.096673653 252:0.096673653 266:0.096673653 279:0.096673653 302:0.096673653 306:0.096673653 328:0.096673653 351:0.096673653 357:0.096673653 359:0.096673653 381:0.096673653 403:0.096673653 434:0.096673653 443:0.096673653 456:0.096673653 504:0.096673653 505:0.096673653 506:0.096673653 512:0.096673653 533:0.096673653 536:0.096673653 555:0.096673653 583:0.096673653 592:0.096673653 608:0.096673653 641:0.096673653 645:0.096673653 672:0.096673653 691:0.096673653 741:0.096673653 745:0.096673653 755:0.096673653 757:0.096673653 772:0.096673653 810:0.096673653 821:0.096673653 823:0.096673653 831:0.096673653 845:0.096673653 847:0.096673653 901:0.096673653 954:0.096673653 963:0.096673653 972:0.096673653 979:0.096673653 987:0.096673653 1015:0.096673653 1119:0.096673653 1150:0.096673653 1155:0.096673653 1173:0.096673653 1190:0.096673653 1205:0.096673653 1210:0.096673653 1228:0.096673653 1278:0.096673653 1281:0.096673653 1285:0.096673653 1305:0.096673653 1310:0.096673653 1315:0.096673653 1328:0.096673653 1345:0.096673653 1421:0.096673653 1422:0.096673653 1438:0.096673653 1464:0.096673653 1481:0.096673653 1497:0.096673653 1551:0.096673653 1576:0.096673653 1670:0.096673653 1727:0.096673653 1741:0.096673653 1750:0.096673653 1764:0.096673653 1779:0.096673653 1805:0.096673653 1814:0.096673653 1823:0.096673653 1831:0.096673653 1844:0.096673653 1848:0.096673653 1883:0.096673653 1895:0.096673653 1904:0.096673653 1916:0.096673653 1921:0.096673653 1956:0.096673653 1960:0.096673653 1972:0.096673653 #
-1 13:0.13483997 99:0.13483997 123:0.13483997 136:0.13483997 160:0.13483997 238:0.13483997 260:0.13483997 328:0.13483997 357:0.13483997 362:0.13483997 418:0.13483997 424:0.13483997 443:0.13483997 444:0.13483997 662:0.13483997 672:0.13483997 686:0.13483997 745:0.13483997 749:0.13483997 770:0.13483997 776:0.13483997 807:0.13483997 808:0.13483997 847:0.13483997 911:0.13483997 954:0.13483997 963:0.13483997 1004:0.13483997 1015:0.13483997 1069:0.13483997 1102:0.13483997 1122:0.13483997 1167:0.13483997 1176:0.13483997 1229:0.13483997 1307:0.13483997 1328:0.13483997 1351:0.13483997 1425:0.13483997 1471:0.13483997 1535:0.13483997 1557:0.13483997 1620:0.13483997 1705:0.13483997 1715:0.13483997 1727:0.13483997 1741:0.13483997 1799:0.13483997 1815:0.13483997 1822:0.13483997 1840:0.13483997 1848:0.13483997 1881:0.13483997 1956:0.13483997 1973:0.13483997 #
0.24088470259518510174778782584326 63:0.13018891 74:0.13018891 130:0.13018891 158:0.13018891 223:0.13018891 293:0.13018891 351:0.13018891 357:0.13018891 398:0.13018891 417:0.13018891 424:0.13018891 539:0.13018891 546:0.13018891 608:0.13018891 672:0.13018891 690:0.13018891 711:0.13018891 749:0.13018891 751:0.13018891 757:0.13018891 763:0.13018891 765:0.13018891 807:0.13018891 811:0.13018891 819:0.13018891 836:0.13018891 956:0.13018891 1055:0.13018891 1075:0.13018891 1103:0.13018891 1106:0.13018891 1210:0.13018891 1228:0.13018891 1251:0.13018891 1266:0.13018891 1269:0.13018891 1305:0.13018891 1311:0.13018891 1314:0.13018891 1326:0.13018891 1354:0.13018891 1450:0.13018891 1464:0.13018891 1498:0.13018891 1535:0.13018891 1545:0.13018891 1596:0.13018891 1670:0.13018891 1705:0.13018891 1742:0.13018891 1771:0.13018891 1773:0.13018891 1791:0.13018891 1853:0.13018891 1877:0.13018891 1888:0.13018891 1921:0.13018891 1960:0.13018891 1981:0.13018891 #
1 155:0.31622776 481:0.31622776 546:0.31622776 568:0.31622776 769:0.31622776 1059:0.31622776 1119:0.31622776 1159:0.31622776 1535:0.31622776 1728:0.31622776 #
1 88:0.14002801 138:0.14002801 139:0.14002801 149:0.14002801 160:0.14002801 167:0.14002801 184:0.14002801 223:0.14002801 226:0.14002801 249:0.14002801 275:0.14002801 384:0.14002801 418:0.14002801 424:0.14002801 453:0.14002801 456:0.14002801 473:0.14002801 482:0.14002801 560:0.14002801 642:0.14002801 645:0.14002801 672:0.14002801 749:0.14002801 757:0.14002801 763:0.14002801 791:0.14002801 800:0.14002801 954:0.14002801 1021:0.14002801 1041:0.14002801 1119:0.14002801 1262:0.14002801 1321:0.14002801 1357:0.14002801 1370:0.14002801 1386:0.14002801 1446:0.14002801 1453:0.14002801 1526:0.14002801 1535:0.14002801 1603:0.14002801 1644:0.14002801 1654:0.14002801 1676:0.14002801 1727:0.14002801 1757:0.14002801 1817:0.14002801 1851:0.14002801 1927:0.14002801 1949:0.14002801 1972:0.14002801 #
1 77:0.22941573 139:0.22941573 175:0.22941573 245:0.22941573 313:0.22941573 357:0.22941573 387:0.22941573 483:0.22941573 741:0.22941573 764:0.22941573 963:0.22941573 1067:0.22941573 1331:0.22941573 1580:0.22941573 1603:0.22941573 1898:0.22941573 1954:0.22941573 1961:0.22941573 1972:0.22941573 #
1 99:0.25819889 162:0.25819889 351:0.25819889 387:0.25819889 543:0.25819889 546:0.25819889 718:0.25819889 1033:0.25819889 1331:0.25819889 1495:0.25819889 1535:0.25819889 1536:0.25819889 1617:0.25819889 1805:0.25819889 1833:0.25819889 #
1 73:0.16903085 90:0.16903085 94:0.16903085 138:0.16903085 160:0.16903085 223:0.16903085 313:0.16903085 387:0.16903085 434:0.16903085 451:0.16903085 529:0.16903085 543:0.16903085 546:0.16903085 558:0.16903085 572:0.16903085 608:0.16903085 648:0.16903085 672:0.16903085 749:0.16903085 872:0.16903085 877:0.16903085 963:0.16903085 1085:0.16903085 1156:0.16903085 1159:0.16903085 1255:0.16903085 1263:0.16903085 1328:0.16903085 1351:0.16903085 1422:0.16903085 1495:0.16903085 1862:0.16903085 1904:0.16903085 1972:0.16903085 1980:0.16903085 #
-0.46322227372337793083190149445727 313:0.21320072 325:0.21320072 387:0.21320072 424:0.21320072 525:0.21320072 546:0.21320072 723:0.21320072 796:0.21320072 866:0.21320072 971:0.21320072 1033:0.21320072 1053:0.21320072 1159:0.21320072 1328:0.21320072 1397:0.21320072 1603:0.21320072 1690:0.21320072 1741:0.21320072 1758:0.21320072 1788:0.21320072 1972:0.21320072 1980:0.21320072 #
-0.27243134161802079473702065115504 44:0.14433756 104:0.14433756 120:0.14433756 153:0.14433756 160:0.14433756 162:0.14433756 190:0.14433756 229:0.14433756 263:0.14433756 265:0.14433756 313:0.14433756 351:0.14433756 405:0.14433756 424:0.14433756 546:0.14433756 548:0.14433756 576:0.14433756 585:0.14433756 634:0.14433756 665:0.14433756 672:0.14433756 677:0.14433756 690:0.14433756 717:0.14433756 807:0.14433756 884:0.14433756 901:0.14433756 1015:0.14433756 1201:0.14433756 1247:0.14433756 1305:0.14433756 1310:0.14433756 1315:0.14433756 1373:0.14433756 1453:0.14433756 1464:0.14433756 1471:0.14433756 1525:0.14433756 1602:0.14433756 1646:0.14433756 1727:0.14433756 1791:0.14433756 1816:0.14433756 1831:0.14433756 1844:0.14433756 1853:0.14433756 1887:0.14433756 1934:0.14433756 #
-0.19669355530204193915899679723225 84:0.28867513 87:0.28867513 93:0.28867513 1159:0.28867513 1261:0.28867513 1348:0.28867513 1535:0.28867513 1536:0.28867513 1603:0.28867513 1670:0.28867513 1699:0.28867513 1972:0.28867513 #
-0.678296218012597207369651641784 160:0.24253562 313:0.24253562 359:0.24253562 402:0.24253562 477:0.24253562 546:0.24253562 833:0.24253562 888:0.24253562 1015:0.24253562 1159:0.24253562 1221:0.24253562 1445:0.24253562 1505:0.24253562 1603:0.24253562 1770:0.24253562 1903:0.24253562 1972:0.24253562 #
-0.19792716162488274700415047391289 49:0.1490712 57:0.1490712 114:0.1490712 154:0.1490712 160:0.1490712 381:0.1490712 424:0.1490712 456:0.1490712 496:0.1490712 546:0.1490712 568:0.1490712 608:0.1490712 767:0.1490712 825:0.1490712 845:0.1490712 869:0.1490712 917:0.1490712 954:0.1490712 972:0.1490712 974:0.1490712 1015:0.1490712 1279:0.1490712 1305:0.1490712 1326:0.1490712 1353:0.1490712 1402:0.1490712 1422:0.1490712 1439:0.1490712 1462:0.1490712 1471:0.1490712 1518:0.1490712 1535:0.1490712 1595:0.1490712 1629:0.1490712 1706:0.1490712 1741:0.1490712 1814:0.1490712 1861:0.1490712 1891:0.1490712 1894:0.1490712 1899:0.1490712 1926:0.1490712 1935:0.1490712 1937:0.1490712 1972:0.1490712 #
1 3:0.11952286 40:0.11952286 106:0.11952286 134:0.11952286 139:0.11952286 176:0.11952286 183:0.11952286 267:0.11952286 286:0.11952286 293:0.11952286 340:0.11952286 343:0.11952286 426:0.11952286 524:0.11952286 537:0.11952286 597:0.11952286 651:0.11952286 662:0.11952286 672:0.11952286 676:0.11952286 677:0.11952286 679:0.11952286 680:0.11952286 748:0.11952286 749:0.11952286 763:0.11952286 777:0.11952286 778:0.11952286 810:0.11952286 823:0.11952286 901:0.11952286 954:0.11952286 976:0.11952286 987:0.11952286 1004:0.11952286 1061:0.11952286 1105:0.11952286 1155:0.11952286 1168:0.11952286 1174:0.11952286 1175:0.11952286 1229:0.11952286 1250:0.11952286 1258:0.11952286 1346:0.11952286 1434:0.11952286 1452:0.11952286 1464:0.11952286 1465:0.11952286 1499:0.11952286 1522:0.11952286 1535:0.11952286 1536:0.11952286 1618:0.11952286 1680:0.11952286 1684:0.11952286 1693:0.11952286 1694:0.11952286 1711:0.11952286 1765:0.11952286 1812:0.11952286 1839:0.11952286 1848:0.11952286 1851:0.11952286 1853:0.11952286 1857:0.11952286 1910:0.11952286 1927:0.11952286 1963:0.11952286 1995:0.11952286 #
1 21:0.10369517 33:0.10369517 53:0.10369517 83:0.10369517 111:0.10369517 138:0.10369517 149:0.10369517 160:0.10369517 215:0.10369517 263:0.10369517 287:0.10369517 294:0.10369517 309:0.10369517 313:0.10369517 340:0.10369517 349:0.10369517 351:0.10369517 353:0.10369517 357:0.10369517 359:0.10369517 380:0.10369517 398:0.10369517 424:0.10369517 432:0.10369517 456:0.10369517 530:0.10369517 546:0.10369517 556:0.10369517 568:0.10369517 596:0.10369517 627:0.10369517 639:0.10369517 645:0.10369517 655:0.10369517 672:0.10369517 711:0.10369517 725:0.10369517 749:0.10369517 763:0.10369517 772:0.10369517 781:0.10369517 784:0.10369517 825:0.10369517 845:0.10369517 846:0.10369517 847:0.10369517 879:0.10369517 887:0.10369517 954:0.10369517 963:0.10369517 971:0.10369517 987:0.10369517 1004:0.10369517 1009:0.10369517 1015:0.10369517 1033:0.10369517 1059:0.10369517 1083:0.10369517 1124:0.10369517 1165:0.10369517 1168:0.10369517 1169:0.10369517 1190:0.10369517 1215:0.10369517 1230:0.10369517 1251:0.10369517 1260:0.10369517 1263:0.10369517 1281:0.10369517 1305:0.10369517 1310:0.10369517 1345:0.10369517 1381:0.10369517 1453:0.10369517 1464:0.10369517 1516:0.10369517 1535:0.10369517 1602:0.10369517 1605:0.10369517 1620:0.10369517 1727:0.10369517 1737:0.10369517 1799:0.10369517 1818:0.10369517 1853:0.10369517 1898:0.10369517 1904:0.10369517 1921:0.10369517 1927:0.10369517 1954:0.10369517 1956:0.10369517 1960:0.10369517 1985:0.10369517 #
0.86626614142585756095371607443667 51:0.11547005 87:0.11547005 115:0.11547005 138:0.11547005 139:0.11547005 160:0.11547005 170:0.11547005 203:0.11547005 246:0.11547005 256:0.11547005 268:0.11547005 290:0.11547005 313:0.11547005 340:0.11547005 351:0.11547005 398:0.11547005 400:0.11547005 424:0.11547005 426:0.11547005 434:0.11547005 456:0.11547005 468:0.11547005 489:0.11547005 528:0.11547005 531:0.11547005 686:0.11547005 687:0.11547005 703:0.11547005 737:0.11547005 749:0.11547005 757:0.11547005 763:0.11547005 768:0.11547005 772:0.11547005 810:0.11547005 812:0.11547005 819:0.11547005 845:0.11547005 954:0.11547005 976:0.11547005 987:0.11547005 1004:0.11547005 1015:0.11547005 1068:0.11547005 1081:0.11547005 1137:0.11547005 1174:0.11547005 1302:0.11547005 1310:0.11547005 1317:0.11547005 1328:0.11547005 1329:0.11547005 1345:0.11547005 1386:0.11547005 1440:0.11547005 1442:0.11547005 1471:0.11547005 1535:0.11547005 1602:0.11547005 1604:0.11547005 1618:0.11547005 1649:0.11547005 1668:0.11547005 1687:0.11547005 1726:0.11547005 1729:0.11547005 1741:0.11547005 1778:0.11547005 1842:0.11547005 1848:0.11547005 1884:0.11547005 1952:0.11547005 1958:0.11547005 1960:0.11547005 1973:0.11547005 #
1 88:0.14285715 103:0.14285715 133:0.14285715 138:0.14285715 196:0.14285715 239:0.14285715 252:0.14285715 310:0.14285715 328:0.14285715 351:0.14285715 505:0.14285715 531:0.14285715 597:0.14285715 617:0.14285715 627:0.14285715 672:0.14285715 749:0.14285715 751:0.14285715 763:0.14285715 819:0.14285715 838:0.14285715 847:0.14285715 882:0.14285715 922:0.14285715 954:0.14285715 1004:0.14285715 1098:0.14285715 1123:0.14285715 1174:0.14285715 1201:0.14285715 1442:0.14285715 1471:0.14285715 1535:0.14285715 1612:0.14285715 1618:0.14285715 1652:0.14285715 1670:0.14285715 1684:0.14285715 1748:0.14285715 1770:0.14285715 1771:0.14285715 1811:0.14285715 1844:0.14285715 1853:0.14285715 1894:0.14285715 1927:0.14285715 1953:0.14285715 1956:0.14285715 1987:0.14285715 #
1 60:0.13867505 90:0.13867505 122:0.13867505 133:0.13867505 139:0.13867505 160:0.13867505 202:0.13867505 262:0.13867505 267:0.13867505 326:0.13867505 351:0.13867505 381:0.13867505 391:0.13867505 424:0.13867505 546:0.13867505 583:0.13867505 660:0.13867505 749:0.13867505 787:0.13867505 811:0.13867505 845:0.13867505 954:0.13867505 972:0.13867505 987:0.13867505 1006:0.13867505 1015:0.13867505 1070:0.13867505 1133:0.13867505 1189:0.13867505 1190:0.13867505 1215:0.13867505 1220:0.13867505 1252:0.13867505 1305:0.13867505 1322:0.13867505 1372:0.13867505 1386:0.13867505 1527:0.13867505 1535:0.13867505 1557:0.13867505 1618:0.13867505 1620:0.13867505 1665:0.13867505 1684:0.13867505 1746:0.13867505 1811:0.13867505 1829:0.13867505 1831:0.13867505 1848:0.13867505 1855:0.13867505 1925:0.13867505 1997:0.13867505 #
-1 88:0.12598816 106:0.12598816 138:0.12598816 139:0.12598816 160:0.12598816 161:0.12598816 214:0.12598816 218:0.12598816 280:0.12598816 310:0.12598816 340:0.12598816 351:0.12598816 381:0.12598816 398:0.12598816 424:0.12598816 546:0.12598816 614:0.12598816 639:0.12598816 672:0.12598816 716:0.12598816 725:0.12598816 728:0.12598816 749:0.12598816 764:0.12598816 779:0.12598816 790:0.12598816 829:0.12598816 845:0.12598816 872:0.12598816 894:0.12598816 963:0.12598816 976:0.12598816 1011:0.12598816 1030:0.12598816 1159:0.12598816 1260:0.12598816 1277:0.12598816 1305:0.12598816 1353:0.12598816 1402:0.12598816 1404:0.12598816 1460:0.12598816 1473:0.12598816 1475:0.12598816 1535:0.12598816 1564:0.12598816 1630:0.12598816 1646:0.12598816 1670:0.12598816 1680:0.12598816 1684:0.12598816 1727:0.12598816 1746:0.12598816 1811:0.12598816 1844:0.12598816 1848:0.12598816 1853:0.12598816 1857:0.12598816 1898:0.12598816 1921:0.12598816 1948:0.12598816 1956:0.12598816 1980:0.12598816 #
-0.010328645132796035466249406908901 30:0.13363062 32:0.13363062 160:0.13363062 164:0.13363062 263:0.13363062 293:0.13363062 298:0.13363062 313:0.13363062 344:0.13363062 357:0.13363062 417:0.13363062 444:0.13363062 456:0.13363062 465:0.13363062 530:0.13363062 550:0.13363062 566:0.13363062 597:0.13363062 614:0.13363062 622:0.13363062 640:0.13363062 672:0.13363062 725:0.13363062 749:0.13363062 807:0.13363062 845:0.13363062 855:0.13363062 942:0.13363062 951:0.13363062 963:0.13363062 972:0.13363062 978:0.13363062 1004:0.13363062 1015:0.13363062 1033:0.13363062 1108:0.13363062 1263:0.13363062 1265:0.13363062 1305:0.13363062 1310:0.13363062 1326:0.13363062 1328:0.13363062 1353:0.13363062 1354:0.13363062 1422:0.13363062 1452:0.13363062 1520:0.13363062 1582:0.13363062 1620:0.13363062 1624:0.13363062 1693:0.13363062 1743:0.13363062 1853:0.13363062 1886:0.13363062 1949:0.13363062 1966:0.13363062 #
-0.15153419120136024655920436998713 52:0.12700012 67:0.12700012 77:0.12700012 99:0.12700012 139:0.12700012 160:0.12700012 164:0.12700012 289:0.12700012 313:0.12700012 328:0.12700012 351:0.12700012 357:0.12700012 398:0.12700012 403:0.12700012 418:0.12700012 449:0.12700012 477:0.12700012 546:0.12700012 665:0.12700012 700:0.12700012 722:0.12700012 741:0.12700012 749:0.12700012 757:0.12700012 772:0.12700012 807:0.12700012 811:0.12700012 825:0.12700012 835:0.12700012 845:0.12700012 870:0.12700012 894:0.12700012 910:0.12700012 954:0.12700012 1011:0.12700012 1015:0.12700012 1055:0.12700012 1057:0.12700012 1174:0.12700012 1188:0.12700012 1190:0.12700012 1201:0.12700012 1305:0.12700012 1308:0.12700012 1328:0.12700012 1403:0.12700012 1422:0.12700012 1460:0.12700012 1477:0.12700012 1532:0.12700012 1535:0.12700012 1543:0.12700012 1620:0.12700012 1650:0.12700012 1670:0.12700012 1684:0.12700012 1752:0.12700012 1754:0.12700012 1827:0.12700012 1875:0.12700012 1946:0.12700012 1951:0.12700012 #
-0.27644555859704833533641021858784 109:0.12216944 123:0.12216944 138:0.12216944 139:0.12216944 160:0.12216944 187:0.12216944 326:0.12216944 340:0.12216944 351:0.12216944 357:0.12216944 424:0.12216944 444:0.12216944 450:0.12216944 456:0.12216944 465:0.12216944 491:0.12216944 531:0.12216944 538:0.12216944 550:0.12216944 610:0.12216944 655:0.12216944 673:0.12216944 706:0.12216944 749:0.12216944 801:0.12216944 807:0.12216944 845:0.12216944 846:0.12216944 860:0.12216944 887:0.12216944 902:0.12216944 954:0.12216944 963:0.12216944 987:0.12216944 1033:0.12216944 1057:0.12216944 1087:0.12216944 1150:0.12216944 1169:0.12216944 1245:0.12216944 1258:0.12216944 1271:0.12216944 1305:0.12216944 1328:0.12216944 1336:0.12216944 1341:0.12216944 1349:0.12216944 1353:0.12216944 1460:0.12216944 1495:0.12216944 1499:0.12216944 1504:0.12216944 1535:0.12216944 1552:0.12216944 1618:0.12216944 1629:0.12216944 1693:0.12216944 1711:0.12216944 1757:0.12216944 1842:0.12216944 1848:0.12216944 1851:0.12216944 1877:0.12216944 1925:0.12216944 1937:0.12216944 1956:0.12216944 1962:0.12216944 #
-0.3313904680001381053422448985657 65:0.13245323 133:0.13245323 139:0.13245323 160:0.13245323 162:0.13245323 219:0.13245323 299:0.13245323 313:0.13245323 344:0.13245323 351:0.13245323 424:0.13245323 431:0.13245323 499:0.13245323 534:0.13245323 637:0.13245323 645:0.13245323 646:0.13245323 666:0.13245323 732:0.13245323 737:0.13245323 749:0.13245323 763:0.13245323 845:0.13245323 847:0.13245323 869:0.13245323 940:0.13245323 954:0.13245323 972:0.13245323 998:0.13245323 1004:0.13245323 1015:0.13245323 1065:0.13245323 1082:0.13245323 1125:0.13245323 1233:0.13245323 1263:0.13245323 1266:0.13245323 1303:0.13245323 1305:0.13245323 1310:0.13245323 1328:0.13245323 1353:0.13245323 1392:0.13245323 1459:0.13245323 1578:0.13245323 1618:0.13245323 1620:0.13245323 1680:0.13245323 1737:0.13245323 1741:0.13245323 1751:0.13245323 1844:0.13245323 1853:0.13245323 1870:0.13245323 1904:0.13245323 1954:0.13245323 1963:0.13245323 #
1 39:0.17677669 138:0.17677669 204:0.17677669 227:0.17677669 313:0.17677669 317:0.17677669 504:0.17677669 511:0.17677669 588:0.17677669 654:0.17677669 691:0.17677669 749:0.17677669 757:0.17677669 955:0.17677669 990:0.17677669 1033:0.17677669 1185:0.17677669 1227:0.17677669 1228:0.17677669 1277:0.17677669 1328:0.17677669 1620:0.17677669 1667:0.17677669 1680:0.17677669 1690:0.17677669 1727:0.17677669 1741:0.17677669 1904:0.17677669 1934:0.17677669 1977:0.17677669 1980:0.17677669 1988:0.17677669 #
1 69:0.16012815 77:0.16012815 117:0.16012815 130:0.16012815 133:0.16012815 134:0.16012815 139:0.16012815 165:0.16012815 203:0.16012815 212:0.16012815 215:0.16012815 263:0.16012815 328:0.16012815 357:0.16012815 434:0.16012815 551:0.16012815 722:0.16012815 725:0.16012815 749:0.16012815 829:0.16012815 963:0.16012815 985:0.16012815 1015:0.16012815 1033:0.16012815 1070:0.16012815 1092:0.16012815 1116:0.16012815 1127:0.16012815 1328:0.16012815 1532:0.16012815 1534:0.16012815 1602:0.16012815 1727:0.16012815 1741:0.16012815 1844:0.16012815 1851:0.16012815 1920:0.16012815 1927:0.16012815 1956:0.16012815 #
-0.20519629794188476434868562137126 32:0.097128585 58:0.097128585 79:0.097128585 103:0.097128585 118:0.097128585 122:0.097128585 128:0.097128585 139:0.097128585 160:0.097128585 251:0.097128585 269:0.097128585 272:0.097128585 293:0.097128585 313:0.097128585 326:0.097128585 328:0.097128585 336:0.097128585 340:0.097128585 342:0.097128585 351:0.097128585 380:0.097128585 407:0.097128585 410:0.097128585 418:0.097128585 424:0.097128585 455:0.097128585 456:0.097128585 467:0.097128585 477:0.097128585 539:0.097128585 572:0.097128585 643:0.097128585 675:0.097128585 725:0.097128585 749:0.097128585 763:0.097128585 778:0.097128585 807:0.097128585 825:0.097128585 836:0.097128585 843:0.097128585 845:0.097128585 860:0.097128585 885:0.097128585 889:0.097128585 941:0.097128585 953:0.097128585 963:0.097128585 984:0.097128585 987:0.097128585 1004:0.097128585 1015:0.097128585 1033:0.097128585 1044:0.097128585 1066:0.097128585 1070:0.097128585 1082:0.097128585 1083:0.097128585 1091:0.097128585 1096:0.097128585 1106:0.097128585 1162:0.097128585 1163:0.097128585 1208:0.097128585 1214:0.097128585 1233:0.097128585 1281:0.097128585 1305:0.097128585 1328:0.097128585 1353:0.097128585 1356:0.097128585 1372:0.097128585 1433:0.097128585 1465:0.097128585 1468:0.097128585 1471:0.097128585 1498:0.097128585 1519:0.097128585 1535:0.097128585 1571:0.097128585 1592:0.097128585 1609:0.097128585 1612:0.097128585 1618:0.097128585 1622:0.097128585 1625:0.097128585 1652:0.097128585 1670:0.097128585 1684:0.097128585 1693:0.097128585 1699:0.097128585 1702:0.097128585 1710:0.097128585 1711:0.097128585 1727:0.097128585 1741:0.097128585 1747:0.097128585 1804:0.097128585 1816:0.097128585 1833:0.097128585 1853:0.097128585 1878:0.097128585 1898:0.097128585 1901:0.097128585 1904:0.097128585 1960:0.097128585 #
1 30:0.15617377 52:0.15617377 92:0.15617377 99:0.15617377 107:0.15617377 113:0.15617377 124:0.15617377 134:0.15617377 290:0.15617377 310:0.15617377 351:0.15617377 357:0.15617377 396:0.15617377 546:0.15617377 608:0.15617377 725:0.15617377 757:0.15617377 778:0.15617377 811:0.15617377 823:0.15617377 927:0.15617377 954:0.15617377 1015:0.15617377 1028:0.15617377 1033:0.15617377 1112:0.15617377 1135:0.15617377 1198:0.15617377 1306:0.15617377 1477:0.15617377 1535:0.15617377 1549:0.15617377 1555:0.15617377 1602:0.15617377 1620:0.15617377 1640:0.15617377 1670:0.15617377 1760:0.15617377 1842:0.15617377 1904:0.15617377 1968:0.15617377 #
1 52:0.15249857 88:0.15249857 115:0.15249857 122:0.15249857 134:0.15249857 313:0.15249857 353:0.15249857 359:0.15249857 415:0.15249857 424:0.15249857 478:0.15249857 519:0.15249857 533:0.15249857 645:0.15249857 673:0.15249857 705:0.15249857 757:0.15249857 769:0.15249857 780:0.15249857 870:0.15249857 904:0.15249857 956:0.15249857 972:0.15249857 1015:0.15249857 1149:0.15249857 1182:0.15249857 1190:0.15249857 1195:0.15249857 1305:0.15249857 1326:0.15249857 1401:0.15249857 1427:0.15249857 1516:0.15249857 1535:0.15249857 1582:0.15249857 1670:0.15249857 1693:0.15249857 1820:0.15249857 1842:0.15249857 1848:0.15249857 1927:0.15249857 1956:0.15249857 1972:0.15249857 #
-1 113:0.20851441 163:0.20851441 357:0.20851441 387:0.20851441 420:0.20851441 551:0.20851441 608:0.20851441 718:0.20851441 741:0.20851441 1106:0.20851441 1190:0.20851441 1331:0.20851441 1353:0.20851441 1452:0.20851441 1471:0.20851441 1535:0.20851441 1679:0.20851441 1684:0.20851441 1728:0.20851441 1853:0.20851441 1892:0.20851441 1920:0.20851441 1927:0.20851441 #
-0.56624904476594462021665776774171 63:0.17149858 160:0.17149858 162:0.17149858 245:0.17149858 317:0.17149858 351:0.17149858 357:0.17149858 546:0.17149858 665:0.17149858 672:0.17149858 673:0.17149858 694:0.17149858 823:0.17149858 1015:0.17149858 1020:0.17149858 1067:0.17149858 1165:0.17149858 1168:0.17149858 1331:0.17149858 1337:0.17149858 1422:0.17149858 1454:0.17149858 1464:0.17149858 1525:0.17149858 1543:0.17149858 1618:0.17149858 1634:0.17149858 1659:0.17149858 1851:0.17149858 1853:0.17149858 1854:0.17149858 1876:0.17149858 1904:0.17149858 1972:0.17149858 #
-1 90:0.20851441 133:0.20851441 160:0.20851441 249:0.20851441 313:0.20851441 434:0.20851441 466:0.20851441 482:0.20851441 558:0.20851441 778:0.20851441 871:0.20851441 1006:0.20851441 1070:0.20851441 1160:0.20851441 1186:0.20851441 1381:0.20851441 1471:0.20851441 1684:0.20851441 1847:0.20851441 1876:0.20851441 1887:0.20851441 1914:0.20851441 1954:0.20851441 #
-0.13460167139748541176302865096659 19:0.06166264 30:0.06166264 32:0.06166264 35:0.06166264 63:0.06166264 69:0.06166264 77:0.06166264 79:0.06166264 88:0.06166264 89:0.06166264 93:0.06166264 101:0.06166264 102:0.06166264 103:0.06166264 110:0.06166264 116:0.06166264 133:0.06166264 134:0.06166264 138:0.06166264 139:0.06166264 145:0.06166264 160:0.06166264 165:0.06166264 167:0.06166264 177:0.06166264 185:0.06166264 187:0.06166264 194:0.06166264 196:0.06166264 205:0.06166264 212:0.06166264 217:0.06166264 218:0.06166264 236:0.06166264 246:0.06166264 248:0.06166264 254:0.06166264 263:0.06166264 272:0.06166264 286:0.06166264 294:0.06166264 313:0.06166264 326:0.06166264 328:0.06166264 340:0.06166264 351:0.06166264 357:0.06166264 359:0.06166264 362:0.06166264 377:0.06166264 381:0.06166264 386:0.06166264 391:0.06166264 394:0.06166264 398:0.06166264 403:0.06166264 416:0.06166264 418:0.06166264 419:0.06166264 424:0.06166264 430:0.06166264 434:0.06166264 442:0.06166264 443:0.06166264 456:0.06166264 465:0.06166264 477:0.06166264 479:0.06166264 490:0.06166264 520:0.06166264 531:0.06166264 533:0.06166264 543:0.06166264 579:0.06166264 586:0.06166264 608:0.06166264 609:0.06166264 612:0.06166264 614:0.06166264 620:0.06166264 635:0.06166264 645:0.06166264 650:0.06166264 655:0.06166264 668:0.06166264 672:0.06166264 673:0.06166264 701:0.06166264 703:0.06166264 717:0.06166264 723:0.06166264 725:0.06166264 727:0.06166264 728:0.06166264 741:0.06166264 744:0.06166264 749:0.06166264 763:0.06166264 767:0.06166264 769:0.06166264 772:0.06166264 778:0.06166264 800:0.06166264 811:0.06166264 814:0.06166264 825:0.06166264 832:0.06166264 837:0.06166264 845:0.06166264 847:0.06166264 848:0.06166264 872:0.06166264 882:0.06166264 891:0.06166264 899:0.06166264 904:0.06166264 927:0.06166264 936:0.06166264 946:0.06166264 947:0.06166264 954:0.06166264 960:0.06166264 963:0.06166264 969:0.06166264 972:0.06166264 976:0.06166264 978:0.06166264 987:0.06166264 998:0.06166264 1003:0.06166264 1004:0.06166264 1009:0.06166264 1015:0.06166264 1033:0.06166264 1047:0.06166264 1057:0.06166264 1069:0.06166264 1083:0.06166264 1091:0.06166264 1097:0.06166264 1106:0.06166264 1110:0.06166264 1117:0.06166264 1122:0.06166264 1127:0.06166264 1130:0.06166264 1133:0.06166264 1151:0.06166264 1167:0.06166264 1178:0.06166264 1182:0.06166264 1190:0.06166264 1196:0.06166264 1208:0.06166264 1209:0.06166264 1216:0.06166264 1220:0.06166264 1238:0.06166264 1246:0.06166264 1252:0.06166264 1256:0.06166264 1262:0.06166264 1281:0.06166264 1303:0.06166264 1305:0.06166264 1310:0.06166264 1315:0.06166264 1322:0.06166264 1326:0.06166264 1328:0.06166264 1345:0.06166264 1351:0.06166264 1353:0.06166264 1360:0.06166264 1379:0.06166264 1404:0.06166264 1413:0.06166264 1419:0.06166264 1452:0.06166264 1460:0.06166264 1464:0.06166264 1471:0.06166264 1473:0.06166264 1482:0.06166264 1489:0.06166264 1495:0.06166264 1498:0.06166264 1499:0.06166264 1504:0.06166264 1515:0.06166264 1516:0.06166264 1526:0.06166264 1535:0.06166264 1536:0.06166264 1538:0.06166264 1549:0.06166264 1569:0.06166264 1578:0.06166264 1580:0.06166264 1581:0.06166264 1582:0.06166264 1585:0.06166264 1594:0.06166264 1605:0.06166264 1607:0.06166264 1618:0.06166264 1629:0.06166264 1653:0.06166264 1665:0.06166264 1668:0.06166264 1673:0.06166264 1676:0.06166264 1684:0.06166264 1688:0.06166264 1691:0.06166264 1705:0.06166264 1711:0.06166264 1725:0.06166264 1727:0.06166264 1729:0.06166264 1737:0.06166264 1741:0.06166264 1748:0.06166264 1750:0.06166264 1770:0.06166264 1782:0.06166264 1785:0.06166264 1794:0.06166264 1797:0.06166264 1803:0.06166264 1813:0.06166264 1825:0.06166264 1826:0.06166264 1830:0.06166264 1832:0.06166264 1833:0.06166264 1844:0.06166264 1848:0.06166264 1850:0.06166264 1851:0.06166264 1853:0.06166264 1855:0.06166264 1856:0.06166264 1861:0.06166264 1875:0.06166264 1877:0.06166264 1878:0.06166264 1890:0.06166264 1904:0.06166264 1910:0.06166264 1915:0.06166264 1918:0.06166264 1921:0.06166264 1926:0.06166264 1927:0.06166264 1931:0.06166264 1933:0.06166264 1956:0.06166264 1960:0.06166264 1963:0.06166264 1966:0.06166264 1969:0.06166264 1988:0.06166264 #
-1 63:0.21320072 77:0.21320072 99:0.21320072 257:0.21320072 361:0.21320072 562:0.21320072 612:0.21320072 772:0.21320072 901:0.21320072 963:0.21320072 1167:0.21320072 1331:0.21320072 1362:0.21320072 1464:0.21320072 1535:0.21320072 1596:0.21320072 1602:0.21320072 1670:0.21320072 1684:0.21320072 1727:0.21320072 1920:0.21320072 1956:0.21320072 #
1 30:0.12126781 67:0.12126781 77:0.12126781 90:0.12126781 99:0.12126781 123:0.12126781 139:0.12126781 160:0.12126781 172:0.12126781 176:0.12126781 205:0.12126781 263:0.12126781 300:0.12126781 326:0.12126781 328:0.12126781 340:0.12126781 357:0.12126781 381:0.12126781 415:0.12126781 424:0.12126781 477:0.12126781 504:0.12126781 546:0.12126781 672:0.12126781 673:0.12126781 741:0.12126781 749:0.12126781 807:0.12126781 898:0.12126781 904:0.12126781 919:0.12126781 921:0.12126781 954:0.12126781 976:0.12126781 987:0.12126781 1004:0.12126781 1083:0.12126781 1157:0.12126781 1159:0.12126781 1188:0.12126781 1203:0.12126781 1249:0.12126781 1305:0.12126781 1315:0.12126781 1323:0.12126781 1328:0.12126781 1464:0.12126781 1498:0.12126781 1522:0.12126781 1526:0.12126781 1535:0.12126781 1606:0.12126781 1618:0.12126781 1670:0.12126781 1675:0.12126781 1684:0.12126781 1722:0.12126781 1768:0.12126781 1787:0.12126781 1816:0.12126781 1848:0.12126781 1855:0.12126781 1864:0.12126781 1898:0.12126781 1899:0.12126781 1921:0.12126781 1956:0.12126781 1960:0.12126781 #
