SVM-light Version V6.02
0 # kernel type
3 # kernel parameter -d 
1 # kernel parameter -g 
1 # kernel parameter -s 
1 # kernel parameter -r 
empty# kernel parameter -u 
2000 # highest feature index 
2000 # number of training documents 
607 # number of support vectors plus 1 
0.75088654 # threshold b, each following line is a SV (starting with alpha*y)
-0.95170959616108008471968560115783 77:0.22941573 139:0.22941573 175:0.22941573 245:0.22941573 313:0.22941573 357:0.22941573 387:0.22941573 483:0.22941573 741:0.22941573 764:0.22941573 963:0.22941573 1067:0.22941573 1331:0.22941573 1580:0.22941573 1603:0.22941573 1898:0.22941573 1954:0.22941573 1961:0.22941573 1972:0.22941573 #
0.34981166233324639813773160312849 63:0.14433756 77:0.14433756 83:0.14433756 95:0.14433756 149:0.14433756 160:0.14433756 313:0.14433756 328:0.14433756 340:0.14433756 357:0.14433756 379:0.14433756 388:0.14433756 424:0.14433756 431:0.14433756 449:0.14433756 458:0.14433756 521:0.14433756 525:0.14433756 595:0.14433756 625:0.14433756 626:0.14433756 663:0.14433756 749:0.14433756 772:0.14433756 830:0.14433756 954:0.14433756 963:0.14433756 976:0.14433756 987:0.14433756 1015:0.14433756 1119:0.14433756 1203:0.14433756 1317:0.14433756 1322:0.14433756 1330:0.14433756 1464:0.14433756 1497:0.14433756 1504:0.14433756 1529:0.14433756 1580:0.14433756 1646:0.14433756 1693:0.14433756 1710:0.14433756 1797:0.14433756 1844:0.14433756 1846:0.14433756 1898:0.14433756 1984:0.14433756 #
-0.044712763456525549121689522280576 15:0.082760587 16:0.082760587 30:0.082760587 43:0.082760587 44:0.082760587 51:0.082760587 53:0.082760587 54:0.082760587 63:0.082760587 77:0.082760587 91:0.082760587 99:0.082760587 113:0.082760587 130:0.082760587 138:0.082760587 139:0.082760587 149:0.082760587 192:0.082760587 199:0.082760587 206:0.082760587 263:0.082760587 267:0.082760587 268:0.082760587 270:0.082760587 282:0.082760587 313:0.082760587 326:0.082760587 328:0.082760587 329:0.082760587 345:0.082760587 351:0.082760587 357:0.082760587 381:0.082760587 392:0.082760587 413:0.082760587 415:0.082760587 418:0.082760587 424:0.082760587 456:0.082760587 479:0.082760587 483:0.082760587 554:0.082760587 557:0.082760587 562:0.082760587 597:0.082760587 608:0.082760587 614:0.082760587 642:0.082760587 658:0.082760587 672:0.082760587 673:0.082760587 679:0.082760587 709:0.082760587 722:0.082760587 725:0.082760587 736:0.082760587 741:0.082760587 745:0.082760587 749:0.082760587 757:0.082760587 763:0.082760587 811:0.082760587 853:0.082760587 854:0.082760587 872:0.082760587 878:0.082760587 885:0.082760587 904:0.082760587 905:0.082760587 919:0.082760587 931:0.082760587 954:0.082760587 956:0.082760587 957:0.082760587 963:0.082760587 976:0.082760587 978:0.082760587 986:0.082760587 1003:0.082760587 1004:0.082760587 1015:0.082760587 1042:0.082760587 1051:0.082760587 1057:0.082760587 1070:0.082760587 1083:0.082760587 1167:0.082760587 1169:0.082760587 1171:0.082760587 1188:0.082760587 1191:0.082760587 1201:0.082760587 1204:0.082760587 1210:0.082760587 1220:0.082760587 1225:0.082760587 1231:0.082760587 1245:0.082760587 1256:0.082760587 1326:0.082760587 1328:0.082760587 1331:0.082760587 1345:0.082760587 1359:0.082760587 1379:0.082760587 1381:0.082760587 1398:0.082760587 1409:0.082760587 1452:0.082760587 1463:0.082760587 1464:0.082760587 1471:0.082760587 1477:0.082760587 1535:0.082760587 1541:0.082760587 1548:0.082760587 1562:0.082760587 1580:0.082760587 1616:0.082760587 1618:0.082760587 1620:0.082760587 1630:0.082760587 1646:0.082760587 1680:0.082760587 1684:0.082760587 1692:0.082760587 1711:0.082760587 1727:0.082760587 1737:0.082760587 1746:0.082760587 1750:0.082760587 1775:0.082760587 1794:0.082760587 1814:0.082760587 1816:0.082760587 1844:0.082760587 1851:0.082760587 1853:0.082760587 1869:0.082760587 1898:0.082760587 1899:0.082760587 1927:0.082760587 1937:0.082760587 1962:0.082760587 1988:0.082760587 1998:0.082760587 #
-1 91:0.15811388 99:0.15811388 145:0.15811388 146:0.15811388 154:0.15811388 160:0.15811388 263:0.15811388 313:0.15811388 424:0.15811388 467:0.15811388 496:0.15811388 538:0.15811388 546:0.15811388 694:0.15811388 778:0.15811388 845:0.15811388 894:0.15811388 954:0.15811388 955:0.15811388 991:0.15811388 1015:0.15811388 1121:0.15811388 1169:0.15811388 1178:0.15811388 1305:0.15811388 1328:0.15811388 1482:0.15811388 1535:0.15811388 1571:0.15811388 1595:0.15811388 1618:0.15811388 1639:0.15811388 1685:0.15811388 1742:0.15811388 1764:0.15811388 1848:0.15811388 1875:0.15811388 1876:0.15811388 1894:0.15811388 1926:0.15811388 #
-0.1768201014221453815089546424133 15:0.11470786 36:0.11470786 107:0.11470786 136:0.11470786 160:0.11470786 169:0.11470786 217:0.11470786 223:0.11470786 298:0.11470786 337:0.11470786 351:0.11470786 357:0.11470786 456:0.11470786 473:0.11470786 593:0.11470786 608:0.11470786 642:0.11470786 661:0.11470786 672:0.11470786 674:0.11470786 679:0.11470786 722:0.11470786 741:0.11470786 749:0.11470786 794:0.11470786 824:0.11470786 837:0.11470786 845:0.11470786 944:0.11470786 954:0.11470786 1004:0.11470786 1015:0.11470786 1041:0.11470786 1075:0.11470786 1106:0.11470786 1154:0.11470786 1159:0.11470786 1221:0.11470786 1223:0.11470786 1228:0.11470786 1231:0.11470786 1244:0.11470786 1259:0.11470786 1261:0.11470786 1281:0.11470786 1305:0.11470786 1310:0.11470786 1336:0.11470786 1353:0.11470786 1377:0.11470786 1384:0.11470786 1409:0.11470786 1413:0.11470786 1460:0.11470786 1464:0.11470786 1467:0.11470786 1498:0.11470786 1500:0.11470786 1523:0.11470786 1535:0.11470786 1542:0.11470786 1568:0.11470786 1651:0.11470786 1670:0.11470786 1696:0.11470786 1711:0.11470786 1726:0.11470786 1727:0.11470786 1765:0.11470786 1818:0.11470786 1848:0.11470786 1851:0.11470786 1861:0.11470786 1927:0.11470786 1953:0.11470786 1973:0.11470786 #
-0.58488803576901116088038179441355 77:0.22941573 158:0.22941573 164:0.22941573 334:0.22941573 335:0.22941573 351:0.22941573 424:0.22941573 456:0.22941573 659:0.22941573 947:0.22941573 1015:0.22941573 1281:0.22941573 1358:0.22941573 1427:0.22941573 1535:0.22941573 1582:0.22941573 1715:0.22941573 1790:0.22941573 1921:0.22941573 #
0.23634388572789907789761798539985 73:0.19245009 138:0.19245009 160:0.19245009 161:0.19245009 204:0.19245009 263:0.19245009 340:0.19245009 537:0.19245009 568:0.19245009 626:0.19245009 700:0.19245009 841:0.19245009 879:0.19245009 961:0.19245009 987:0.19245009 1005:0.19245009 1083:0.19245009 1159:0.19245009 1185:0.19245009 1221:0.19245009 1290:0.19245009 1431:0.19245009 1473:0.19245009 1535:0.19245009 1618:0.19245009 1740:0.19245009 1853:0.19245009 #
-0.73648354540780314181347421254031 31:0.25 85:0.25 210:0.25 313:0.25 431:0.25 443:0.25 677:0.25 932:0.25 996:0.25 1119:0.25 1202:0.25 1470:0.25 1542:0.25 1593:0.25 1888:0.25 1954:0.25 #
-0.6995554390372298314559884602204 52:0.12598816 53:0.12598816 62:0.12598816 139:0.12598816 164:0.12598816 276:0.12598816 285:0.12598816 313:0.12598816 325:0.12598816 340:0.12598816 357:0.12598816 380:0.12598816 381:0.12598816 387:0.12598816 398:0.12598816 418:0.12598816 443:0.12598816 449:0.12598816 456:0.12598816 463:0.12598816 546:0.12598816 592:0.12598816 604:0.12598816 609:0.12598816 725:0.12598816 741:0.12598816 749:0.12598816 769:0.12598816 772:0.12598816 832:0.12598816 872:0.12598816 894:0.12598816 895:0.12598816 921:0.12598816 954:0.12598816 963:0.12598816 964:0.12598816 976:0.12598816 987:0.12598816 1033:0.12598816 1076:0.12598816 1083:0.12598816 1095:0.12598816 1168:0.12598816 1185:0.12598816 1326:0.12598816 1330:0.12598816 1422:0.12598816 1433:0.12598816 1444:0.12598816 1618:0.12598816 1646:0.12598816 1684:0.12598816 1727:0.12598816 1853:0.12598816 1878:0.12598816 1896:0.12598816 1905:0.12598816 1934:0.12598816 1943:0.12598816 1953:0.12598816 1956:0.12598816 1972:0.12598816 #
0.53414041357521169217648093763273 22:0.12126781 41:0.12126781 64:0.12126781 77:0.12126781 91:0.12126781 99:0.12126781 111:0.12126781 185:0.12126781 263:0.12126781 357:0.12126781 384:0.12126781 424:0.12126781 455:0.12126781 494:0.12126781 546:0.12126781 608:0.12126781 645:0.12126781 657:0.12126781 672:0.12126781 741:0.12126781 749:0.12126781 772:0.12126781 778:0.12126781 784:0.12126781 811:0.12126781 813:0.12126781 819:0.12126781 823:0.12126781 871:0.12126781 877:0.12126781 891:0.12126781 920:0.12126781 927:0.12126781 963:0.12126781 987:0.12126781 989:0.12126781 1107:0.12126781 1122:0.12126781 1168:0.12126781 1169:0.12126781 1308:0.12126781 1309:0.12126781 1394:0.12126781 1483:0.12126781 1535:0.12126781 1559:0.12126781 1580:0.12126781 1618:0.12126781 1670:0.12126781 1686:0.12126781 1711:0.12126781 1727:0.12126781 1753:0.12126781 1756:0.12126781 1782:0.12126781 1786:0.12126781 1815:0.12126781 1833:0.12126781 1844:0.12126781 1848:0.12126781 1850:0.12126781 1851:0.12126781 1853:0.12126781 1898:0.12126781 1910:0.12126781 1950:0.12126781 1956:0.12126781 1988:0.12126781 #
-0.89461868906886188312910235254094 8:0.15430336 13:0.15430336 63:0.15430336 88:0.15430336 103:0.15430336 190:0.15430336 293:0.15430336 313:0.15430336 387:0.15430336 424:0.15430336 425:0.15430336 463:0.15430336 477:0.15430336 546:0.15430336 555:0.15430336 571:0.15430336 672:0.15430336 772:0.15430336 823:0.15430336 869:0.15430336 954:0.15430336 1190:0.15430336 1228:0.15430336 1293:0.15430336 1317:0.15430336 1318:0.15430336 1328:0.15430336 1386:0.15430336 1422:0.15430336 1497:0.15430336 1498:0.15430336 1529:0.15430336 1606:0.15430336 1618:0.15430336 1684:0.15430336 1727:0.15430336 1781:0.15430336 1797:0.15430336 1815:0.15430336 1916:0.15430336 1972:0.15430336 1980:0.15430336 #
-0.37728511093687400190788139298093 263:0.28867513 351:0.28867513 396:0.28867513 405:0.28867513 954:0.28867513 987:0.28867513 1535:0.28867513 1670:0.28867513 1685:0.28867513 1792:0.28867513 1842:0.28867513 1972:0.28867513 #
-0.89875450354010344433675072650658 25:0.15430336 63:0.15430336 180:0.15430336 190:0.15430336 263:0.15430336 293:0.15430336 313:0.15430336 387:0.15430336 424:0.15430336 463:0.15430336 477:0.15430336 546:0.15430336 552:0.15430336 609:0.15430336 724:0.15430336 781:0.15430336 836:0.15430336 856:0.15430336 882:0.15430336 954:0.15430336 960:0.15430336 963:0.15430336 987:0.15430336 1178:0.15430336 1190:0.15430336 1328:0.15430336 1421:0.15430336 1464:0.15430336 1485:0.15430336 1499:0.15430336 1536:0.15430336 1598:0.15430336 1620:0.15430336 1645:0.15430336 1727:0.15430336 1728:0.15430336 1831:0.15430336 1846:0.15430336 1851:0.15430336 1853:0.15430336 1929:0.15430336 1980:0.15430336 #
-0.14002854902298333961141452164156 21:0.08032193 30:0.08032193 38:0.08032193 51:0.08032193 73:0.08032193 87:0.08032193 107:0.08032193 126:0.08032193 133:0.08032193 138:0.08032193 139:0.08032193 160:0.08032193 185:0.08032193 215:0.08032193 255:0.08032193 263:0.08032193 281:0.08032193 293:0.08032193 298:0.08032193 313:0.08032193 325:0.08032193 332:0.08032193 336:0.08032193 340:0.08032193 351:0.08032193 357:0.08032193 359:0.08032193 381:0.08032193 388:0.08032193 392:0.08032193 418:0.08032193 424:0.08032193 455:0.08032193 456:0.08032193 465:0.08032193 470:0.08032193 474:0.08032193 477:0.08032193 507:0.08032193 525:0.08032193 554:0.08032193 558:0.08032193 564:0.08032193 579:0.08032193 608:0.08032193 609:0.08032193 618:0.08032193 620:0.08032193 645:0.08032193 655:0.08032193 661:0.08032193 665:0.08032193 672:0.08032193 720:0.08032193 745:0.08032193 749:0.08032193 757:0.08032193 769:0.08032193 772:0.08032193 783:0.08032193 812:0.08032193 813:0.08032193 823:0.08032193 825:0.08032193 833:0.08032193 834:0.08032193 845:0.08032193 846:0.08032193 847:0.08032193 859:0.08032193 872:0.08032193 916:0.08032193 921:0.08032193 927:0.08032193 939:0.08032193 954:0.08032193 963:0.08032193 976:0.08032193 987:0.08032193 998:0.08032193 1004:0.08032193 1009:0.08032193 1010:0.08032193 1041:0.08032193 1053:0.08032193 1083:0.08032193 1084:0.08032193 1106:0.08032193 1119:0.08032193 1144:0.08032193 1153:0.08032193 1159:0.08032193 1177:0.08032193 1182:0.08032193 1185:0.08032193 1188:0.08032193 1200:0.08032193 1225:0.08032193 1251:0.08032193 1263:0.08032193 1304:0.08032193 1305:0.08032193 1308:0.08032193 1310:0.08032193 1315:0.08032193 1328:0.08032193 1350:0.08032193 1358:0.08032193 1389:0.08032193 1401:0.08032193 1402:0.08032193 1410:0.08032193 1417:0.08032193 1451:0.08032193 1462:0.08032193 1464:0.08032193 1471:0.08032193 1473:0.08032193 1478:0.08032193 1499:0.08032193 1549:0.08032193 1570:0.08032193 1580:0.08032193 1618:0.08032193 1620:0.08032193 1629:0.08032193 1673:0.08032193 1684:0.08032193 1688:0.08032193 1715:0.08032193 1725:0.08032193 1739:0.08032193 1763:0.08032193 1802:0.08032193 1804:0.08032193 1845:0.08032193 1847:0.08032193 1848:0.08032193 1853:0.08032193 1861:0.08032193 1877:0.08032193 1885:0.08032193 1921:0.08032193 1922:0.08032193 1926:0.08032193 1927:0.08032193 1930:0.08032193 1933:0.08032193 1934:0.08032193 1936:0.08032193 1956:0.08032193 1960:0.08032193 1961:0.08032193 1980:0.08032193 1988:0.08032193 #
-0.89048111670020269059477868722752 53:0.16903085 88:0.16903085 249:0.16903085 258:0.16903085 387:0.16903085 424:0.16903085 443:0.16903085 655:0.16903085 810:0.16903085 811:0.16903085 872:0.16903085 976:0.16903085 987:0.16903085 1004:0.16903085 1109:0.16903085 1159:0.16903085 1328:0.16903085 1331:0.16903085 1422:0.16903085 1466:0.16903085 1535:0.16903085 1581:0.16903085 1618:0.16903085 1646:0.16903085 1684:0.16903085 1705:0.16903085 1799:0.16903085 1805:0.16903085 1814:0.16903085 1831:0.16903085 1853:0.16903085 1857:0.16903085 1940:0.16903085 1953:0.16903085 1972:0.16903085 #
1 10:0.14142136 35:0.14142136 63:0.14142136 77:0.14142136 83:0.14142136 113:0.14142136 134:0.14142136 138:0.14142136 153:0.14142136 160:0.14142136 263:0.14142136 339:0.14142136 351:0.14142136 381:0.14142136 424:0.14142136 505:0.14142136 558:0.14142136 665:0.14142136 672:0.14142136 725:0.14142136 749:0.14142136 763:0.14142136 769:0.14142136 772:0.14142136 775:0.14142136 811:0.14142136 826:0.14142136 920:0.14142136 961:0.14142136 963:0.14142136 1015:0.14142136 1094:0.14142136 1169:0.14142136 1296:0.14142136 1305:0.14142136 1331:0.14142136 1396:0.14142136 1500:0.14142136 1535:0.14142136 1602:0.14142136 1646:0.14142136 1670:0.14142136 1727:0.14142136 1805:0.14142136 1844:0.14142136 1853:0.14142136 1887:0.14142136 1904:0.14142136 1966:0.14142136 1987:0.14142136 #
1 63:0.11396058 69:0.11396058 77:0.11396058 79:0.11396058 88:0.11396058 99:0.11396058 134:0.11396058 161:0.11396058 164:0.11396058 351:0.11396058 357:0.11396058 401:0.11396058 424:0.11396058 434:0.11396058 456:0.11396058 502:0.11396058 520:0.11396058 608:0.11396058 614:0.11396058 645:0.11396058 655:0.11396058 677:0.11396058 713:0.11396058 714:0.11396058 720:0.11396058 741:0.11396058 749:0.11396058 757:0.11396058 763:0.11396058 819:0.11396058 823:0.11396058 859:0.11396058 904:0.11396058 917:0.11396058 954:0.11396058 961:0.11396058 963:0.11396058 964:0.11396058 987:0.11396058 1004:0.11396058 1007:0.11396058 1070:0.11396058 1086:0.11396058 1133:0.11396058 1135:0.11396058 1144:0.11396058 1168:0.11396058 1169:0.11396058 1185:0.11396058 1285:0.11396058 1290:0.11396058 1297:0.11396058 1326:0.11396058 1331:0.11396058 1413:0.11396058 1432:0.11396058 1441:0.11396058 1464:0.11396058 1499:0.11396058 1502:0.11396058 1503:0.11396058 1526:0.11396058 1545:0.11396058 1557:0.11396058 1603:0.11396058 1630:0.11396058 1684:0.11396058 1719:0.11396058 1746:0.11396058 1754:0.11396058 1805:0.11396058 1839:0.11396058 1853:0.11396058 1880:0.11396058 1912:0.11396058 1956:0.11396058 1988:0.11396058 #
0.22229740148578067127083102150209 41:0.11867817 69:0.11867817 77:0.11867817 99:0.11867817 134:0.11867817 144:0.11867817 160:0.11867817 187:0.11867817 217:0.11867817 224:0.11867817 263:0.11867817 313:0.11867817 328:0.11867817 351:0.11867817 361:0.11867817 418:0.11867817 449:0.11867817 456:0.11867817 506:0.11867817 541:0.11867817 546:0.11867817 548:0.11867817 608:0.11867817 622:0.11867817 645:0.11867817 749:0.11867817 845:0.11867817 877:0.11867817 882:0.11867817 887:0.11867817 904:0.11867817 909:0.11867817 927:0.11867817 954:0.11867817 972:0.11867817 1015:0.11867817 1033:0.11867817 1057:0.11867817 1159:0.11867817 1175:0.11867817 1202:0.11867817 1210:0.11867817 1247:0.11867817 1305:0.11867817 1326:0.11867817 1331:0.11867817 1408:0.11867817 1445:0.11867817 1464:0.11867817 1471:0.11867817 1528:0.11867817 1533:0.11867817 1576:0.11867817 1606:0.11867817 1618:0.11867817 1630:0.11867817 1693:0.11867817 1713:0.11867817 1727:0.11867817 1728:0.11867817 1737:0.11867817 1747:0.11867817 1802:0.11867817 1807:0.11867817 1831:0.11867817 1848:0.11867817 1891:0.11867817 1904:0.11867817 1921:0.11867817 1953:0.11867817 1988:0.11867817 #
1 88:0.12598816 106:0.12598816 138:0.12598816 139:0.12598816 160:0.12598816 161:0.12598816 214:0.12598816 218:0.12598816 280:0.12598816 310:0.12598816 340:0.12598816 351:0.12598816 381:0.12598816 398:0.12598816 424:0.12598816 546:0.12598816 614:0.12598816 639:0.12598816 672:0.12598816 716:0.12598816 725:0.12598816 728:0.12598816 749:0.12598816 764:0.12598816 779:0.12598816 790:0.12598816 829:0.12598816 845:0.12598816 872:0.12598816 894:0.12598816 963:0.12598816 976:0.12598816 1011:0.12598816 1030:0.12598816 1159:0.12598816 1260:0.12598816 1277:0.12598816 1305:0.12598816 1353:0.12598816 1402:0.12598816 1404:0.12598816 1460:0.12598816 1473:0.12598816 1475:0.12598816 1535:0.12598816 1564:0.12598816 1630:0.12598816 1646:0.12598816 1670:0.12598816 1680:0.12598816 1684:0.12598816 1727:0.12598816 1746:0.12598816 1811:0.12598816 1844:0.12598816 1848:0.12598816 1853:0.12598816 1857:0.12598816 1898:0.12598816 1921:0.12598816 1948:0.12598816 1956:0.12598816 1980:0.12598816 #
1 10:0.081923194 16:0.081923194 39:0.081923194 44:0.081923194 53:0.081923194 60:0.081923194 63:0.081923194 87:0.081923194 88:0.081923194 89:0.081923194 90:0.081923194 91:0.081923194 95:0.081923194 99:0.081923194 133:0.081923194 138:0.081923194 139:0.081923194 149:0.081923194 160:0.081923194 185:0.081923194 217:0.081923194 218:0.081923194 263:0.081923194 286:0.081923194 293:0.081923194 295:0.081923194 313:0.081923194 314:0.081923194 317:0.081923194 328:0.081923194 340:0.081923194 351:0.081923194 357:0.081923194 381:0.081923194 408:0.081923194 424:0.081923194 431:0.081923194 449:0.081923194 450:0.081923194 521:0.081923194 527:0.081923194 531:0.081923194 593:0.081923194 608:0.081923194 627:0.081923194 633:0.081923194 635:0.081923194 645:0.081923194 650:0.081923194 672:0.081923194 709:0.081923194 711:0.081923194 722:0.081923194 726:0.081923194 732:0.081923194 749:0.081923194 754:0.081923194 764:0.081923194 765:0.081923194 769:0.081923194 772:0.081923194 825:0.081923194 842:0.081923194 845:0.081923194 847:0.081923194 867:0.081923194 870:0.081923194 872:0.081923194 877:0.081923194 882:0.081923194 887:0.081923194 909:0.081923194 921:0.081923194 932:0.081923194 954:0.081923194 961:0.081923194 963:0.081923194 972:0.081923194 976:0.081923194 982:0.081923194 987:0.081923194 1004:0.081923194 1015:0.081923194 1033:0.081923194 1057:0.081923194 1083:0.081923194 1085:0.081923194 1119:0.081923194 1124:0.081923194 1126:0.081923194 1185:0.081923194 1188:0.081923194 1229:0.081923194 1233:0.081923194 1236:0.081923194 1251:0.081923194 1261:0.081923194 1263:0.081923194 1281:0.081923194 1305:0.081923194 1328:0.081923194 1403:0.081923194 1458:0.081923194 1464:0.081923194 1471:0.081923194 1499:0.081923194 1504:0.081923194 1509:0.081923194 1521:0.081923194 1557:0.081923194 1587:0.081923194 1602:0.081923194 1618:0.081923194 1630:0.081923194 1632:0.081923194 1665:0.081923194 1672:0.081923194 1680:0.081923194 1684:0.081923194 1693:0.081923194 1710:0.081923194 1719:0.081923194 1727:0.081923194 1731:0.081923194 1737:0.081923194 1738:0.081923194 1767:0.081923194 1773:0.081923194 1774:0.081923194 1782:0.081923194 1785:0.081923194 1831:0.081923194 1841:0.081923194 1848:0.081923194 1853:0.081923194 1877:0.081923194 1893:0.081923194 1904:0.081923194 1910:0.081923194 1916:0.081923194 1927:0.081923194 1945:0.081923194 1951:0.081923194 1956:0.081923194 1971:0.081923194 1975:0.081923194 1981:0.081923194 1984:0.081923194 1988:0.081923194 #
-0.91170426390405945316075531081879 63:0.14142136 77:0.14142136 113:0.14142136 160:0.14142136 233:0.14142136 265:0.14142136 294:0.14142136 309:0.14142136 351:0.14142136 357:0.14142136 415:0.14142136 424:0.14142136 515:0.14142136 546:0.14142136 608:0.14142136 645:0.14142136 647:0.14142136 673:0.14142136 725:0.14142136 751:0.14142136 845:0.14142136 849:0.14142136 872:0.14142136 955:0.14142136 1006:0.14142136 1015:0.14142136 1033:0.14142136 1072:0.14142136 1083:0.14142136 1159:0.14142136 1169:0.14142136 1220:0.14142136 1233:0.14142136 1277:0.14142136 1305:0.14142136 1327:0.14142136 1404:0.14142136 1452:0.14142136 1512:0.14142136 1532:0.14142136 1693:0.14142136 1709:0.14142136 1727:0.14142136 1805:0.14142136 1853:0.14142136 1875:0.14142136 1898:0.14142136 1914:0.14142136 1919:0.14142136 1956:0.14142136 #
-1 76:0.16666667 99:0.16666667 138:0.16666667 139:0.16666667 160:0.16666667 271:0.16666667 351:0.16666667 424:0.16666667 546:0.16666667 556:0.16666667 568:0.16666667 621:0.16666667 657:0.16666667 672:0.16666667 749:0.16666667 845:0.16666667 879:0.16666667 921:0.16666667 954:0.16666667 963:0.16666667 1015:0.16666667 1305:0.16666667 1353:0.16666667 1464:0.16666667 1535:0.16666667 1596:0.16666667 1628:0.16666667 1630:0.16666667 1723:0.16666667 1737:0.16666667 1738:0.16666667 1755:0.16666667 1801:0.16666667 1833:0.16666667 1904:0.16666667 1921:0.16666667 #
-0.46058649739655704857810292196518 8:0.11952286 88:0.11952286 98:0.11952286 133:0.11952286 134:0.11952286 160:0.11952286 161:0.11952286 263:0.11952286 345:0.11952286 351:0.11952286 401:0.11952286 424:0.11952286 444:0.11952286 468:0.11952286 546:0.11952286 550:0.11952286 563:0.11952286 604:0.11952286 608:0.11952286 670:0.11952286 685:0.11952286 705:0.11952286 713:0.11952286 725:0.11952286 747:0.11952286 749:0.11952286 757:0.11952286 778:0.11952286 789:0.11952286 811:0.11952286 845:0.11952286 846:0.11952286 897:0.11952286 920:0.11952286 927:0.11952286 950:0.11952286 954:0.11952286 958:0.11952286 961:0.11952286 972:0.11952286 1015:0.11952286 1033:0.11952286 1119:0.11952286 1169:0.11952286 1175:0.11952286 1211:0.11952286 1274:0.11952286 1305:0.11952286 1407:0.11952286 1471:0.11952286 1477:0.11952286 1499:0.11952286 1506:0.11952286 1534:0.11952286 1535:0.11952286 1602:0.11952286 1603:0.11952286 1628:0.11952286 1670:0.11952286 1684:0.11952286 1693:0.11952286 1727:0.11952286 1770:0.11952286 1811:0.11952286 1848:0.11952286 1853:0.11952286 1876:0.11952286 1921:0.11952286 1956:0.11952286 1972:0.11952286 #
0.30274203119195042255284988641506 11:0.14285715 68:0.14285715 91:0.14285715 141:0.14285715 160:0.14285715 186:0.14285715 351:0.14285715 357:0.14285715 422:0.14285715 450:0.14285715 546:0.14285715 617:0.14285715 672:0.14285715 723:0.14285715 726:0.14285715 749:0.14285715 766:0.14285715 772:0.14285715 792:0.14285715 807:0.14285715 872:0.14285715 927:0.14285715 963:0.14285715 976:0.14285715 987:0.14285715 990:0.14285715 1004:0.14285715 1015:0.14285715 1033:0.14285715 1083:0.14285715 1190:0.14285715 1203:0.14285715 1301:0.14285715 1322:0.14285715 1328:0.14285715 1362:0.14285715 1452:0.14285715 1465:0.14285715 1498:0.14285715 1532:0.14285715 1535:0.14285715 1547:0.14285715 1602:0.14285715 1710:0.14285715 1728:0.14285715 1825:0.14285715 1853:0.14285715 1953:0.14285715 1966:0.14285715 #
-0.56023609194862644677925800351659 38:0.11785113 63:0.11785113 77:0.11785113 92:0.11785113 99:0.11785113 109:0.11785113 118:0.11785113 134:0.11785113 138:0.11785113 160:0.11785113 165:0.11785113 167:0.11785113 185:0.11785113 186:0.11785113 263:0.11785113 294:0.11785113 328:0.11785113 357:0.11785113 381:0.11785113 402:0.11785113 418:0.11785113 424:0.11785113 524:0.11785113 571:0.11785113 578:0.11785113 608:0.11785113 629:0.11785113 648:0.11785113 665:0.11785113 673:0.11785113 700:0.11785113 732:0.11785113 762:0.11785113 787:0.11785113 811:0.11785113 885:0.11785113 904:0.11785113 915:0.11785113 963:0.11785113 972:0.11785113 1015:0.11785113 1051:0.11785113 1115:0.11785113 1119:0.11785113 1190:0.11785113 1219:0.11785113 1229:0.11785113 1255:0.11785113 1308:0.11785113 1314:0.11785113 1326:0.11785113 1378:0.11785113 1379:0.11785113 1452:0.11785113 1458:0.11785113 1471:0.11785113 1567:0.11785113 1571:0.11785113 1580:0.11785113 1674:0.11785113 1727:0.11785113 1728:0.11785113 1737:0.11785113 1796:0.11785113 1839:0.11785113 1848:0.11785113 1851:0.11785113 1904:0.11785113 1956:0.11785113 1980:0.11785113 1988:0.11785113 1997:0.11785113 #
1 84:0.25 87:0.25 93:0.25 293:0.25 552:0.25 646:0.25 647:0.25 1159:0.25 1261:0.25 1348:0.25 1535:0.25 1536:0.25 1603:0.25 1670:0.25 1699:0.25 1972:0.25 #
1 160:0.31622776 424:0.31622776 469:0.31622776 546:0.31622776 894:0.31622776 1422:0.31622776 1479:0.31622776 1535:0.31622776 1670:0.31622776 1972:0.31622776 #
1 18:0.17677669 101:0.17677669 134:0.17677669 162:0.17677669 263:0.17677669 288:0.17677669 357:0.17677669 360:0.17677669 431:0.17677669 546:0.17677669 550:0.17677669 776:0.17677669 915:0.17677669 1007:0.17677669 1127:0.17677669 1161:0.17677669 1169:0.17677669 1178:0.17677669 1328:0.17677669 1340:0.17677669 1422:0.17677669 1454:0.17677669 1464:0.17677669 1508:0.17677669 1529:0.17677669 1620:0.17677669 1728:0.17677669 1742:0.17677669 1781:0.17677669 1797:0.17677669 1815:0.17677669 1972:0.17677669 #
0.87458581720382322366447169770254 35:0.16439898 63:0.16439898 174:0.16439898 198:0.16439898 247:0.16439898 293:0.16439898 387:0.16439898 546:0.16439898 608:0.16439898 613:0.16439898 622:0.16439898 626:0.16439898 655:0.16439898 718:0.16439898 741:0.16439898 816:0.16439898 823:0.16439898 870:0.16439898 921:0.16439898 956:0.16439898 986:0.16439898 1007:0.16439898 1051:0.16439898 1159:0.16439898 1178:0.16439898 1303:0.16439898 1328:0.16439898 1432:0.16439898 1471:0.16439898 1487:0.16439898 1535:0.16439898 1670:0.16439898 1737:0.16439898 1853:0.16439898 1898:0.16439898 1912:0.16439898 1976:0.16439898 #
1 84:0.28867513 87:0.28867513 93:0.28867513 1159:0.28867513 1261:0.28867513 1348:0.28867513 1535:0.28867513 1536:0.28867513 1603:0.28867513 1670:0.28867513 1699:0.28867513 1972:0.28867513 #
-1 381:0.37796447 469:0.37796447 1535:0.37796447 1603:0.37796447 1670:0.37796447 1876:0.37796447 1972:0.37796447 #
-1 342:0.33333334 469:0.33333334 575:0.33333334 995:0.33333334 1502:0.33333334 1670:0.33333334 1844:0.33333334 1926:0.33333334 1972:0.33333334 #
-0.36253018586808744005978155655612 88:0.19245009 103:0.19245009 266:0.19245009 313:0.19245009 340:0.19245009 351:0.19245009 364:0.19245009 379:0.19245009 543:0.19245009 581:0.19245009 648:0.19245009 672:0.19245009 775:0.19245009 815:0.19245009 963:0.19245009 1033:0.19245009 1071:0.19245009 1083:0.19245009 1471:0.19245009 1618:0.19245009 1686:0.19245009 1729:0.19245009 1791:0.19245009 1815:0.19245009 1848:0.19245009 1921:0.19245009 1980:0.19245009 #
-0.46812594550154840167266456774087 861:0.44721359 922:0.44721359 1535:0.44721359 1578:0.44721359 1670:0.44721359 #
-1 38:0.33333334 52:0.33333334 160:0.33333334 164:0.33333334 546:0.33333334 806:0.33333334 1326:0.33333334 1535:0.33333334 1670:0.33333334 #
0.67033964832497172636749382945709 8:0.10369517 11:0.10369517 72:0.10369517 77:0.10369517 86:0.10369517 88:0.10369517 91:0.10369517 122:0.10369517 134:0.10369517 141:0.10369517 160:0.10369517 177:0.10369517 263:0.10369517 313:0.10369517 326:0.10369517 328:0.10369517 351:0.10369517 357:0.10369517 422:0.10369517 424:0.10369517 487:0.10369517 572:0.10369517 608:0.10369517 629:0.10369517 672:0.10369517 694:0.10369517 749:0.10369517 757:0.10369517 766:0.10369517 772:0.10369517 792:0.10369517 811:0.10369517 838:0.10369517 845:0.10369517 846:0.10369517 850:0.10369517 872:0.10369517 927:0.10369517 954:0.10369517 963:0.10369517 972:0.10369517 976:0.10369517 982:0.10369517 987:0.10369517 988:0.10369517 1004:0.10369517 1015:0.10369517 1032:0.10369517 1033:0.10369517 1043:0.10369517 1087:0.10369517 1102:0.10369517 1114:0.10369517 1169:0.10369517 1190:0.10369517 1203:0.10369517 1224:0.10369517 1230:0.10369517 1251:0.10369517 1285:0.10369517 1301:0.10369517 1305:0.10369517 1328:0.10369517 1353:0.10369517 1452:0.10369517 1460:0.10369517 1463:0.10369517 1464:0.10369517 1465:0.10369517 1469:0.10369517 1487:0.10369517 1505:0.10369517 1528:0.10369517 1535:0.10369517 1586:0.10369517 1602:0.10369517 1684:0.10369517 1711:0.10369517 1727:0.10369517 1822:0.10369517 1830:0.10369517 1845:0.10369517 1848:0.10369517 1851:0.10369517 1853:0.10369517 1877:0.10369517 1891:0.10369517 1927:0.10369517 1928:0.10369517 1948:0.10369517 1953:0.10369517 1956:0.10369517 1966:0.10369517 #
1 52:0.15617377 56:0.15617377 99:0.15617377 164:0.15617377 313:0.15617377 340:0.15617377 351:0.15617377 403:0.15617377 424:0.15617377 449:0.15617377 604:0.15617377 673:0.15617377 741:0.15617377 811:0.15617377 835:0.15617377 910:0.15617377 954:0.15617377 972:0.15617377 987:0.15617377 1011:0.15617377 1015:0.15617377 1057:0.15617377 1165:0.15617377 1174:0.15617377 1190:0.15617377 1243:0.15617377 1403:0.15617377 1413:0.15617377 1460:0.15617377 1477:0.15617377 1498:0.15617377 1506:0.15617377 1534:0.15617377 1618:0.15617377 1630:0.15617377 1650:0.15617377 1752:0.15617377 1843:0.15617377 1874:0.15617377 1934:0.15617377 1980:0.15617377 #
-0.29266988132705956671131275470543 14:0.13867505 45:0.13867505 63:0.13867505 106:0.13867505 228:0.13867505 313:0.13867505 315:0.13867505 326:0.13867505 340:0.13867505 398:0.13867505 424:0.13867505 443:0.13867505 527:0.13867505 546:0.13867505 584:0.13867505 597:0.13867505 604:0.13867505 627:0.13867505 695:0.13867505 749:0.13867505 796:0.13867505 825:0.13867505 902:0.13867505 957:0.13867505 987:0.13867505 1004:0.13867505 1081:0.13867505 1184:0.13867505 1276:0.13867505 1338:0.13867505 1404:0.13867505 1422:0.13867505 1444:0.13867505 1445:0.13867505 1471:0.13867505 1499:0.13867505 1537:0.13867505 1567:0.13867505 1595:0.13867505 1608:0.13867505 1618:0.13867505 1649:0.13867505 1814:0.13867505 1833:0.13867505 1848:0.13867505 1877:0.13867505 1887:0.13867505 1888:0.13867505 1894:0.13867505 1972:0.13867505 1988:0.13867505 1989:0.13867505 #
0.81411080790311785015944678889355 63:0.13867505 83:0.13867505 88:0.13867505 98:0.13867505 101:0.13867505 122:0.13867505 224:0.13867505 257:0.13867505 313:0.13867505 351:0.13867505 381:0.13867505 387:0.13867505 412:0.13867505 415:0.13867505 424:0.13867505 477:0.13867505 546:0.13867505 608:0.13867505 610:0.13867505 672:0.13867505 698:0.13867505 726:0.13867505 749:0.13867505 772:0.13867505 870:0.13867505 896:0.13867505 927:0.13867505 954:0.13867505 963:0.13867505 972:0.13867505 987:0.13867505 1004:0.13867505 1015:0.13867505 1024:0.13867505 1126:0.13867505 1220:0.13867505 1245:0.13867505 1313:0.13867505 1464:0.13867505 1465:0.13867505 1618:0.13867505 1727:0.13867505 1735:0.13867505 1843:0.13867505 1844:0.13867505 1848:0.13867505 1875:0.13867505 1877:0.13867505 1921:0.13867505 1924:0.13867505 1962:0.13867505 1980:0.13867505 #
1 88:0.11250879 120:0.11250879 123:0.11250879 154:0.11250879 160:0.11250879 212:0.11250879 248:0.11250879 263:0.11250879 298:0.11250879 313:0.11250879 326:0.11250879 340:0.11250879 351:0.11250879 380:0.11250879 398:0.11250879 424:0.11250879 456:0.11250879 477:0.11250879 496:0.11250879 546:0.11250879 601:0.11250879 637:0.11250879 665:0.11250879 672:0.11250879 673:0.11250879 725:0.11250879 749:0.11250879 763:0.11250879 811:0.11250879 825:0.11250879 845:0.11250879 872:0.11250879 900:0.11250879 910:0.11250879 916:0.11250879 949:0.11250879 954:0.11250879 972:0.11250879 995:0.11250879 1015:0.11250879 1109:0.11250879 1209:0.11250879 1216:0.11250879 1225:0.11250879 1285:0.11250879 1298:0.11250879 1305:0.11250879 1321:0.11250879 1397:0.11250879 1403:0.11250879 1471:0.11250879 1483:0.11250879 1502:0.11250879 1535:0.11250879 1536:0.11250879 1557:0.11250879 1595:0.11250879 1602:0.11250879 1606:0.11250879 1620:0.11250879 1690:0.11250879 1693:0.11250879 1705:0.11250879 1727:0.11250879 1728:0.11250879 1765:0.11250879 1806:0.11250879 1813:0.11250879 1843:0.11250879 1853:0.11250879 1869:0.11250879 1873:0.11250879 1894:0.11250879 1904:0.11250879 1929:0.11250879 1953:0.11250879 1954:0.11250879 1956:0.11250879 1961:0.11250879 #
-1 34:0.17149858 77:0.17149858 214:0.17149858 217:0.17149858 249:0.17149858 288:0.17149858 313:0.17149858 351:0.17149858 357:0.17149858 387:0.17149858 392:0.17149858 424:0.17149858 434:0.17149858 482:0.17149858 546:0.17149858 645:0.17149858 665:0.17149858 700:0.17149858 718:0.17149858 771:0.17149858 772:0.17149858 963:0.17149858 1015:0.17149858 1189:0.17149858 1412:0.17149858 1497:0.17149858 1618:0.17149858 1693:0.17149858 1727:0.17149858 1744:0.17149858 1921:0.17149858 1940:0.17149858 1956:0.17149858 1984:0.17149858 #
-1 34:0.070710681 39:0.070710681 44:0.070710681 45:0.070710681 50:0.070710681 53:0.070710681 58:0.070710681 65:0.070710681 77:0.070710681 82:0.070710681 88:0.070710681 91:0.070710681 93:0.070710681 95:0.070710681 99:0.070710681 103:0.070710681 123:0.070710681 133:0.070710681 136:0.070710681 139:0.070710681 154:0.070710681 156:0.070710681 157:0.070710681 161:0.070710681 169:0.070710681 176:0.070710681 199:0.070710681 242:0.070710681 245:0.070710681 252:0.070710681 263:0.070710681 267:0.070710681 298:0.070710681 300:0.070710681 313:0.070710681 326:0.070710681 340:0.070710681 351:0.070710681 357:0.070710681 361:0.070710681 374:0.070710681 405:0.070710681 418:0.070710681 424:0.070710681 427:0.070710681 450:0.070710681 455:0.070710681 479:0.070710681 526:0.070710681 558:0.070710681 568:0.070710681 571:0.070710681 573:0.070710681 604:0.070710681 608:0.070710681 609:0.070710681 621:0.070710681 626:0.070710681 627:0.070710681 635:0.070710681 645:0.070710681 653:0.070710681 655:0.070710681 665:0.070710681 672:0.070710681 677:0.070710681 705:0.070710681 726:0.070710681 741:0.070710681 749:0.070710681 758:0.070710681 762:0.070710681 772:0.070710681 775:0.070710681 784:0.070710681 785:0.070710681 793:0.070710681 808:0.070710681 811:0.070710681 823:0.070710681 828:0.070710681 836:0.070710681 845:0.070710681 847:0.070710681 856:0.070710681 866:0.070710681 896:0.070710681 904:0.070710681 915:0.070710681 916:0.070710681 920:0.070710681 932:0.070710681 954:0.070710681 963:0.070710681 972:0.070710681 976:0.070710681 987:0.070710681 1004:0.070710681 1007:0.070710681 1015:0.070710681 1020:0.070710681 1022:0.070710681 1030:0.070710681 1033:0.070710681 1067:0.070710681 1068:0.070710681 1070:0.070710681 1083:0.070710681 1084:0.070710681 1087:0.070710681 1090:0.070710681 1092:0.070710681 1106:0.070710681 1114:0.070710681 1119:0.070710681 1122:0.070710681 1134:0.070710681 1149:0.070710681 1153:0.070710681 1157:0.070710681 1159:0.070710681 1175:0.070710681 1178:0.070710681 1185:0.070710681 1190:0.070710681 1214:0.070710681 1217:0.070710681 1231:0.070710681 1245:0.070710681 1247:0.070710681 1254:0.070710681 1281:0.070710681 1322:0.070710681 1328:0.070710681 1331:0.070710681 1336:0.070710681 1377:0.070710681 1381:0.070710681 1403:0.070710681 1434:0.070710681 1443:0.070710681 1452:0.070710681 1456:0.070710681 1463:0.070710681 1464:0.070710681 1465:0.070710681 1471:0.070710681 1498:0.070710681 1508:0.070710681 1519:0.070710681 1520:0.070710681 1543:0.070710681 1545:0.070710681 1548:0.070710681 1558:0.070710681 1580:0.070710681 1591:0.070710681 1602:0.070710681 1618:0.070710681 1621:0.070710681 1628:0.070710681 1636:0.070710681 1676:0.070710681 1684:0.070710681 1685:0.070710681 1692:0.070710681 1710:0.070710681 1711:0.070710681 1716:0.070710681 1719:0.070710681 1727:0.070710681 1728:0.070710681 1735:0.070710681 1737:0.070710681 1741:0.070710681 1764:0.070710681 1765:0.070710681 1805:0.070710681 1815:0.070710681 1848:0.070710681 1851:0.070710681 1853:0.070710681 1856:0.070710681 1857:0.070710681 1867:0.070710681 1888:0.070710681 1898:0.070710681 1904:0.070710681 1914:0.070710681 1921:0.070710681 1924:0.070710681 1927:0.070710681 1928:0.070710681 1929:0.070710681 1934:0.070710681 1935:0.070710681 1956:0.070710681 1960:0.070710681 1962:0.070710681 1989:0.070710681 #
-1 42:0.11470786 77:0.11470786 88:0.11470786 122:0.11470786 245:0.11470786 252:0.11470786 263:0.11470786 273:0.11470786 313:0.11470786 317:0.11470786 351:0.11470786 359:0.11470786 363:0.11470786 424:0.11470786 431:0.11470786 548:0.11470786 558:0.11470786 565:0.11470786 583:0.11470786 617:0.11470786 627:0.11470786 661:0.11470786 672:0.11470786 741:0.11470786 807:0.11470786 819:0.11470786 872:0.11470786 904:0.11470786 919:0.11470786 932:0.11470786 954:0.11470786 963:0.11470786 972:0.11470786 1013:0.11470786 1067:0.11470786 1085:0.11470786 1090:0.11470786 1107:0.11470786 1161:0.11470786 1170:0.11470786 1212:0.11470786 1216:0.11470786 1217:0.11470786 1231:0.11470786 1273:0.11470786 1378:0.11470786 1423:0.11470786 1432:0.11470786 1464:0.11470786 1465:0.11470786 1471:0.11470786 1569:0.11470786 1571:0.11470786 1595:0.11470786 1610:0.11470786 1618:0.11470786 1630:0.11470786 1643:0.11470786 1659:0.11470786 1668:0.11470786 1677:0.11470786 1697:0.11470786 1727:0.11470786 1744:0.11470786 1758:0.11470786 1765:0.11470786 1769:0.11470786 1792:0.11470786 1805:0.11470786 1822:0.11470786 1831:0.11470786 1848:0.11470786 1894:0.11470786 1904:0.11470786 1953:0.11470786 1988:0.11470786 #
-0.030262731581863384910935366178819 13:0.10153462 30:0.10153462 44:0.10153462 63:0.10153462 82:0.10153462 88:0.10153462 103:0.10153462 123:0.10153462 138:0.10153462 167:0.10153462 185:0.10153462 188:0.10153462 202:0.10153462 266:0.10153462 286:0.10153462 308:0.10153462 313:0.10153462 340:0.10153462 351:0.10153462 357:0.10153462 365:0.10153462 391:0.10153462 456:0.10153462 464:0.10153462 468:0.10153462 477:0.10153462 481:0.10153462 512:0.10153462 546:0.10153462 608:0.10153462 614:0.10153462 617:0.10153462 625:0.10153462 645:0.10153462 655:0.10153462 661:0.10153462 671:0.10153462 672:0.10153462 741:0.10153462 749:0.10153462 769:0.10153462 771:0.10153462 800:0.10153462 807:0.10153462 808:0.10153462 820:0.10153462 919:0.10153462 921:0.10153462 927:0.10153462 954:0.10153462 959:0.10153462 963:0.10153462 972:0.10153462 987:0.10153462 1015:0.10153462 1069:0.10153462 1103:0.10153462 1128:0.10153462 1144:0.10153462 1159:0.10153462 1182:0.10153462 1190:0.10153462 1199:0.10153462 1211:0.10153462 1216:0.10153462 1221:0.10153462 1261:0.10153462 1263:0.10153462 1303:0.10153462 1318:0.10153462 1326:0.10153462 1328:0.10153462 1331:0.10153462 1403:0.10153462 1445:0.10153462 1454:0.10153462 1461:0.10153462 1464:0.10153462 1471:0.10153462 1505:0.10153462 1529:0.10153462 1582:0.10153462 1618:0.10153462 1638:0.10153462 1661:0.10153462 1684:0.10153462 1693:0.10153462 1727:0.10153462 1728:0.10153462 1742:0.10153462 1806:0.10153462 1848:0.10153462 1890:0.10153462 1891:0.10153462 1904:0.10153462 1927:0.10153462 1956:0.10153462 #
-0.55942501850079484615463343288866 3:0.074124932 11:0.074124932 44:0.074124932 53:0.074124932 54:0.074124932 59:0.074124932 63:0.074124932 77:0.074124932 79:0.074124932 88:0.074124932 94:0.074124932 95:0.074124932 103:0.074124932 110:0.074124932 125:0.074124932 126:0.074124932 133:0.074124932 134:0.074124932 138:0.074124932 139:0.074124932 160:0.074124932 167:0.074124932 169:0.074124932 185:0.074124932 186:0.074124932 195:0.074124932 222:0.074124932 229:0.074124932 235:0.074124932 263:0.074124932 279:0.074124932 285:0.074124932 286:0.074124932 293:0.074124932 295:0.074124932 298:0.074124932 308:0.074124932 313:0.074124932 314:0.074124932 325:0.074124932 340:0.074124932 351:0.074124932 356:0.074124932 357:0.074124932 366:0.074124932 367:0.074124932 389:0.074124932 409:0.074124932 424:0.074124932 455:0.074124932 459:0.074124932 460:0.074124932 468:0.074124932 477:0.074124932 504:0.074124932 507:0.074124932 540:0.074124932 546:0.074124932 560:0.074124932 601:0.074124932 607:0.074124932 608:0.074124932 627:0.074124932 635:0.074124932 651:0.074124932 661:0.074124932 672:0.074124932 676:0.074124932 722:0.074124932 725:0.074124932 737:0.074124932 738:0.074124932 749:0.074124932 757:0.074124932 764:0.074124932 767:0.074124932 769:0.074124932 772:0.074124932 775:0.074124932 778:0.074124932 780:0.074124932 825:0.074124932 845:0.074124932 852:0.074124932 869:0.074124932 872:0.074124932 874:0.074124932 877:0.074124932 882:0.074124932 887:0.074124932 897:0.074124932 904:0.074124932 915:0.074124932 919:0.074124932 921:0.074124932 927:0.074124932 945:0.074124932 954:0.074124932 961:0.074124932 963:0.074124932 972:0.074124932 976:0.074124932 987:0.074124932 1004:0.074124932 1009:0.074124932 1010:0.074124932 1015:0.074124932 1020:0.074124932 1083:0.074124932 1085:0.074124932 1091:0.074124932 1119:0.074124932 1127:0.074124932 1169:0.074124932 1178:0.074124932 1188:0.074124932 1190:0.074124932 1191:0.074124932 1220:0.074124932 1235:0.074124932 1236:0.074124932 1263:0.074124932 1281:0.074124932 1285:0.074124932 1303:0.074124932 1305:0.074124932 1312:0.074124932 1322:0.074124932 1326:0.074124932 1328:0.074124932 1350:0.074124932 1381:0.074124932 1386:0.074124932 1417:0.074124932 1419:0.074124932 1422:0.074124932 1423:0.074124932 1452:0.074124932 1464:0.074124932 1471:0.074124932 1521:0.074124932 1528:0.074124932 1557:0.074124932 1600:0.074124932 1602:0.074124932 1618:0.074124932 1620:0.074124932 1630:0.074124932 1632:0.074124932 1656:0.074124932 1680:0.074124932 1693:0.074124932 1704:0.074124932 1710:0.074124932 1722:0.074124932 1727:0.074124932 1728:0.074124932 1737:0.074124932 1750:0.074124932 1762:0.074124932 1782:0.074124932 1790:0.074124932 1815:0.074124932 1843:0.074124932 1848:0.074124932 1850:0.074124932 1851:0.074124932 1853:0.074124932 1856:0.074124932 1861:0.074124932 1869:0.074124932 1890:0.074124932 1898:0.074124932 1904:0.074124932 1921:0.074124932 1926:0.074124932 1927:0.074124932 1928:0.074124932 1931:0.074124932 1978:0.074124932 1988:0.074124932 1991:0.074124932 #
0.92319608169523748042450961293071 152:0.40824831 404:0.40824831 700:0.40824831 1535:0.40824831 1734:0.40824831 1738:0.40824831 #
1 160:0.30151135 424:0.30151135 456:0.30151135 515:0.30151135 1051:0.30151135 1534:0.30151135 1535:0.30151135 1670:0.30151135 1694:0.30151135 1848:0.30151135 1952:0.30151135 #
1 61:0.18898223 64:0.18898223 136:0.18898223 160:0.18898223 185:0.18898223 238:0.18898223 286:0.18898223 300:0.18898223 342:0.18898223 351:0.18898223 424:0.18898223 546:0.18898223 749:0.18898223 921:0.18898223 1015:0.18898223 1119:0.18898223 1386:0.18898223 1435:0.18898223 1497:0.18898223 1522:0.18898223 1535:0.18898223 1544:0.18898223 1602:0.18898223 1645:0.18898223 1670:0.18898223 1764:0.18898223 1771:0.18898223 1814:0.18898223 #
1 160:0.21821789 390:0.21821789 424:0.21821789 450:0.21821789 456:0.21821789 583:0.21821789 592:0.21821789 672:0.21821789 705:0.21821789 845:0.21821789 954:0.21821789 1217:0.21821789 1290:0.21821789 1471:0.21821789 1508:0.21821789 1534:0.21821789 1535:0.21821789 1670:0.21821789 1833:0.21821789 1883:0.21821789 1928:0.21821789 #
1 63:0.13130644 76:0.13130644 88:0.13130644 103:0.13130644 257:0.13130644 331:0.13130644 342:0.13130644 387:0.13130644 408:0.13130644 424:0.13130644 427:0.13130644 511:0.13130644 527:0.13130644 548:0.13130644 584:0.13130644 639:0.13130644 648:0.13130644 674:0.13130644 705:0.13130644 735:0.13130644 757:0.13130644 772:0.13130644 786:0.13130644 817:0.13130644 915:0.13130644 935:0.13130644 955:0.13130644 963:0.13130644 1033:0.13130644 1136:0.13130644 1185:0.13130644 1201:0.13130644 1241:0.13130644 1245:0.13130644 1262:0.13130644 1289:0.13130644 1302:0.13130644 1386:0.13130644 1389:0.13130644 1435:0.13130644 1464:0.13130644 1465:0.13130644 1477:0.13130644 1510:0.13130644 1535:0.13130644 1618:0.13130644 1670:0.13130644 1705:0.13130644 1744:0.13130644 1788:0.13130644 1797:0.13130644 1833:0.13130644 1877:0.13130644 1893:0.13130644 1926:0.13130644 1956:0.13130644 1972:0.13130644 1988:0.13130644 #
-0.061515148901350541477128786027606 32:0.13245323 138:0.13245323 139:0.13245323 154:0.13245323 160:0.13245323 217:0.13245323 263:0.13245323 298:0.13245323 326:0.13245323 351:0.13245323 356:0.13245323 362:0.13245323 398:0.13245323 424:0.13245323 456:0.13245323 477:0.13245323 581:0.13245323 627:0.13245323 645:0.13245323 672:0.13245323 679:0.13245323 724:0.13245323 737:0.13245323 749:0.13245323 763:0.13245323 811:0.13245323 829:0.13245323 846:0.13245323 847:0.13245323 849:0.13245323 963:0.13245323 987:0.13245323 1057:0.13245323 1083:0.13245323 1087:0.13245323 1178:0.13245323 1251:0.13245323 1303:0.13245323 1305:0.13245323 1323:0.13245323 1345:0.13245323 1393:0.13245323 1471:0.13245323 1499:0.13245323 1535:0.13245323 1580:0.13245323 1586:0.13245323 1600:0.13245323 1711:0.13245323 1727:0.13245323 1784:0.13245323 1815:0.13245323 1853:0.13245323 1935:0.13245323 1969:0.13245323 1972:0.13245323 1998:0.13245323 #
-0.87423263928398531330543619333184 37:0.20412415 52:0.20412415 58:0.20412415 66:0.20412415 102:0.20412415 160:0.20412415 424:0.20412415 456:0.20412415 562:0.20412415 837:0.20412415 1084:0.20412415 1153:0.20412415 1159:0.20412415 1168:0.20412415 1318:0.20412415 1384:0.20412415 1499:0.20412415 1535:0.20412415 1646:0.20412415 1732:0.20412415 1738:0.20412415 1811:0.20412415 1848:0.20412415 1892:0.20412415 #
-0.12284600715406442106303330774608 151:0.25 160:0.25 163:0.25 252:0.25 424:0.25 476:0.25 495:0.25 546:0.25 1001:0.25 1438:0.25 1535:0.25 1536:0.25 1670:0.25 1696:0.25 1807:0.25 1859:0.25 #
1 120:0.15811388 160:0.15811388 267:0.15811388 424:0.15811388 454:0.15811388 475:0.15811388 608:0.15811388 625:0.15811388 626:0.15811388 663:0.15811388 711:0.15811388 749:0.15811388 835:0.15811388 845:0.15811388 921:0.15811388 954:0.15811388 976:0.15811388 1015:0.15811388 1053:0.15811388 1225:0.15811388 1245:0.15811388 1328:0.15811388 1356:0.15811388 1423:0.15811388 1453:0.15811388 1499:0.15811388 1534:0.15811388 1538:0.15811388 1564:0.15811388 1649:0.15811388 1665:0.15811388 1680:0.15811388 1692:0.15811388 1710:0.15811388 1737:0.15811388 1846:0.15811388 1848:0.15811388 1853:0.15811388 1962:0.15811388 1988:0.15811388 #
-0.5583639881997169984728657254891 19:0.20412415 128:0.20412415 160:0.20412415 269:0.20412415 309:0.20412415 342:0.20412415 447:0.20412415 556:0.20412415 608:0.20412415 673:0.20412415 743:0.20412415 841:0.20412415 1015:0.20412415 1034:0.20412415 1067:0.20412415 1269:0.20412415 1489:0.20412415 1534:0.20412415 1535:0.20412415 1670:0.20412415 1675:0.20412415 1710:0.20412415 1833:0.20412415 1891:0.20412415 #
1 53:0.12216944 61:0.12216944 77:0.12216944 88:0.12216944 92:0.12216944 103:0.12216944 134:0.12216944 146:0.12216944 160:0.12216944 176:0.12216944 217:0.12216944 233:0.12216944 245:0.12216944 265:0.12216944 267:0.12216944 313:0.12216944 328:0.12216944 343:0.12216944 351:0.12216944 357:0.12216944 381:0.12216944 415:0.12216944 420:0.12216944 504:0.12216944 533:0.12216944 546:0.12216944 558:0.12216944 608:0.12216944 724:0.12216944 811:0.12216944 825:0.12216944 845:0.12216944 911:0.12216944 926:0.12216944 954:0.12216944 963:0.12216944 987:0.12216944 1053:0.12216944 1057:0.12216944 1067:0.12216944 1072:0.12216944 1102:0.12216944 1106:0.12216944 1175:0.12216944 1256:0.12216944 1305:0.12216944 1319:0.12216944 1338:0.12216944 1345:0.12216944 1422:0.12216944 1434:0.12216944 1454:0.12216944 1498:0.12216944 1515:0.12216944 1526:0.12216944 1606:0.12216944 1618:0.12216944 1669:0.12216944 1670:0.12216944 1814:0.12216944 1833:0.12216944 1838:0.12216944 1844:0.12216944 1927:0.12216944 1929:0.12216944 1953:0.12216944 1972:0.12216944 #
1 64:0.16222142 88:0.16222142 260:0.16222142 313:0.16222142 354:0.16222142 357:0.16222142 431:0.16222142 538:0.16222142 546:0.16222142 608:0.16222142 645:0.16222142 741:0.16222142 909:0.16222142 954:0.16222142 976:0.16222142 987:0.16222142 1015:0.16222142 1070:0.16222142 1100:0.16222142 1110:0.16222142 1185:0.16222142 1328:0.16222142 1343:0.16222142 1354:0.16222142 1421:0.16222142 1434:0.16222142 1464:0.16222142 1603:0.16222142 1684:0.16222142 1701:0.16222142 1727:0.16222142 1785:0.16222142 1890:0.16222142 1921:0.16222142 1941:0.16222142 1954:0.16222142 1972:0.16222142 1984:0.16222142 #
1 35:0.12309149 38:0.12309149 88:0.12309149 99:0.12309149 110:0.12309149 118:0.12309149 125:0.12309149 138:0.12309149 139:0.12309149 168:0.12309149 169:0.12309149 176:0.12309149 181:0.12309149 226:0.12309149 263:0.12309149 313:0.12309149 328:0.12309149 351:0.12309149 381:0.12309149 405:0.12309149 521:0.12309149 546:0.12309149 620:0.12309149 688:0.12309149 714:0.12309149 749:0.12309149 757:0.12309149 793:0.12309149 872:0.12309149 885:0.12309149 927:0.12309149 954:0.12309149 961:0.12309149 963:0.12309149 976:0.12309149 979:0.12309149 987:0.12309149 1004:0.12309149 1033:0.12309149 1083:0.12309149 1119:0.12309149 1243:0.12309149 1318:0.12309149 1381:0.12309149 1421:0.12309149 1452:0.12309149 1464:0.12309149 1536:0.12309149 1602:0.12309149 1618:0.12309149 1705:0.12309149 1727:0.12309149 1763:0.12309149 1843:0.12309149 1848:0.12309149 1851:0.12309149 1854:0.12309149 1874:0.12309149 1875:0.12309149 1898:0.12309149 1907:0.12309149 1920:0.12309149 1921:0.12309149 1927:0.12309149 1947:0.12309149 1956:0.12309149 #
1 53:0.087705798 63:0.087705798 82:0.087705798 83:0.087705798 88:0.087705798 92:0.087705798 103:0.087705798 113:0.087705798 123:0.087705798 130:0.087705798 139:0.087705798 146:0.087705798 149:0.087705798 160:0.087705798 161:0.087705798 169:0.087705798 196:0.087705798 213:0.087705798 267:0.087705798 294:0.087705798 313:0.087705798 326:0.087705798 328:0.087705798 336:0.087705798 340:0.087705798 347:0.087705798 351:0.087705798 357:0.087705798 381:0.087705798 398:0.087705798 418:0.087705798 424:0.087705798 434:0.087705798 450:0.087705798 455:0.087705798 456:0.087705798 477:0.087705798 491:0.087705798 493:0.087705798 505:0.087705798 531:0.087705798 534:0.087705798 545:0.087705798 546:0.087705798 562:0.087705798 586:0.087705798 608:0.087705798 617:0.087705798 640:0.087705798 672:0.087705798 673:0.087705798 686:0.087705798 700:0.087705798 715:0.087705798 723:0.087705798 749:0.087705798 772:0.087705798 785:0.087705798 792:0.087705798 811:0.087705798 902:0.087705798 904:0.087705798 905:0.087705798 950:0.087705798 954:0.087705798 963:0.087705798 976:0.087705798 987:0.087705798 1004:0.087705798 1015:0.087705798 1033:0.087705798 1053:0.087705798 1060:0.087705798 1071:0.087705798 1100:0.087705798 1119:0.087705798 1168:0.087705798 1169:0.087705798 1175:0.087705798 1178:0.087705798 1190:0.087705798 1204:0.087705798 1216:0.087705798 1285:0.087705798 1326:0.087705798 1339:0.087705798 1341:0.087705798 1383:0.087705798 1403:0.087705798 1410:0.087705798 1411:0.087705798 1422:0.087705798 1452:0.087705798 1453:0.087705798 1479:0.087705798 1497:0.087705798 1498:0.087705798 1516:0.087705798 1520:0.087705798 1528:0.087705798 1561:0.087705798 1600:0.087705798 1602:0.087705798 1603:0.087705798 1618:0.087705798 1620:0.087705798 1625:0.087705798 1672:0.087705798 1693:0.087705798 1704:0.087705798 1711:0.087705798 1727:0.087705798 1737:0.087705798 1779:0.087705798 1805:0.087705798 1806:0.087705798 1832:0.087705798 1846:0.087705798 1853:0.087705798 1859:0.087705798 1884:0.087705798 1893:0.087705798 1904:0.087705798 1914:0.087705798 1925:0.087705798 1927:0.087705798 1951:0.087705798 1956:0.087705798 1962:0.087705798 1972:0.087705798 #
1 77:0.18569534 88:0.18569534 176:0.18569534 204:0.18569534 313:0.18569534 343:0.18569534 351:0.18569534 381:0.18569534 420:0.18569534 533:0.18569534 736:0.18569534 911:0.18569534 954:0.18569534 963:0.18569534 1057:0.18569534 1067:0.18569534 1219:0.18569534 1319:0.18569534 1338:0.18569534 1345:0.18569534 1434:0.18569534 1454:0.18569534 1560:0.18569534 1606:0.18569534 1618:0.18569534 1814:0.18569534 1838:0.18569534 1934:0.18569534 1953:0.18569534 #
-0.52729432004884801976629660202889 53:0.09853293 63:0.09853293 64:0.09853293 74:0.09853293 77:0.09853293 79:0.09853293 88:0.09853293 99:0.09853293 105:0.09853293 130:0.09853293 139:0.09853293 144:0.09853293 204:0.09853293 219:0.09853293 263:0.09853293 285:0.09853293 293:0.09853293 313:0.09853293 317:0.09853293 327:0.09853293 340:0.09853293 351:0.09853293 357:0.09853293 379:0.09853293 381:0.09853293 387:0.09853293 424:0.09853293 477:0.09853293 608:0.09853293 614:0.09853293 620:0.09853293 635:0.09853293 645:0.09853293 662:0.09853293 673:0.09853293 749:0.09853293 757:0.09853293 772:0.09853293 784:0.09853293 846:0.09853293 848:0.09853293 871:0.09853293 890:0.09853293 904:0.09853293 948:0.09853293 954:0.09853293 976:0.09853293 987:0.09853293 999:0.09853293 1004:0.09853293 1015:0.09853293 1033:0.09853293 1044:0.09853293 1057:0.09853293 1083:0.09853293 1097:0.09853293 1154:0.09853293 1162:0.09853293 1190:0.09853293 1228:0.09853293 1243:0.09853293 1310:0.09853293 1315:0.09853293 1464:0.09853293 1471:0.09853293 1477:0.09853293 1478:0.09853293 1479:0.09853293 1482:0.09853293 1498:0.09853293 1499:0.09853293 1509:0.09853293 1526:0.09853293 1557:0.09853293 1582:0.09853293 1618:0.09853293 1620:0.09853293 1680:0.09853293 1691:0.09853293 1715:0.09853293 1727:0.09853293 1749:0.09853293 1783:0.09853293 1791:0.09853293 1797:0.09853293 1815:0.09853293 1821:0.09853293 1831:0.09853293 1838:0.09853293 1843:0.09853293 1844:0.09853293 1848:0.09853293 1851:0.09853293 1907:0.09853293 1910:0.09853293 1921:0.09853293 1956:0.09853293 1960:0.09853293 1966:0.09853293 1977:0.09853293 1988:0.09853293 1997:0.09853293 2000:0.09853293 #
-1 13:0.10660036 51:0.10660036 88:0.10660036 138:0.10660036 139:0.10660036 160:0.10660036 177:0.10660036 185:0.10660036 249:0.10660036 267:0.10660036 305:0.10660036 313:0.10660036 340:0.10660036 351:0.10660036 398:0.10660036 424:0.10660036 427:0.10660036 443:0.10660036 444:0.10660036 463:0.10660036 468:0.10660036 477:0.10660036 482:0.10660036 504:0.10660036 547:0.10660036 608:0.10660036 662:0.10660036 663:0.10660036 672:0.10660036 690:0.10660036 741:0.10660036 749:0.10660036 772:0.10660036 787:0.10660036 801:0.10660036 811:0.10660036 820:0.10660036 828:0.10660036 887:0.10660036 901:0.10660036 915:0.10660036 954:0.10660036 976:0.10660036 987:0.10660036 1015:0.10660036 1055:0.10660036 1057:0.10660036 1106:0.10660036 1178:0.10660036 1196:0.10660036 1201:0.10660036 1263:0.10660036 1276:0.10660036 1290:0.10660036 1321:0.10660036 1328:0.10660036 1351:0.10660036 1381:0.10660036 1382:0.10660036 1403:0.10660036 1453:0.10660036 1464:0.10660036 1483:0.10660036 1516:0.10660036 1523:0.10660036 1529:0.10660036 1537:0.10660036 1553:0.10660036 1603:0.10660036 1618:0.10660036 1684:0.10660036 1717:0.10660036 1727:0.10660036 1756:0.10660036 1788:0.10660036 1806:0.10660036 1815:0.10660036 1822:0.10660036 1830:0.10660036 1853:0.10660036 1904:0.10660036 1908:0.10660036 1910:0.10660036 1927:0.10660036 1953:0.10660036 1954:0.10660036 1963:0.10660036 1972:0.10660036 #
-0.39338901187888036803386171413877 11:0.125 63:0.125 77:0.125 88:0.125 93:0.125 103:0.125 154:0.125 160:0.125 161:0.125 181:0.125 196:0.125 313:0.125 326:0.125 340:0.125 351:0.125 357:0.125 364:0.125 381:0.125 398:0.125 417:0.125 424:0.125 436:0.125 456:0.125 496:0.125 504:0.125 597:0.125 604:0.125 612:0.125 645:0.125 662:0.125 672:0.125 746:0.125 811:0.125 823:0.125 838:0.125 845:0.125 954:0.125 963:0.125 987:0.125 1009:0.125 1033:0.125 1057:0.125 1083:0.125 1155:0.125 1175:0.125 1238:0.125 1353:0.125 1403:0.125 1434:0.125 1464:0.125 1498:0.125 1535:0.125 1550:0.125 1554:0.125 1595:0.125 1605:0.125 1612:0.125 1618:0.125 1693:0.125 1806:0.125 1848:0.125 1894:0.125 1929:0.125 1956:0.125 #
0.17377736185356207343488676997367 42:0.18257418 53:0.18257418 73:0.18257418 210:0.18257418 214:0.18257418 265:0.18257418 322:0.18257418 340:0.18257418 387:0.18257418 398:0.18257418 477:0.18257418 483:0.18257418 511:0.18257418 525:0.18257418 608:0.18257418 626:0.18257418 700:0.18257418 708:0.18257418 805:0.18257418 811:0.18257418 823:0.18257418 872:0.18257418 987:0.18257418 1053:0.18257418 1385:0.18257418 1863:0.18257418 1898:0.18257418 1921:0.18257418 1927:0.18257418 1975:0.18257418 #
-0.28787895847446359764987278140325 53:0.13130644 77:0.13130644 83:0.13130644 99:0.13130644 133:0.13130644 143:0.13130644 160:0.13130644 249:0.13130644 260:0.13130644 263:0.13130644 287:0.13130644 313:0.13130644 351:0.13130644 381:0.13130644 398:0.13130644 424:0.13130644 477:0.13130644 482:0.13130644 505:0.13130644 546:0.13130644 648:0.13130644 706:0.13130644 730:0.13130644 808:0.13130644 811:0.13130644 833:0.13130644 838:0.13130644 909:0.13130644 915:0.13130644 954:0.13130644 963:0.13130644 964:0.13130644 1009:0.13130644 1015:0.13130644 1033:0.13130644 1083:0.13130644 1110:0.13130644 1119:0.13130644 1121:0.13130644 1168:0.13130644 1203:0.13130644 1316:0.13130644 1395:0.13130644 1419:0.13130644 1422:0.13130644 1602:0.13130644 1621:0.13130644 1807:0.13130644 1822:0.13130644 1848:0.13130644 1857:0.13130644 1875:0.13130644 1896:0.13130644 1898:0.13130644 1954:0.13130644 1956:0.13130644 1963:0.13130644 1972:0.13130644 #
1 160:0.25 280:0.25 357:0.25 571:0.25 749:0.25 807:0.25 811:0.25 1168:0.25 1198:0.25 1303:0.25 1535:0.25 1557:0.25 1620:0.25 1797:0.25 1926:0.25 1956:0.25 #
1 94:0.18257418 160:0.18257418 207:0.18257418 249:0.18257418 340:0.18257418 424:0.18257418 460:0.18257418 482:0.18257418 571:0.18257418 608:0.18257418 621:0.18257418 626:0.18257418 645:0.18257418 695:0.18257418 781:0.18257418 921:0.18257418 1004:0.18257418 1015:0.18257418 1034:0.18257418 1069:0.18257418 1077:0.18257418 1119:0.18257418 1322:0.18257418 1452:0.18257418 1535:0.18257418 1629:0.18257418 1679:0.18257418 1727:0.18257418 1797:0.18257418 1927:0.18257418 #
0.76878275766312875738606180675561 160:0.20851441 256:0.20851441 298:0.20851441 351:0.20851441 424:0.20851441 541:0.20851441 546:0.20851441 563:0.20851441 725:0.20851441 1015:0.20851441 1087:0.20851441 1216:0.20851441 1290:0.20851441 1381:0.20851441 1464:0.20851441 1535:0.20851441 1670:0.20851441 1684:0.20851441 1765:0.20851441 1833:0.20851441 1842:0.20851441 1851:0.20851441 1853:0.20851441 #
0.25656467241943115009661369185778 99:0.2236068 101:0.2236068 272:0.2236068 404:0.2236068 424:0.2236068 483:0.2236068 608:0.2236068 626:0.2236068 667:0.2236068 689:0.2236068 700:0.2236068 987:0.2236068 1331:0.2236068 1535:0.2236068 1543:0.2236068 1633:0.2236068 1738:0.2236068 1844:0.2236068 1846:0.2236068 1927:0.2236068 #
1 77:0.17960531 160:0.17960531 169:0.17960531 267:0.17960531 313:0.17960531 546:0.17960531 749:0.17960531 757:0.17960531 825:0.17960531 845:0.17960531 976:0.17960531 1168:0.17960531 1221:0.17960531 1264:0.17960531 1305:0.17960531 1321:0.17960531 1353:0.17960531 1422:0.17960531 1432:0.17960531 1504:0.17960531 1535:0.17960531 1580:0.17960531 1602:0.17960531 1684:0.17960531 1697:0.17960531 1728:0.17960531 1760:0.17960531 1851:0.17960531 1886:0.17960531 1943:0.17960531 1972:0.17960531 #
-1 160:0.26726124 546:0.26726124 608:0.26726124 757:0.26726124 866:0.26726124 987:0.26726124 1015:0.26726124 1149:0.26726124 1535:0.26726124 1781:0.26726124 1793:0.26726124 1797:0.26726124 1937:0.26726124 1951:0.26726124 #
-1 34:0.14142136 53:0.14142136 64:0.14142136 77:0.14142136 79:0.14142136 101:0.14142136 114:0.14142136 207:0.14142136 234:0.14142136 263:0.14142136 387:0.14142136 424:0.14142136 573:0.14142136 608:0.14142136 626:0.14142136 672:0.14142136 674:0.14142136 699:0.14142136 741:0.14142136 749:0.14142136 772:0.14142136 800:0.14142136 976:0.14142136 1001:0.14142136 1004:0.14142136 1015:0.14142136 1185:0.14142136 1381:0.14142136 1419:0.14142136 1477:0.14142136 1498:0.14142136 1515:0.14142136 1582:0.14142136 1618:0.14142136 1670:0.14142136 1741:0.14142136 1764:0.14142136 1796:0.14142136 1797:0.14142136 1805:0.14142136 1851:0.14142136 1898:0.14142136 1904:0.14142136 1920:0.14142136 1921:0.14142136 1926:0.14142136 1927:0.14142136 1952:0.14142136 1957:0.14142136 1961:0.14142136 #
-1 134:0.17407766 136:0.17407766 183:0.17407766 204:0.17407766 267:0.17407766 382:0.17407766 387:0.17407766 424:0.17407766 434:0.17407766 457:0.17407766 546:0.17407766 590:0.17407766 672:0.17407766 705:0.17407766 741:0.17407766 933:0.17407766 943:0.17407766 963:0.17407766 1167:0.17407766 1331:0.17407766 1527:0.17407766 1535:0.17407766 1540:0.17407766 1670:0.17407766 1692:0.17407766 1727:0.17407766 1728:0.17407766 1805:0.17407766 1829:0.17407766 1851:0.17407766 1853:0.17407766 1900:0.17407766 1921:0.17407766 #
-1 27:0.15430336 40:0.15430336 77:0.15430336 131:0.15430336 161:0.15430336 185:0.15430336 252:0.15430336 267:0.15430336 351:0.15430336 357:0.15430336 381:0.15430336 390:0.15430336 424:0.15430336 443:0.15430336 465:0.15430336 504:0.15430336 546:0.15430336 552:0.15430336 608:0.15430336 655:0.15430336 705:0.15430336 749:0.15430336 811:0.15430336 819:0.15430336 877:0.15430336 963:0.15430336 1028:0.15430336 1053:0.15430336 1183:0.15430336 1216:0.15430336 1256:0.15430336 1422:0.15430336 1445:0.15430336 1522:0.15430336 1535:0.15430336 1670:0.15430336 1767:0.15430336 1805:0.15430336 1806:0.15430336 1844:0.15430336 1873:0.15430336 1875:0.15430336 #
-0.29579795869413766373767771256098 155:0.31622776 481:0.31622776 546:0.31622776 568:0.31622776 769:0.31622776 1059:0.31622776 1119:0.31622776 1159:0.31622776 1535:0.31622776 1728:0.31622776 #
1 52:0.19245009 138:0.19245009 251:0.19245009 263:0.19245009 351:0.19245009 415:0.19245009 424:0.19245009 458:0.19245009 471:0.19245009 543:0.19245009 672:0.19245009 673:0.19245009 694:0.19245009 749:0.19245009 772:0.19245009 823:0.19245009 987:0.19245009 1015:0.19245009 1033:0.19245009 1328:0.19245009 1371:0.19245009 1464:0.19245009 1477:0.19245009 1618:0.19245009 1670:0.19245009 1831:0.19245009 1956:0.19245009 #
1 53:0.13018891 77:0.13018891 78:0.13018891 91:0.13018891 99:0.13018891 103:0.13018891 121:0.13018891 129:0.13018891 138:0.13018891 139:0.13018891 144:0.13018891 154:0.13018891 218:0.13018891 252:0.13018891 313:0.13018891 326:0.13018891 351:0.13018891 357:0.13018891 387:0.13018891 455:0.13018891 504:0.13018891 590:0.13018891 600:0.13018891 749:0.13018891 769:0.13018891 772:0.13018891 800:0.13018891 811:0.13018891 828:0.13018891 853:0.13018891 954:0.13018891 963:0.13018891 992:0.13018891 1015:0.13018891 1033:0.13018891 1058:0.13018891 1067:0.13018891 1087:0.13018891 1098:0.13018891 1159:0.13018891 1161:0.13018891 1169:0.13018891 1175:0.13018891 1233:0.13018891 1326:0.13018891 1330:0.13018891 1438:0.13018891 1442:0.13018891 1471:0.13018891 1472:0.13018891 1497:0.13018891 1498:0.13018891 1693:0.13018891 1815:0.13018891 1890:0.13018891 1904:0.13018891 1919:0.13018891 1953:0.13018891 1975:0.13018891 #
1 160:0.25819889 313:0.25819889 424:0.25819889 494:0.25819889 811:0.25819889 909:0.25819889 932:0.25819889 972:0.25819889 1015:0.25819889 1269:0.25819889 1332:0.25819889 1603:0.25819889 1646:0.25819889 1848:0.25819889 1954:0.25819889 #
0.71397461036121045996338807526627 41:0.084515423 63:0.084515423 64:0.084515423 76:0.084515423 88:0.084515423 123:0.084515423 138:0.084515423 154:0.084515423 160:0.084515423 165:0.084515423 263:0.084515423 267:0.084515423 285:0.084515423 286:0.084515423 313:0.084515423 340:0.084515423 351:0.084515423 357:0.084515423 359:0.084515423 372:0.084515423 381:0.084515423 387:0.084515423 398:0.084515423 401:0.084515423 405:0.084515423 424:0.084515423 455:0.084515423 477:0.084515423 485:0.084515423 496:0.084515423 504:0.084515423 531:0.084515423 563:0.084515423 584:0.084515423 593:0.084515423 607:0.084515423 622:0.084515423 636:0.084515423 645:0.084515423 663:0.084515423 672:0.084515423 717:0.084515423 729:0.084515423 741:0.084515423 749:0.084515423 757:0.084515423 772:0.084515423 778:0.084515423 784:0.084515423 800:0.084515423 807:0.084515423 811:0.084515423 825:0.084515423 830:0.084515423 842:0.084515423 845:0.084515423 847:0.084515423 852:0.084515423 882:0.084515423 887:0.084515423 891:0.084515423 904:0.084515423 935:0.084515423 966:0.084515423 972:0.084515423 986:0.084515423 987:0.084515423 1015:0.084515423 1032:0.084515423 1033:0.084515423 1035:0.084515423 1057:0.084515423 1069:0.084515423 1083:0.084515423 1104:0.084515423 1110:0.084515423 1114:0.084515423 1139:0.084515423 1160:0.084515423 1168:0.084515423 1169:0.084515423 1182:0.084515423 1215:0.084515423 1220:0.084515423 1229:0.084515423 1235:0.084515423 1256:0.084515423 1281:0.084515423 1292:0.084515423 1305:0.084515423 1326:0.084515423 1441:0.084515423 1447:0.084515423 1464:0.084515423 1475:0.084515423 1482:0.084515423 1485:0.084515423 1498:0.084515423 1509:0.084515423 1518:0.084515423 1519:0.084515423 1530:0.084515423 1532:0.084515423 1543:0.084515423 1554:0.084515423 1557:0.084515423 1580:0.084515423 1595:0.084515423 1618:0.084515423 1620:0.084515423 1636:0.084515423 1658:0.084515423 1686:0.084515423 1693:0.084515423 1695:0.084515423 1727:0.084515423 1731:0.084515423 1742:0.084515423 1765:0.084515423 1780:0.084515423 1785:0.084515423 1797:0.084515423 1805:0.084515423 1807:0.084515423 1815:0.084515423 1831:0.084515423 1846:0.084515423 1848:0.084515423 1850:0.084515423 1851:0.084515423 1853:0.084515423 1856:0.084515423 1882:0.084515423 1898:0.084515423 1908:0.084515423 1910:0.084515423 1921:0.084515423 1962:0.084515423 1980:0.084515423 1988:0.084515423 #
0.68579405325231623802295644054539 44:0.13867505 52:0.13867505 53:0.13867505 94:0.13867505 99:0.13867505 127:0.13867505 160:0.13867505 214:0.13867505 263:0.13867505 265:0.13867505 271:0.13867505 313:0.13867505 381:0.13867505 424:0.13867505 477:0.13867505 546:0.13867505 558:0.13867505 609:0.13867505 625:0.13867505 635:0.13867505 672:0.13867505 694:0.13867505 749:0.13867505 815:0.13867505 845:0.13867505 896:0.13867505 901:0.13867505 954:0.13867505 963:0.13867505 987:0.13867505 1085:0.13867505 1087:0.13867505 1228:0.13867505 1289:0.13867505 1302:0.13867505 1305:0.13867505 1422:0.13867505 1510:0.13867505 1560:0.13867505 1569:0.13867505 1618:0.13867505 1634:0.13867505 1680:0.13867505 1727:0.13867505 1815:0.13867505 1822:0.13867505 1862:0.13867505 1879:0.13867505 1898:0.13867505 1956:0.13867505 1972:0.13867505 1980:0.13867505 #
-1 117:0.1490712 138:0.1490712 153:0.1490712 160:0.1490712 196:0.1490712 249:0.1490712 265:0.1490712 267:0.1490712 268:0.1490712 269:0.1490712 286:0.1490712 300:0.1490712 313:0.1490712 351:0.1490712 424:0.1490712 456:0.1490712 511:0.1490712 564:0.1490712 672:0.1490712 673:0.1490712 689:0.1490712 749:0.1490712 773:0.1490712 873:0.1490712 909:0.1490712 912:0.1490712 954:0.1490712 1039:0.1490712 1087:0.1490712 1159:0.1490712 1183:0.1490712 1229:0.1490712 1253:0.1490712 1256:0.1490712 1296:0.1490712 1305:0.1490712 1378:0.1490712 1386:0.1490712 1452:0.1490712 1676:0.1490712 1727:0.1490712 1728:0.1490712 1811:0.1490712 1853:0.1490712 1956:0.1490712 #
-0.45379728686917908397902010619873 17:0.10369517 39:0.10369517 53:0.10369517 64:0.10369517 105:0.10369517 134:0.10369517 139:0.10369517 160:0.10369517 165:0.10369517 181:0.10369517 228:0.10369517 248:0.10369517 285:0.10369517 288:0.10369517 313:0.10369517 341:0.10369517 351:0.10369517 357:0.10369517 359:0.10369517 361:0.10369517 381:0.10369517 418:0.10369517 424:0.10369517 445:0.10369517 450:0.10369517 464:0.10369517 471:0.10369517 475:0.10369517 477:0.10369517 504:0.10369517 546:0.10369517 568:0.10369517 608:0.10369517 645:0.10369517 648:0.10369517 672:0.10369517 711:0.10369517 727:0.10369517 732:0.10369517 749:0.10369517 762:0.10369517 772:0.10369517 784:0.10369517 811:0.10369517 825:0.10369517 830:0.10369517 841:0.10369517 845:0.10369517 846:0.10369517 872:0.10369517 879:0.10369517 900:0.10369517 921:0.10369517 924:0.10369517 954:0.10369517 962:0.10369517 982:0.10369517 987:0.10369517 1015:0.10369517 1033:0.10369517 1057:0.10369517 1169:0.10369517 1178:0.10369517 1190:0.10369517 1211:0.10369517 1305:0.10369517 1328:0.10369517 1385:0.10369517 1461:0.10369517 1498:0.10369517 1499:0.10369517 1531:0.10369517 1535:0.10369517 1602:0.10369517 1603:0.10369517 1607:0.10369517 1618:0.10369517 1638:0.10369517 1661:0.10369517 1684:0.10369517 1704:0.10369517 1727:0.10369517 1741:0.10369517 1831:0.10369517 1848:0.10369517 1853:0.10369517 1898:0.10369517 1904:0.10369517 1910:0.10369517 1927:0.10369517 1929:0.10369517 1956:0.10369517 1972:0.10369517 #
-1 83:0.25819889 160:0.25819889 241:0.25819889 313:0.25819889 424:0.25819889 508:0.25819889 524:0.25819889 614:0.25819889 909:0.25819889 961:0.25819889 1015:0.25819889 1603:0.25819889 1788:0.25819889 1792:0.25819889 1954:0.25819889 #
-1 58:0.15811388 79:0.15811388 134:0.15811388 160:0.15811388 263:0.15811388 272:0.15811388 289:0.15811388 313:0.15811388 325:0.15811388 351:0.15811388 424:0.15811388 506:0.15811388 637:0.15811388 643:0.15811388 825:0.15811388 845:0.15811388 872:0.15811388 882:0.15811388 901:0.15811388 963:0.15811388 973:0.15811388 974:0.15811388 976:0.15811388 987:0.15811388 1004:0.15811388 1087:0.15811388 1091:0.15811388 1119:0.15811388 1133:0.15811388 1169:0.15811388 1187:0.15811388 1305:0.15811388 1439:0.15811388 1504:0.15811388 1630:0.15811388 1711:0.15811388 1727:0.15811388 1898:0.15811388 1956:0.15811388 1962:0.15811388 #
-0.48031520896249896290797209985612 62:0.14744195 98:0.14744195 138:0.14744195 160:0.14744195 177:0.14744195 187:0.14744195 193:0.14744195 249:0.14744195 263:0.14744195 300:0.14744195 313:0.14744195 318:0.14744195 340:0.14744195 351:0.14744195 398:0.14744195 673:0.14744195 714:0.14744195 749:0.14744195 778:0.14744195 825:0.14744195 828:0.14744195 845:0.14744195 870:0.14744195 909:0.14744195 964:0.14744195 987:0.14744195 1004:0.14744195 1083:0.14744195 1159:0.14744195 1305:0.14744195 1321:0.14744195 1353:0.14744195 1422:0.14744195 1471:0.14744195 1502:0.14744195 1742:0.14744195 1744:0.14744195 1773:0.14744195 1813:0.14744195 1830:0.14744195 1875:0.14744195 1890:0.14744195 1953:0.14744195 1954:0.14744195 1962:0.14744195 1972:0.14744195 #
0.70779170559463411294132129114587 158:0.17677669 244:0.17677669 344:0.17677669 350:0.17677669 478:0.17677669 568:0.17677669 608:0.17677669 663:0.17677669 741:0.17677669 772:0.17677669 795:0.17677669 811:0.17677669 869:0.17677669 963:0.17677669 1007:0.17677669 1028:0.17677669 1159:0.17677669 1216:0.17677669 1365:0.17677669 1375:0.17677669 1427:0.17677669 1432:0.17677669 1463:0.17677669 1464:0.17677669 1477:0.17677669 1530:0.17677669 1535:0.17677669 1693:0.17677669 1822:0.17677669 1848:0.17677669 1898:0.17677669 1972:0.17677669 #
1 53:0.13867505 77:0.13867505 104:0.13867505 120:0.13867505 154:0.13867505 185:0.13867505 202:0.13867505 217:0.13867505 238:0.13867505 340:0.13867505 351:0.13867505 357:0.13867505 404:0.13867505 444:0.13867505 456:0.13867505 477:0.13867505 514:0.13867505 519:0.13867505 546:0.13867505 667:0.13867505 672:0.13867505 677:0.13867505 688:0.13867505 722:0.13867505 814:0.13867505 863:0.13867505 919:0.13867505 953:0.13867505 1003:0.13867505 1092:0.13867505 1121:0.13867505 1178:0.13867505 1201:0.13867505 1204:0.13867505 1247:0.13867505 1345:0.13867505 1461:0.13867505 1464:0.13867505 1471:0.13867505 1498:0.13867505 1500:0.13867505 1535:0.13867505 1573:0.13867505 1616:0.13867505 1618:0.13867505 1620:0.13867505 1670:0.13867505 1725:0.13867505 1727:0.13867505 1738:0.13867505 1853:0.13867505 1875:0.13867505 #
0.062106332369530052595063551734711 53:0.13483997 61:0.13483997 88:0.13483997 134:0.13483997 153:0.13483997 185:0.13483997 271:0.13483997 298:0.13483997 330:0.13483997 381:0.13483997 384:0.13483997 424:0.13483997 440:0.13483997 531:0.13483997 546:0.13483997 564:0.13483997 608:0.13483997 612:0.13483997 672:0.13483997 749:0.13483997 772:0.13483997 811:0.13483997 869:0.13483997 901:0.13483997 927:0.13483997 954:0.13483997 963:0.13483997 986:0.13483997 1033:0.13483997 1085:0.13483997 1281:0.13483997 1302:0.13483997 1303:0.13483997 1322:0.13483997 1357:0.13483997 1396:0.13483997 1419:0.13483997 1420:0.13483997 1434:0.13483997 1465:0.13483997 1498:0.13483997 1535:0.13483997 1545:0.13483997 1557:0.13483997 1620:0.13483997 1659:0.13483997 1670:0.13483997 1684:0.13483997 1742:0.13483997 1788:0.13483997 1814:0.13483997 1848:0.13483997 1876:0.13483997 1898:0.13483997 1956:0.13483997 #
1 63:0.21320072 77:0.21320072 99:0.21320072 257:0.21320072 361:0.21320072 562:0.21320072 612:0.21320072 772:0.21320072 901:0.21320072 963:0.21320072 1167:0.21320072 1331:0.21320072 1362:0.21320072 1464:0.21320072 1535:0.21320072 1596:0.21320072 1602:0.21320072 1670:0.21320072 1684:0.21320072 1727:0.21320072 1920:0.21320072 1956:0.21320072 #
0.086978010921745910200009177515312 58:0.14744195 133:0.14744195 144:0.14744195 204:0.14744195 263:0.14744195 293:0.14744195 295:0.14744195 347:0.14744195 424:0.14744195 450:0.14744195 483:0.14744195 485:0.14744195 504:0.14744195 568:0.14744195 625:0.14744195 630:0.14744195 636:0.14744195 741:0.14744195 859:0.14744195 873:0.14744195 913:0.14744195 927:0.14744195 987:0.14744195 1017:0.14744195 1051:0.14744195 1053:0.14744195 1083:0.14744195 1086:0.14744195 1123:0.14744195 1185:0.14744195 1221:0.14744195 1464:0.14744195 1515:0.14744195 1535:0.14744195 1618:0.14744195 1680:0.14744195 1693:0.14744195 1710:0.14744195 1737:0.14744195 1844:0.14744195 1851:0.14744195 1898:0.14744195 1904:0.14744195 1921:0.14744195 1934:0.14744195 1969:0.14744195 #
-1 35:0.20412415 120:0.20412415 263:0.20412415 387:0.20412415 455:0.20412415 546:0.20412415 568:0.20412415 772:0.20412415 872:0.20412415 879:0.20412415 963:0.20412415 976:0.20412415 1033:0.20412415 1422:0.20412415 1464:0.20412415 1535:0.20412415 1684:0.20412415 1711:0.20412415 1738:0.20412415 1801:0.20412415 1890:0.20412415 1914:0.20412415 1972:0.20412415 1987:0.20412415 #
-0.39686579118362702578437506417686 11:0.079305157 13:0.079305157 35:0.079305157 51:0.079305157 63:0.079305157 77:0.079305157 88:0.079305157 91:0.079305157 99:0.079305157 123:0.079305157 133:0.079305157 139:0.079305157 160:0.079305157 189:0.079305157 202:0.079305157 205:0.079305157 207:0.079305157 213:0.079305157 218:0.079305157 245:0.079305157 274:0.079305157 281:0.079305157 285:0.079305157 294:0.079305157 298:0.079305157 325:0.079305157 326:0.079305157 328:0.079305157 340:0.079305157 351:0.079305157 357:0.079305157 361:0.079305157 380:0.079305157 390:0.079305157 398:0.079305157 411:0.079305157 415:0.079305157 424:0.079305157 429:0.079305157 452:0.079305157 455:0.079305157 456:0.079305157 464:0.079305157 477:0.079305157 491:0.079305157 504:0.079305157 525:0.079305157 546:0.079305157 548:0.079305157 592:0.079305157 601:0.079305157 604:0.079305157 608:0.079305157 614:0.079305157 627:0.079305157 672:0.079305157 706:0.079305157 714:0.079305157 726:0.079305157 738:0.079305157 749:0.079305157 757:0.079305157 763:0.079305157 772:0.079305157 811:0.079305157 815:0.079305157 837:0.079305157 869:0.079305157 871:0.079305157 872:0.079305157 877:0.079305157 885:0.079305157 887:0.079305157 895:0.079305157 910:0.079305157 915:0.079305157 916:0.079305157 927:0.079305157 946:0.079305157 954:0.079305157 963:0.079305157 972:0.079305157 975:0.079305157 981:0.079305157 987:0.079305157 1010:0.079305157 1015:0.079305157 1033:0.079305157 1067:0.079305157 1127:0.079305157 1139:0.079305157 1169:0.079305157 1175:0.079305157 1221:0.079305157 1237:0.079305157 1241:0.079305157 1273:0.079305157 1280:0.079305157 1281:0.079305157 1310:0.079305157 1318:0.079305157 1321:0.079305157 1322:0.079305157 1326:0.079305157 1328:0.079305157 1331:0.079305157 1353:0.079305157 1397:0.079305157 1403:0.079305157 1433:0.079305157 1452:0.079305157 1456:0.079305157 1464:0.079305157 1477:0.079305157 1499:0.079305157 1520:0.079305157 1541:0.079305157 1553:0.079305157 1580:0.079305157 1606:0.079305157 1608:0.079305157 1618:0.079305157 1630:0.079305157 1636:0.079305157 1646:0.079305157 1650:0.079305157 1651:0.079305157 1656:0.079305157 1668:0.079305157 1685:0.079305157 1703:0.079305157 1705:0.079305157 1710:0.079305157 1717:0.079305157 1727:0.079305157 1739:0.079305157 1741:0.079305157 1748:0.079305157 1756:0.079305157 1791:0.079305157 1797:0.079305157 1815:0.079305157 1843:0.079305157 1844:0.079305157 1853:0.079305157 1877:0.079305157 1887:0.079305157 1898:0.079305157 1904:0.079305157 1919:0.079305157 1927:0.079305157 1929:0.079305157 1935:0.079305157 1951:0.079305157 1956:0.079305157 1960:0.079305157 1970:0.079305157 1984:0.079305157 1988:0.079305157 #
-1 63:0.10540926 69:0.10540926 77:0.10540926 118:0.10540926 151:0.10540926 185:0.10540926 192:0.10540926 205:0.10540926 215:0.10540926 286:0.10540926 298:0.10540926 326:0.10540926 340:0.10540926 351:0.10540926 357:0.10540926 377:0.10540926 387:0.10540926 391:0.10540926 398:0.10540926 424:0.10540926 471:0.10540926 547:0.10540926 563:0.10540926 580:0.10540926 584:0.10540926 608:0.10540926 617:0.10540926 660:0.10540926 705:0.10540926 718:0.10540926 725:0.10540926 741:0.10540926 749:0.10540926 772:0.10540926 807:0.10540926 808:0.10540926 823:0.10540926 872:0.10540926 925:0.10540926 954:0.10540926 963:0.10540926 976:0.10540926 1004:0.10540926 1032:0.10540926 1040:0.10540926 1076:0.10540926 1083:0.10540926 1087:0.10540926 1122:0.10540926 1189:0.10540926 1210:0.10540926 1216:0.10540926 1262:0.10540926 1285:0.10540926 1303:0.10540926 1326:0.10540926 1331:0.10540926 1338:0.10540926 1351:0.10540926 1359:0.10540926 1379:0.10540926 1403:0.10540926 1421:0.10540926 1427:0.10540926 1452:0.10540926 1464:0.10540926 1471:0.10540926 1485:0.10540926 1499:0.10540926 1503:0.10540926 1526:0.10540926 1535:0.10540926 1580:0.10540926 1618:0.10540926 1670:0.10540926 1705:0.10540926 1727:0.10540926 1748:0.10540926 1795:0.10540926 1802:0.10540926 1848:0.10540926 1877:0.10540926 1880:0.10540926 1898:0.10540926 1920:0.10540926 1927:0.10540926 1956:0.10540926 1960:0.10540926 1966:0.10540926 1988:0.10540926 #
-1 53:0.17960531 67:0.17960531 77:0.17960531 424:0.17960531 483:0.17960531 504:0.17960531 546:0.17960531 605:0.17960531 608:0.17960531 686:0.17960531 823:0.17960531 919:0.17960531 954:0.17960531 964:0.17960531 976:0.17960531 1051:0.17960531 1157:0.17960531 1159:0.17960531 1267:0.17960531 1303:0.17960531 1323:0.17960531 1452:0.17960531 1535:0.17960531 1618:0.17960531 1670:0.17960531 1684:0.17960531 1693:0.17960531 1768:0.17960531 1816:0.17960531 1848:0.17960531 1920:0.17960531 #
-0.96108919201953357802636901396909 88:0.16666667 99:0.16666667 172:0.16666667 249:0.16666667 351:0.16666667 381:0.16666667 482:0.16666667 498:0.16666667 568:0.16666667 659:0.16666667 673:0.16666667 694:0.16666667 749:0.16666667 816:0.16666667 908:0.16666667 963:0.16666667 976:0.16666667 1033:0.16666667 1070:0.16666667 1134:0.16666667 1160:0.16666667 1463:0.16666667 1464:0.16666667 1482:0.16666667 1496:0.16666667 1535:0.16666667 1618:0.16666667 1650:0.16666667 1684:0.16666667 1741:0.16666667 1770:0.16666667 1890:0.16666667 1898:0.16666667 1904:0.16666667 1920:0.16666667 1926:0.16666667 #
1 30:0.19245009 77:0.19245009 134:0.19245009 138:0.19245009 160:0.19245009 252:0.19245009 313:0.19245009 424:0.19245009 450:0.19245009 477:0.19245009 531:0.19245009 716:0.19245009 729:0.19245009 872:0.19245009 1010:0.19245009 1011:0.19245009 1015:0.19245009 1115:0.19245009 1159:0.19245009 1251:0.19245009 1328:0.19245009 1564:0.19245009 1596:0.19245009 1851:0.19245009 1853:0.19245009 1939:0.19245009 1954:0.19245009 #
1 8:0.17677669 20:0.17677669 40:0.17677669 77:0.17677669 160:0.17677669 313:0.17677669 328:0.17677669 351:0.17677669 424:0.17677669 430:0.17677669 456:0.17677669 486:0.17677669 634:0.17677669 749:0.17677669 815:0.17677669 845:0.17677669 873:0.17677669 1018:0.17677669 1030:0.17677669 1083:0.17677669 1120:0.17677669 1159:0.17677669 1305:0.17677669 1314:0.17677669 1524:0.17677669 1535:0.17677669 1595:0.17677669 1596:0.17677669 1659:0.17677669 1788:0.17677669 1797:0.17677669 1972:0.17677669 #
1 38:0.12038586 44:0.12038586 63:0.12038586 131:0.12038586 134:0.12038586 138:0.12038586 139:0.12038586 144:0.12038586 160:0.12038586 187:0.12038586 213:0.12038586 313:0.12038586 340:0.12038586 347:0.12038586 351:0.12038586 361:0.12038586 372:0.12038586 380:0.12038586 418:0.12038586 455:0.12038586 456:0.12038586 481:0.12038586 524:0.12038586 546:0.12038586 559:0.12038586 608:0.12038586 639:0.12038586 677:0.12038586 741:0.12038586 743:0.12038586 749:0.12038586 763:0.12038586 785:0.12038586 787:0.12038586 845:0.12038586 872:0.12038586 909:0.12038586 954:0.12038586 976:0.12038586 981:0.12038586 987:0.12038586 1010:0.12038586 1015:0.12038586 1022:0.12038586 1053:0.12038586 1075:0.12038586 1083:0.12038586 1124:0.12038586 1140:0.12038586 1190:0.12038586 1290:0.12038586 1305:0.12038586 1328:0.12038586 1353:0.12038586 1434:0.12038586 1471:0.12038586 1479:0.12038586 1508:0.12038586 1522:0.12038586 1535:0.12038586 1645:0.12038586 1711:0.12038586 1727:0.12038586 1739:0.12038586 1755:0.12038586 1822:0.12038586 1851:0.12038586 1904:0.12038586 1921:0.12038586 #
1 30:0.11043153 58:0.11043153 63:0.11043153 77:0.11043153 79:0.11043153 98:0.11043153 99:0.11043153 130:0.11043153 134:0.11043153 136:0.11043153 138:0.11043153 145:0.11043153 160:0.11043153 190:0.11043153 196:0.11043153 205:0.11043153 263:0.11043153 272:0.11043153 293:0.11043153 313:0.11043153 415:0.11043153 424:0.11043153 456:0.11043153 477:0.11043153 505:0.11043153 525:0.11043153 639:0.11043153 645:0.11043153 665:0.11043153 672:0.11043153 721:0.11043153 749:0.11043153 769:0.11043153 772:0.11043153 811:0.11043153 829:0.11043153 845:0.11043153 869:0.11043153 920:0.11043153 925:0.11043153 954:0.11043153 961:0.11043153 963:0.11043153 1015:0.11043153 1043:0.11043153 1069:0.11043153 1094:0.11043153 1169:0.11043153 1172:0.11043153 1265:0.11043153 1267:0.11043153 1305:0.11043153 1328:0.11043153 1353:0.11043153 1396:0.11043153 1398:0.11043153 1403:0.11043153 1422:0.11043153 1433:0.11043153 1452:0.11043153 1453:0.11043153 1535:0.11043153 1571:0.11043153 1582:0.11043153 1618:0.11043153 1629:0.11043153 1646:0.11043153 1665:0.11043153 1710:0.11043153 1727:0.11043153 1728:0.11043153 1770:0.11043153 1786:0.11043153 1844:0.11043153 1848:0.11043153 1853:0.11043153 1887:0.11043153 1904:0.11043153 1927:0.11043153 1956:0.11043153 1966:0.11043153 1987:0.11043153 #
1 77:0.24253562 160:0.24253562 191:0.24253562 313:0.24253562 408:0.24253562 424:0.24253562 608:0.24253562 987:0.24253562 1015:0.24253562 1251:0.24253562 1322:0.24253562 1582:0.24253562 1618:0.24253562 1710:0.24253562 1882:0.24253562 1908:0.24253562 1962:0.24253562 #
-1 63:0.17677669 99:0.17677669 126:0.17677669 190:0.17677669 313:0.17677669 340:0.17677669 351:0.17677669 357:0.17677669 456:0.17677669 504:0.17677669 661:0.17677669 741:0.17677669 772:0.17677669 792:0.17677669 987:0.17677669 1015:0.17677669 1032:0.17677669 1083:0.17677669 1100:0.17677669 1282:0.17677669 1360:0.17677669 1414:0.17677669 1422:0.17677669 1457:0.17677669 1458:0.17677669 1464:0.17677669 1822:0.17677669 1844:0.17677669 1846:0.17677669 1853:0.17677669 1904:0.17677669 1984:0.17677669 #
-1 7:0.11250879 53:0.11250879 77:0.11250879 88:0.11250879 127:0.11250879 154:0.11250879 160:0.11250879 185:0.11250879 218:0.11250879 223:0.11250879 267:0.11250879 313:0.11250879 351:0.11250879 357:0.11250879 398:0.11250879 415:0.11250879 420:0.11250879 424:0.11250879 496:0.11250879 531:0.11250879 600:0.11250879 628:0.11250879 652:0.11250879 672:0.11250879 673:0.11250879 712:0.11250879 727:0.11250879 741:0.11250879 749:0.11250879 772:0.11250879 778:0.11250879 792:0.11250879 811:0.11250879 845:0.11250879 905:0.11250879 913:0.11250879 952:0.11250879 954:0.11250879 963:0.11250879 972:0.11250879 987:0.11250879 1010:0.11250879 1015:0.11250879 1145:0.11250879 1167:0.11250879 1233:0.11250879 1247:0.11250879 1281:0.11250879 1305:0.11250879 1322:0.11250879 1328:0.11250879 1353:0.11250879 1387:0.11250879 1453:0.11250879 1464:0.11250879 1492:0.11250879 1535:0.11250879 1536:0.11250879 1576:0.11250879 1595:0.11250879 1618:0.11250879 1674:0.11250879 1691:0.11250879 1705:0.11250879 1710:0.11250879 1717:0.11250879 1727:0.11250879 1728:0.11250879 1737:0.11250879 1815:0.11250879 1829:0.11250879 1844:0.11250879 1853:0.11250879 1893:0.11250879 1904:0.11250879 1916:0.11250879 1921:0.11250879 1927:0.11250879 1953:0.11250879 #
-1 53:0.13363062 64:0.13363062 77:0.13363062 92:0.13363062 156:0.13363062 252:0.13363062 313:0.13363062 326:0.13363062 340:0.13363062 351:0.13363062 353:0.13363062 357:0.13363062 398:0.13363062 424:0.13363062 477:0.13363062 483:0.13363062 541:0.13363062 545:0.13363062 604:0.13363062 628:0.13363062 743:0.13363062 794:0.13363062 796:0.13363062 820:0.13363062 896:0.13363062 900:0.13363062 963:0.13363062 987:0.13363062 1015:0.13363062 1057:0.13363062 1064:0.13363062 1178:0.13363062 1185:0.13363062 1190:0.13363062 1294:0.13363062 1326:0.13363062 1328:0.13363062 1345:0.13363062 1382:0.13363062 1413:0.13363062 1448:0.13363062 1498:0.13363062 1520:0.13363062 1574:0.13363062 1620:0.13363062 1646:0.13363062 1727:0.13363062 1805:0.13363062 1844:0.13363062 1848:0.13363062 1850:0.13363062 1853:0.13363062 1877:0.13363062 1927:0.13363062 1972:0.13363062 1980:0.13363062 #
-1 39:0.12309149 57:0.12309149 60:0.12309149 77:0.12309149 78:0.12309149 88:0.12309149 172:0.12309149 293:0.12309149 310:0.12309149 326:0.12309149 340:0.12309149 352:0.12309149 357:0.12309149 375:0.12309149 379:0.12309149 415:0.12309149 424:0.12309149 469:0.12309149 532:0.12309149 546:0.12309149 556:0.12309149 558:0.12309149 629:0.12309149 645:0.12309149 681:0.12309149 700:0.12309149 741:0.12309149 749:0.12309149 751:0.12309149 819:0.12309149 832:0.12309149 896:0.12309149 927:0.12309149 937:0.12309149 987:0.12309149 1015:0.12309149 1028:0.12309149 1043:0.12309149 1241:0.12309149 1328:0.12309149 1331:0.12309149 1344:0.12309149 1471:0.12309149 1477:0.12309149 1534:0.12309149 1535:0.12309149 1603:0.12309149 1618:0.12309149 1635:0.12309149 1670:0.12309149 1678:0.12309149 1687:0.12309149 1711:0.12309149 1727:0.12309149 1728:0.12309149 1739:0.12309149 1799:0.12309149 1825:0.12309149 1843:0.12309149 1859:0.12309149 1898:0.12309149 1910:0.12309149 1920:0.12309149 1956:0.12309149 1972:0.12309149 1997:0.12309149 #
-0.54496609906874993178860222542426 39:0.15430336 77:0.15430336 90:0.15430336 160:0.15430336 161:0.15430336 313:0.15430336 351:0.15430336 398:0.15430336 431:0.15430336 483:0.15430336 492:0.15430336 531:0.15430336 537:0.15430336 539:0.15430336 544:0.15430336 617:0.15430336 645:0.15430336 741:0.15430336 742:0.15430336 749:0.15430336 811:0.15430336 859:0.15430336 904:0.15430336 932:0.15430336 954:0.15430336 1015:0.15430336 1033:0.15430336 1182:0.15430336 1202:0.15430336 1216:0.15430336 1315:0.15430336 1362:0.15430336 1377:0.15430336 1498:0.15430336 1618:0.15430336 1620:0.15430336 1630:0.15430336 1654:0.15430336 1705:0.15430336 1851:0.15430336 1927:0.15430336 1954:0.15430336 #
1 139:0.15249857 171:0.15249857 230:0.15249857 267:0.15249857 293:0.15249857 342:0.15249857 351:0.15249857 357:0.15249857 405:0.15249857 424:0.15249857 546:0.15249857 547:0.15249857 744:0.15249857 757:0.15249857 841:0.15249857 859:0.15249857 954:0.15249857 963:0.15249857 987:0.15249857 988:0.15249857 995:0.15249857 1004:0.15249857 1034:0.15249857 1085:0.15249857 1178:0.15249857 1188:0.15249857 1233:0.15249857 1285:0.15249857 1377:0.15249857 1422:0.15249857 1464:0.15249857 1465:0.15249857 1630:0.15249857 1727:0.15249857 1738:0.15249857 1762:0.15249857 1848:0.15249857 1898:0.15249857 1921:0.15249857 1927:0.15249857 1956:0.15249857 1972:0.15249857 1988:0.15249857 #
1 53:0.26726124 249:0.26726124 265:0.26726124 293:0.26726124 424:0.26726124 482:0.26726124 588:0.26726124 665:0.26726124 976:0.26726124 1028:0.26726124 1033:0.26726124 1646:0.26726124 1670:0.26726124 1848:0.26726124 #
1 63:0.13363062 96:0.13363062 98:0.13363062 99:0.13363062 134:0.13363062 139:0.13363062 195:0.13363062 224:0.13363062 277:0.13363062 293:0.13363062 337:0.13363062 351:0.13363062 357:0.13363062 387:0.13363062 402:0.13363062 405:0.13363062 508:0.13363062 551:0.13363062 568:0.13363062 584:0.13363062 608:0.13363062 632:0.13363062 672:0.13363062 718:0.13363062 737:0.13363062 749:0.13363062 823:0.13363062 857:0.13363062 870:0.13363062 872:0.13363062 879:0.13363062 891:0.13363062 932:0.13363062 954:0.13363062 963:0.13363062 976:0.13363062 998:0.13363062 1004:0.13363062 1007:0.13363062 1033:0.13363062 1157:0.13363062 1255:0.13363062 1280:0.13363062 1408:0.13363062 1464:0.13363062 1471:0.13363062 1543:0.13363062 1615:0.13363062 1618:0.13363062 1680:0.13363062 1741:0.13363062 1765:0.13363062 1766:0.13363062 1795:0.13363062 1848:0.13363062 1904:0.13363062 #
1 351:0.21821789 381:0.21821789 455:0.21821789 477:0.21821789 490:0.21821789 532:0.21821789 543:0.21821789 546:0.21821789 608:0.21821789 807:0.21821789 852:0.21821789 976:0.21821789 1033:0.21821789 1110:0.21821789 1153:0.21821789 1477:0.21821789 1557:0.21821789 1620:0.21821789 1877:0.21821789 1927:0.21821789 1957:0.21821789 #
0.50575081601370897033120854757726 58:0.25 214:0.25 357:0.25 387:0.25 424:0.25 508:0.25 568:0.25 718:0.25 772:0.25 879:0.25 976:0.25 1630:0.25 1898:0.25 1904:0.25 1921:0.25 1957:0.25 #
-0.23620416766819110621078436906828 35:0.11043153 44:0.11043153 51:0.11043153 53:0.11043153 88:0.11043153 99:0.11043153 160:0.11043153 167:0.11043153 214:0.11043153 285:0.11043153 304:0.11043153 313:0.11043153 328:0.11043153 331:0.11043153 340:0.11043153 351:0.11043153 380:0.11043153 387:0.11043153 424:0.11043153 437:0.11043153 450:0.11043153 456:0.11043153 485:0.11043153 491:0.11043153 514:0.11043153 515:0.11043153 551:0.11043153 557:0.11043153 614:0.11043153 636:0.11043153 640:0.11043153 651:0.11043153 671:0.11043153 673:0.11043153 706:0.11043153 711:0.11043153 757:0.11043153 760:0.11043153 765:0.11043153 780:0.11043153 781:0.11043153 807:0.11043153 817:0.11043153 869:0.11043153 877:0.11043153 882:0.11043153 976:0.11043153 1033:0.11043153 1057:0.11043153 1081:0.11043153 1083:0.11043153 1119:0.11043153 1133:0.11043153 1169:0.11043153 1190:0.11043153 1201:0.11043153 1281:0.11043153 1308:0.11043153 1380:0.11043153 1391:0.11043153 1409:0.11043153 1413:0.11043153 1419:0.11043153 1444:0.11043153 1522:0.11043153 1545:0.11043153 1603:0.11043153 1639:0.11043153 1646:0.11043153 1648:0.11043153 1669:0.11043153 1746:0.11043153 1799:0.11043153 1822:0.11043153 1848:0.11043153 1853:0.11043153 1893:0.11043153 1898:0.11043153 1953:0.11043153 1972:0.11043153 1981:0.11043153 1984:0.11043153 #
-0.72121946947636939029280256363563 20:0.18257418 111:0.18257418 124:0.18257418 136:0.18257418 202:0.18257418 275:0.18257418 290:0.18257418 374:0.18257418 424:0.18257418 475:0.18257418 477:0.18257418 546:0.18257418 564:0.18257418 697:0.18257418 726:0.18257418 750:0.18257418 853:0.18257418 954:0.18257418 1018:0.18257418 1074:0.18257418 1120:0.18257418 1148:0.18257418 1180:0.18257418 1324:0.18257418 1471:0.18257418 1535:0.18257418 1797:0.18257418 1833:0.18257418 1893:0.18257418 1926:0.18257418 #
-1 30:0.15617377 52:0.15617377 92:0.15617377 99:0.15617377 107:0.15617377 113:0.15617377 124:0.15617377 134:0.15617377 290:0.15617377 310:0.15617377 351:0.15617377 357:0.15617377 396:0.15617377 546:0.15617377 608:0.15617377 725:0.15617377 757:0.15617377 778:0.15617377 811:0.15617377 823:0.15617377 927:0.15617377 954:0.15617377 1015:0.15617377 1028:0.15617377 1033:0.15617377 1112:0.15617377 1135:0.15617377 1198:0.15617377 1306:0.15617377 1477:0.15617377 1535:0.15617377 1549:0.15617377 1555:0.15617377 1602:0.15617377 1620:0.15617377 1640:0.15617377 1670:0.15617377 1760:0.15617377 1842:0.15617377 1904:0.15617377 1968:0.15617377 #
-1 77:0.22941573 126:0.22941573 183:0.22941573 265:0.22941573 424:0.22941573 478:0.22941573 537:0.22941573 574:0.22941573 608:0.22941573 772:0.22941573 877:0.22941573 1033:0.22941573 1167:0.22941573 1221:0.22941573 1452:0.22941573 1646:0.22941573 1831:0.22941573 1844:0.22941573 1972:0.22941573 #
-0.040882162336845107031280122100725 60:0.13018891 77:0.13018891 88:0.13018891 90:0.13018891 143:0.13018891 185:0.13018891 225:0.13018891 263:0.13018891 282:0.13018891 313:0.13018891 326:0.13018891 357:0.13018891 379:0.13018891 387:0.13018891 391:0.13018891 424:0.13018891 543:0.13018891 546:0.13018891 604:0.13018891 636:0.13018891 645:0.13018891 672:0.13018891 679:0.13018891 688:0.13018891 739:0.13018891 741:0.13018891 772:0.13018891 811:0.13018891 862:0.13018891 885:0.13018891 894:0.13018891 954:0.13018891 987:0.13018891 1012:0.13018891 1083:0.13018891 1102:0.13018891 1124:0.13018891 1154:0.13018891 1159:0.13018891 1189:0.13018891 1380:0.13018891 1417:0.13018891 1419:0.13018891 1452:0.13018891 1479:0.13018891 1574:0.13018891 1582:0.13018891 1594:0.13018891 1667:0.13018891 1676:0.13018891 1693:0.13018891 1727:0.13018891 1729:0.13018891 1735:0.13018891 1850:0.13018891 1875:0.13018891 1892:0.13018891 1902:0.13018891 1921:0.13018891 #
1 11:0.10314213 13:0.10314213 30:0.10314213 49:0.10314213 53:0.10314213 63:0.10314213 72:0.10314213 77:0.10314213 88:0.10314213 89:0.10314213 90:0.10314213 92:0.10314213 126:0.10314213 130:0.10314213 144:0.10314213 161:0.10314213 182:0.10314213 218:0.10314213 252:0.10314213 257:0.10314213 263:0.10314213 277:0.10314213 313:0.10314213 340:0.10314213 351:0.10314213 357:0.10314213 372:0.10314213 381:0.10314213 387:0.10314213 399:0.10314213 415:0.10314213 424:0.10314213 427:0.10314213 434:0.10314213 443:0.10314213 551:0.10314213 608:0.10314213 642:0.10314213 672:0.10314213 741:0.10314213 749:0.10314213 756:0.10314213 757:0.10314213 772:0.10314213 819:0.10314213 835:0.10314213 877:0.10314213 885:0.10314213 905:0.10314213 915:0.10314213 963:0.10314213 972:0.10314213 976:0.10314213 987:0.10314213 1015:0.10314213 1033:0.10314213 1038:0.10314213 1168:0.10314213 1169:0.10314213 1182:0.10314213 1331:0.10314213 1403:0.10314213 1419:0.10314213 1452:0.10314213 1464:0.10314213 1473:0.10314213 1549:0.10314213 1630:0.10314213 1676:0.10314213 1693:0.10314213 1705:0.10314213 1711:0.10314213 1727:0.10314213 1730:0.10314213 1735:0.10314213 1741:0.10314213 1750:0.10314213 1756:0.10314213 1774:0.10314213 1777:0.10314213 1785:0.10314213 1791:0.10314213 1814:0.10314213 1829:0.10314213 1831:0.10314213 1843:0.10314213 1851:0.10314213 1859:0.10314213 1867:0.10314213 1898:0.10314213 1935:0.10314213 1956:0.10314213 1962:0.10314213 1966:0.10314213 #
1 18:0.11952286 69:0.11952286 77:0.11952286 93:0.11952286 131:0.11952286 139:0.11952286 330:0.11952286 340:0.11952286 351:0.11952286 357:0.11952286 359:0.11952286 381:0.11952286 443:0.11952286 504:0.11952286 538:0.11952286 550:0.11952286 608:0.11952286 672:0.11952286 673:0.11952286 722:0.11952286 741:0.11952286 772:0.11952286 807:0.11952286 817:0.11952286 871:0.11952286 877:0.11952286 885:0.11952286 987:0.11952286 1015:0.11952286 1051:0.11952286 1070:0.11952286 1083:0.11952286 1119:0.11952286 1124:0.11952286 1168:0.11952286 1175:0.11952286 1271:0.11952286 1326:0.11952286 1331:0.11952286 1384:0.11952286 1395:0.11952286 1402:0.11952286 1427:0.11952286 1452:0.11952286 1464:0.11952286 1494:0.11952286 1535:0.11952286 1587:0.11952286 1606:0.11952286 1610:0.11952286 1618:0.11952286 1643:0.11952286 1656:0.11952286 1670:0.11952286 1691:0.11952286 1727:0.11952286 1728:0.11952286 1735:0.11952286 1774:0.11952286 1777:0.11952286 1788:0.11952286 1797:0.11952286 1822:0.11952286 1853:0.11952286 1876:0.11952286 1900:0.11952286 1927:0.11952286 1935:0.11952286 1956:0.11952286 1986:0.11952286 #
1 52:0.20412415 113:0.20412415 161:0.20412415 313:0.20412415 357:0.20412415 387:0.20412415 434:0.20412415 546:0.20412415 586:0.20412415 608:0.20412415 785:0.20412415 792:0.20412415 828:0.20412415 963:0.20412415 987:0.20412415 1015:0.20412415 1053:0.20412415 1100:0.20412415 1185:0.20412415 1339:0.20412415 1618:0.20412415 1805:0.20412415 1980:0.20412415 1983:0.20412415 #
0.95699270034099914727931945890305 73:0.14744195 118:0.14744195 147:0.14744195 160:0.14744195 203:0.14744195 257:0.14744195 263:0.14744195 269:0.14744195 313:0.14744195 316:0.14744195 351:0.14744195 359:0.14744195 399:0.14744195 404:0.14744195 465:0.14744195 541:0.14744195 608:0.14744195 691:0.14744195 700:0.14744195 741:0.14744195 749:0.14744195 772:0.14744195 784:0.14744195 872:0.14744195 904:0.14744195 1015:0.14744195 1083:0.14744195 1167:0.14744195 1175:0.14744195 1190:0.14744195 1435:0.14744195 1439:0.14744195 1535:0.14744195 1547:0.14744195 1552:0.14744195 1629:0.14744195 1633:0.14744195 1716:0.14744195 1728:0.14744195 1738:0.14744195 1742:0.14744195 1805:0.14744195 1829:0.14744195 1898:0.14744195 1921:0.14744195 1954:0.14744195 #
1 28:0.1490712 91:0.1490712 251:0.1490712 267:0.1490712 351:0.1490712 357:0.1490712 387:0.1490712 469:0.1490712 473:0.1490712 486:0.1490712 498:0.1490712 546:0.1490712 625:0.1490712 741:0.1490712 749:0.1490712 752:0.1490712 800:0.1490712 822:0.1490712 962:0.1490712 963:0.1490712 1076:0.1490712 1083:0.1490712 1123:0.1490712 1133:0.1490712 1150:0.1490712 1190:0.1490712 1290:0.1490712 1297:0.1490712 1452:0.1490712 1479:0.1490712 1482:0.1490712 1504:0.1490712 1535:0.1490712 1596:0.1490712 1603:0.1490712 1618:0.1490712 1659:0.1490712 1670:0.1490712 1684:0.1490712 1770:0.1490712 1898:0.1490712 1920:0.1490712 1935:0.1490712 1972:0.1490712 1980:0.1490712 #
-1 91:0.15617377 99:0.15617377 265:0.15617377 328:0.15617377 351:0.15617377 357:0.15617377 387:0.15617377 424:0.15617377 434:0.15617377 504:0.15617377 546:0.15617377 582:0.15617377 588:0.15617377 604:0.15617377 645:0.15617377 672:0.15617377 749:0.15617377 787:0.15617377 815:0.15617377 885:0.15617377 888:0.15617377 982:0.15617377 1015:0.15617377 1048:0.15617377 1110:0.15617377 1138:0.15617377 1169:0.15617377 1190:0.15617377 1331:0.15617377 1536:0.15617377 1618:0.15617377 1639:0.15617377 1649:0.15617377 1711:0.15617377 1727:0.15617377 1765:0.15617377 1851:0.15617377 1920:0.15617377 1951:0.15617377 1956:0.15617377 1957:0.15617377 #
-1 63:0.15617377 118:0.15617377 138:0.15617377 160:0.15617377 198:0.15617377 247:0.15617377 263:0.15617377 313:0.15617377 318:0.15617377 350:0.15617377 351:0.15617377 392:0.15617377 543:0.15617377 546:0.15617377 558:0.15617377 608:0.15617377 613:0.15617377 645:0.15617377 700:0.15617377 749:0.15617377 845:0.15617377 870:0.15617377 956:0.15617377 963:0.15617377 1107:0.15617377 1159:0.15617377 1169:0.15617377 1228:0.15617377 1464:0.15617377 1500:0.15617377 1535:0.15617377 1630:0.15617377 1670:0.15617377 1706:0.15617377 1727:0.15617377 1737:0.15617377 1848:0.15617377 1904:0.15617377 1912:0.15617377 1956:0.15617377 1976:0.15617377 #
-1 19:0.125 38:0.125 44:0.125 69:0.125 77:0.125 83:0.125 88:0.125 99:0.125 134:0.125 138:0.125 160:0.125 236:0.125 242:0.125 313:0.125 351:0.125 357:0.125 381:0.125 418:0.125 424:0.125 443:0.125 456:0.125 546:0.125 608:0.125 637:0.125 672:0.125 726:0.125 749:0.125 810:0.125 882:0.125 887:0.125 901:0.125 961:0.125 963:0.125 976:0.125 987:0.125 1004:0.125 1015:0.125 1067:0.125 1083:0.125 1169:0.125 1178:0.125 1182:0.125 1188:0.125 1190:0.125 1233:0.125 1263:0.125 1328:0.125 1331:0.125 1357:0.125 1464:0.125 1512:0.125 1571:0.125 1582:0.125 1596:0.125 1618:0.125 1686:0.125 1727:0.125 1765:0.125 1875:0.125 1878:0.125 1921:0.125 1956:0.125 1969:0.125 1980:0.125 #
-0.52192077546568982349128873465816 73:0.16903085 90:0.16903085 94:0.16903085 138:0.16903085 160:0.16903085 223:0.16903085 313:0.16903085 387:0.16903085 434:0.16903085 451:0.16903085 529:0.16903085 543:0.16903085 546:0.16903085 558:0.16903085 572:0.16903085 608:0.16903085 648:0.16903085 672:0.16903085 749:0.16903085 872:0.16903085 877:0.16903085 963:0.16903085 1085:0.16903085 1156:0.16903085 1159:0.16903085 1255:0.16903085 1263:0.16903085 1328:0.16903085 1351:0.16903085 1422:0.16903085 1495:0.16903085 1862:0.16903085 1904:0.16903085 1972:0.16903085 1980:0.16903085 #
-1 27:0.13245323 52:0.13245323 53:0.13245323 113:0.13245323 144:0.13245323 160:0.13245323 165:0.13245323 313:0.13245323 351:0.13245323 357:0.13245323 387:0.13245323 424:0.13245323 428:0.13245323 431:0.13245323 478:0.13245323 483:0.13245323 541:0.13245323 546:0.13245323 608:0.13245323 626:0.13245323 627:0.13245323 711:0.13245323 741:0.13245323 756:0.13245323 823:0.13245323 845:0.13245323 972:0.13245323 1015:0.13245323 1053:0.13245323 1067:0.13245323 1083:0.13245323 1110:0.13245323 1124:0.13245323 1143:0.13245323 1169:0.13245323 1182:0.13245323 1185:0.13245323 1305:0.13245323 1346:0.13245323 1353:0.13245323 1465:0.13245323 1535:0.13245323 1536:0.13245323 1602:0.13245323 1603:0.13245323 1618:0.13245323 1711:0.13245323 1771:0.13245323 1807:0.13245323 1831:0.13245323 1898:0.13245323 1925:0.13245323 1927:0.13245323 1929:0.13245323 1951:0.13245323 1954:0.13245323 1972:0.13245323 #
